function [y1,fg] = fun_4d(x1)
%FUN neural network simulation function.
%
% Auto-generated by MATLAB, 14-Sep-2022 13:41:12.
% 
% [y1] = fun(x1) takes these arguments:
%   x = 4xQ matrix, input #1
% and returns:
%   y = 1xQ matrix, output #1
% where Q is the number of samples.

%#ok<*RPMT0>

% ===== NEURAL NETWORK CONSTANTS =====

% Input 1
x1_step1.xoffset = [-1.91010165214539;-1.85476279258728;-1.85069608688354;-1.92371773719788];
x1_step1.gain = [0.523726973845736;0.521905322796479;0.526977611388274;0.509949262570945];
x1_step1.ymin = -1;

% Layer 1
b1 = [-3.5687034584617594035;-3.6805659386221778462;3.5985569504716998779;3.6527466132731385429;3.3591159208727465746;2.1962379128744609069;2.5957363626272771384;2.2644509728646791125;-1.7318232930284218618;-2.5069408893867106691;-1.6058617091924964893;-2.223614675868516688;-1.5430560441318406095;-1.6777574874291441009;1.1051053395167702575;-1.0749413634989268829;0.55674538390733885329;-0.85600592295910471474;0.51770329180746132991;0.18741264393194981275;0.61902286558220620538;0.30811206190428741536;0.21954660572939260765;-0.25669789706126083795;0.13673208494460850626;0.34105795917630687963;0.29413556297296866715;0.13995173227287055484;-0.48798873896442784837;0.35228403520517681535;1.3010313353451783414;0.55436082475134740299;-1.1242387726720617369;1.0755390821480126373;-1.1739432494233044135;0.64948384182459306668;-1.7356361904376558236;2.2115997253701147329;-2.0049192009550629301;-1.2358255459949551991;1.5656838288767014333;2.3619383678434089369;-2.6300526911284691778;2.9734774376692620912;-3.1155191725565929417;-3.2741994739403512682;-3.0781814502436408709;-3.6550048568524720061;-4.1645990233186527263;3.9155238050143283957];
IW1_1 = [1.7178716836984757599 0.6678152931643336343 2.190382496095005127 -2.1267082034423796522;1.2652260933546735089 -0.70016593071909338786 -3.1403279652740998529 -1.1577025678067742742;-2.1090510739885006686 -2.346017542313350468 -0.11330375196922291836 0.011388406486420183869;-2.3538764155570639502 0.95015590015839324067 1.3990523343625325126 1.7334941200846629705;-3.0052159107876401656 0.69247481936562305105 1.5004330771997238525 1.0565072730283981972;-1.105477503627187108 -0.4824018059434204142 2.9156106555140901548 0.061857368834225372189;-1.8391877198489878786 2.4644064704636465812 1.1729115140612327295 -1.8363549815016213529;-0.60937847345213669303 -0.84326734930222291275 -1.0469965569148860229 -2.1788448087926641783;3.2195215295026584634 -0.18794011293466755808 -1.3107550653320203526 -0.024677568639752699153;0.6743032763970332466 0.30319285466851653155 1.6592320570160290494 2.0057038319714339814;0.044878935297179622932 -0.25338728438533658638 2.1274701382828049567 1.2329937150836796089;2.2989386526603667882 -1.4396967425283269115 -0.60269386600585084235 -1.0001228446634569114;1.2441860766432606411 0.66366193745411150573 -1.1944387821039046393 1.7099482290128995565;0.94047009314502927335 0.49218436917488012083 1.7076200091157323069 -1.4366720553801388682;-1.8727438463117831446 -1.8485323953933157082 -0.63728572929438953576 0.053844935505123363295;0.90171979473887398093 2.1870022809669933395 -0.89354627016386811711 -1.4787780840989113162;-1.726716564026160361 1.7951446223960223492 -0.00095959481071787263752 -2.0879649244455738;0.71416484569794569381 1.2834096519168955997 1.7697688986328301564 -1.8551570680653699519;-2.1550664209344136957 1.4028247120870331877 1.4864676175453501727 -1.3765724275135751142;-1.4737902472917108199 -1.7411916834632639173 1.9971966786433967833 0.64164839144662910719;-2.5734692320697161172 0.60836955041937545996 -0.38619196773514147258 1.2556859279139633845;-1.2224312399204615431 2.0448941006677081589 1.523708282676750736 -0.043792968821809087621;-1.1776251478777617354 1.7913470062632597113 -0.8998728347577967801 1.1678534116863861225;1.056691636675846091 -0.025335475812538671425 -1.5105784713308663125 -2.7249942133889972773;1.7058821453978965099 1.0946337019886211994 -2.1039578445183759747 0.67522470467470474542;1.7981409085807684711 1.7013870502319390354 0.20444804005636710298 -1.7639357209823540718;2.177845079651260729 -1.8338446422081295939 -0.15342875641398667774 -0.76302681139293782042;2.133473618737932842 -0.96473506009095655322 0.22620823425091010628 1.7741991326170587495;-1.0844647420306621211 -1.4372538478966323527 0.78320832287959363249 1.3152577779230028021;2.2448490839855419487 -0.59940245695529714709 -0.7664406418532546672 -1.3851489008592636765;0.85714691689225586124 -0.44479149764393638433 -0.92071588775975032881 -2.1369953159570491685;0.52100117369945697643 2.602637579781285293 1.1359353462392653977 0.11340372222301381422;-0.15979989084555504264 0.10016598513687313687 -1.5787458208782252367 -2.869575050240289027;0.29735551910808050158 -2.6145728479445766723 -0.6169418625768996467 1.5869024003654135235;-2.6197334051770777563 -0.30402546185467521633 0.51906912121216408629 -0.14589030766382554694;0.68534738774170345099 -1.5891684625075270798 -1.4782222227454049346 -0.8108928971780268169;-1.0714962427794487709 2.5527771586298579898 0.69958362608943491789 -0.98336874038117771946;0.66740519510674611858 1.5617228819342845458 -0.60218580056076620455 1.4952774752585040741;-0.10330190201460261179 -0.17309098491260910269 -2.8449359466512649242 -1.4712743873710418807;-0.71290337920921076353 -1.1596878413764448723 -2.0362899443927737764 -0.032928444643547771786;0.69398305665548243315 -1.669159711927536982 1.6559392476838150632 2.0041686692950158033;2.7872080150025935197 -1.1305387542903038156 -0.93800555611215263863 0.9338823952581820631;-1.662937156590840404 -1.4760162703726522615 -1.9300399518600683813 -0.95375294742278704518;1.7183537275591078686 -1.8686528724995645767 -1.6670143735095146464 -0.52164517847731062261;-0.87127492624301250412 -0.81505310901459915307 -3.036375776257180803 -1.0918832896413690481;-0.40863517733109255836 0.56878030268433243943 -0.17584737357162469329 -3.3071912486922148133;-0.28364041397210243423 -1.386441627800510501 1.5837571269215788838 2.8865188317591230494;-1.7943434392693842216 -0.64306660677747340404 -2.3483414000850095782 0.46860747853903089721;-0.46033114051997620075 0.7811524235022768714 -2.3544638454250503834 0.95866125805212176747;2.2179316141798031126 1.1601759005492160437 1.9714178859184847692 1.379452937795062617];

% Layer 2
b2 = [-1.4733792157119971478;-1.4520441715535250538;1.438265790126743493;-1.3911055157262519621;-1.1910832252176775103;1.2629724548755618674;-1.1955819653633321664;1.1461419534771353224;-1.1076333356864505042;0.92191914022758847391;1.0117012784693961702;-0.95413023064635782422;-0.81422901036300676658;0.59785781968389994923;-0.67393732223211588739;0.52774679219191522606;-0.64669603144658438509;-0.48824930042719616452;0.25461748345992774034;-0.38269135433885387299;-0.11007231322229567294;0.22001445622137244529;-0.13965316728084181674;0.1814834949286206478;0.15395630714343352952;0.15599769246558217728;-0.31547760203609415131;0.17158527978139762049;0.17069074231011072129;-0.27742710299491668557;0.33257538177210022035;-0.2116067330915981648;-0.55650332349894915396;0.53922728344019921209;-0.59753010592077815399;0.75691640943607840786;-0.79913645330449523119;0.8172425185691282179;-0.84347327265062266299;1.0262496699941232592;0.97880996064308600779;1.0369231611588121122;1.1991899819397828786;1.2347448081769836215;-1.5179924026305835483;-1.1404626507098634125;-1.4188973989924249519;-1.6465939478795783568;-1.5764981448685697618;-1.5620954912811018112];
LW2_1 = [0.27575839048264444431 -0.073381940541981466319 0.10215321529230490805 0.14000778026527388453 0.28246094391073323093 0.1727885149138222165 0.19951857799971642327 -0.18798818035278191951 0.11911813950732705325 0.09546870874067441004 0.32554063628959317711 -0.09678902134504296928 0.50138213360392192008 0.35304155624324068397 -0.022819825879633510307 0.39171963621304234371 0.24920289105567980381 0.082650506970053452815 0.15883363167395297966 0.20395843835026533641 -0.051414709274083841839 -0.25386021384369572562 0.092111571890096069493 0.44817533968358086449 -0.11925242376214287288 -0.035643830324125276576 -0.096764838973007111234 0.05862044065871353099 0.5891563963132010473 0.12015635841118314786 -0.20776561099079973727 0.25637439347447632532 -0.28505745962914269542 -0.2933484430114172703 -0.28206423762764243346 0.071569562397520575248 -0.14026760966324516855 0.10866239068881722307 0.12983549321253598507 0.0089631124925285982769 0.047050866305479166485 -0.36875182521186095075 0.38052180146078695699 -0.56087364054975885619 -0.17152006066267838635 -0.33883953391982474246 -0.25376769702079654545 0.051894781271231212039 0.038591180218131106161 -0.044900036274357728316;0.35821247388709598347 0.060459684656129469849 -0.23380349238368819398 -0.022108307765731624595 -0.2842406432681737205 -0.36873636196942166654 0.065995762592496370891 -0.080127309017021322579 0.17410389055850200579 -0.049141612690052717538 0.20570313033904277789 0.063565566432156370147 0.062188632726614893886 0.16890766759909961459 0.03104186691848928592 0.25336577424456813157 -0.3611076418317209491 -0.039280126488516413363 -0.071307265794383442592 -0.083483110992416065255 0.15850820936886692025 -0.34696360936687831167 0.29947967384406870561 -0.11986800036932183933 0.28922264224728028159 0.25113043024627773603 0.18079139673177585523 0.10867502995384702158 -0.26494599780038868841 -0.077337094495955410745 -0.20691086739533132155 -0.32103757813594868686 0.14501511244651391075 -0.14225661369764053266 -0.087418350436251651692 0.080565695815728144424 0.26402951006701530501 -0.20022839193620420306 0.13881921084434387104 0.053000772849893421079 0.084398066988880346417 -0.2593806788102013261 0.26547963637831312189 -0.17038345125173287586 0.19336895197394360357 0.35825162423712753057 0.37230793291050828797 -0.28819868333101111846 -0.28992766060365299241 -0.2393081688358036363;-0.26795443323123568913 0.14986997627213505258 -0.45112908471319573822 -0.10709911162086781233 -0.028588015193850197654 0.48283707399321701415 -0.064301918631804386162 -0.1134834984280811282 0.012614893645958366944 -0.032882885873980846614 -0.28662158330852288701 -0.24537727569328737776 0.15039125604984615592 0.48110241718351071105 0.41727756356011880268 0.20433714622201379352 -0.49242759523728718563 -0.11100749640833224019 0.042458910890629524004 -0.67695836194606040515 -0.18339551955378019521 -0.20803998627835151858 -0.18785251674300237901 0.076077005765060878861 -0.37510422730630810229 0.10712453391828198612 0.11076214576369730613 0.49369887560995501241 0.40185245649872114448 -0.063818183865661529119 -0.16645482083354087854 0.2577907574335673857 0.25657207441378443447 -0.41006583619727615675 -0.78286171750919963941 -0.59110942678328082245 -0.15096353305657195243 -0.1190996427869805141 0.20987068227781086049 -0.13223136209533573049 0.020572569599952073016 0.058437610210961291046 -0.043544596819803327303 0.067731524524872355197 0.078882168277947306567 -0.0085756381540804723501 -0.020383760858810107131 0.081651543470452336848 0.27138290798774677981 -0.052151835556867309762;0.048242077565007139561 -0.36975722482281120351 0.23710266885282102467 0.17732440745301017437 0.0190473313339940796 0.18204135156028972142 0.55869566459941555348 0.043816385986584695245 -0.71318125347092897748 -0.16654634349564065299 -0.15627785034631347383 0.039833904985041371227 0.085939338397494138833 -0.041452347553226721877 0.046007951160958307502 -0.14173276406605367361 0.12663684392041513194 0.016757668414097637993 0.49410807411976814807 0.3485996972235858582 0.31290066982140296581 -0.43745960418369117528 0.22571160617530613979 -0.020736748491153662172 -0.06148294080706066117 0.28599701856169013059 0.15551396329901018278 0.18001739220790538565 0.68657508657705468291 -0.12517909457142137319 -0.67062690168283922709 -0.15930746093186637369 0.010712668246880835063 -1.4724453901095406749 -0.64376307412953759357 -0.25265546922169429545 0.024676789550933338202 0.0073815939684797795411 -0.018244496989817997334 0.055569065036400730473 0.31863309533042954991 0.30171946553691036952 0.24900189172062645038 -0.292884288454607844 -0.17791160407068751237 -0.049538933611302626847 -0.035043465346693676576 0.04379793671974781949 -0.1991543513233947349 0.086232205168766895564;0.42458539902157721446 -0.17143447428687130785 -0.084913161199357767295 -0.069932224263078573978 -0.10793463301904665519 0.26308331448558852639 -0.25960136823157270447 0.0034786022599098162349 0.10007850288912689685 0.066580062233129816418 0.063622806257539271657 -0.43804843638656998372 -0.027480228723703245541 0.62207791049045468856 -0.19815155618252758285 -0.3738043307957972794 -0.16274465588675424144 0.11256085595416936984 0.37432069650577043385 0.91075884177330168612 0.14752000172578647041 0.37314615649717824963 0.60242696515850824301 -0.29014120019133338158 -0.25917480677573989656 -0.64139217656257474509 0.32936550283802257244 -0.058580041164412566257 -0.23063688129850620778 0.10906106867665492366 0.24375649857707756829 0.068852397120944208719 0.019612924410722962915 0.38120278264374052313 0.73980381796137717476 0.074436994903768066711 -0.23853103328177421849 0.055721255124786012169 -0.034989968474553705124 0.041001231012604610893 0.3486652016381515673 -0.32307155350611194145 0.0073268201814165748523 -0.054412993188380998077 -0.23309203790269136802 -0.2910037248340256455 -0.040551592108237215217 0.60019550302958890597 -0.0096267085555587078582 0.2972508006693417304;-0.24409554349502837756 -0.39642697010631433585 0.42714436725982513066 0.31660745502121545591 0.19598730842851777578 -0.052414362109100748333 -0.081425899949624153118 -0.13958340866001284208 -0.1101182478530608605 -0.21294997589993261422 0.17191381998422139432 -0.046409835353195719176 -0.053315059525219588021 -0.011493307775017275532 0.31989504504065835455 0.07374809739359983185 0.28277915501551287303 -0.145609675863175414 0.15151413269939145723 0.097984316725385336988 -0.13885363507900300162 0.16526839794000910966 0.15878089427346436802 0.097805857388991293555 -0.32819695304332813235 0.048183274842985776565 -0.28801265191823216538 -0.077600054640793406091 0.33564950829888828832 0.094770632168901192127 -0.29974764236097173331 0.20854063194340619058 0.32379086725908967637 0.072178808609422315246 -0.076228229695194479887 0.14722908791586120092 -0.29066892185318898845 0.38563165269746091379 -0.1517589743629548793 0.1309052586083618297 -0.1843006450775545868 0.32818762912095938988 -0.10429370278880947809 -0.18934691790421859237 -0.43324882694733274358 -0.37934614260569005095 0.24759193220205941155 0.016883804355084398169 -0.13947209102449192875 -0.21723075250394066615;0.13728152369327850657 0.27860865553082314605 -0.064914804798772499095 0.066822297701446195517 -0.36343258105296316618 0.33947612883455596799 -0.036698325496135025814 0.083449802538757986148 0.096595799834269899242 0.27404228828199983514 -0.22884907673407214879 -0.20993645277631364787 -0.10502234726894353611 -0.089290889425667416268 0.31357287438259784373 -0.26598782533092729663 -0.40416589331111568706 -0.52731728000235400522 -0.43746980771531190912 0.73890032746364764371 0.48996722981166246358 -0.20515350767680726185 -0.23526831464308828323 0.049712900366403925401 0.10022114975784617019 -0.082214565550775275948 -0.156318599121623103 0.24383231282825637565 0.39620573010557968985 -0.13969164103499984164 -0.46442929911310149027 -0.016457694097571917702 -0.41113396467505292087 0.83603614902568290645 -0.20609721603311581539 -0.25316734648944594355 -0.26552631229095868814 0.061534512137509572716 0.28435599142016376728 -0.0025574923135993116348 -0.18484560922490417267 0.043741638159478894721 -0.23164516030528733981 -0.30253893744034709989 -0.10824731778281231065 -0.29619472494258103357 0.30759946217271660895 -0.11631337867517933804 0.19157337028946433422 -0.2921393695026430759;-0.10400974900649026522 -0.030728919162700513157 0.12304807442336342105 -0.36227987974761499679 0.3232095447783926434 0.19518947402404251967 0.083195665623470541061 0.33774455836228184369 0.3546164665738021915 0.17062275615488209368 -0.087532228480582868757 0.045308778396042352632 0.067263106752175477743 0.049952363385088911774 0.50392382242810451753 0.34449700887060363819 -0.4706905020602042411 -0.22709794996402549172 0.12660147800800466977 -0.2572778378748880046 -0.25505178864457589416 0.040356561507250116039 -0.41871543339228167735 -0.1372103520207288152 -0.15670412612948872444 0.078200337358988680769 -0.21515359948459994444 -0.15555211785161909832 0.27834615439935367354 -0.16402493632799339252 -0.19330752588165941996 0.3991910460841001651 0.11923744789894966112 -0.32625794228404625397 0.013136911087961528066 0.063592808276354009789 0.31225710910808424092 0.029595638193354551621 0.16121559334414878317 -0.28182464997482858937 -0.15149531029892804312 0.28337605467931431535 0.23322828997506309112 -0.050963549690266542191 0.1619377753128727615 -0.035659622454544161185 -0.092665220138478554546 -0.26369816199913770349 -0.17299067726148742441 0.36080405524484920887;0.17539099177601194524 0.14272723320678623593 0.20522913666595296589 -0.012229091810267992552 0.12395281407445515875 0.030961885024257406601 -0.38607959395671470615 0.16491099281586918401 0.02800870421061616572 0.080992678740987728014 -0.5456806673339290592 0.39909818372867911229 0.095041412751789094981 -0.2345676941881154054 0.32834128911929461037 -0.36666649503473663918 0.19313113067384904409 -0.019012729417661338588 -0.53400836037510446275 -0.34681522922201457604 -0.1323055572444766792 0.037651644523927420283 -0.39445261502137507481 -0.23371227392291188396 0.033262691653461518015 0.37369487334538936674 0.10920018528762201471 0.61367121836685667446 0.073489445428417080053 -0.24083518695096861606 -0.033691513691801233676 0.62363083944412245341 -0.21642281405914706727 -0.16163549347080688467 -0.60175719093746893318 -0.084876608566880396012 -0.053132574904509725922 -0.12590527330910197823 0.1737864821289536732 -0.087935399927252008712 -0.13600012640155759169 0.06252578490993201954 -0.0016942989407430575702 0.20003236665730006472 -0.1000058739205929581 0.08894467643218911812 -0.20558400872978874196 0.024941064149059000155 0.045428799818413169442 0.010022507407541285385;-0.23997439547987101105 -0.076942313586452704133 0.14530167843843594389 -0.18351603625183296464 0.010915177943504756827 -0.11886208763928475529 0.30561427000896079775 0.28560826176867737392 -0.10565718242279104055 0.25104663936900400989 -0.25194951450865105125 0.36915166664401077856 -0.36059047606282323972 -0.25954079954382647255 -0.16374632942456199269 0.2136923937696030007 -0.032098004400944270265 0.0027856425482489003374 0.16028361556391873544 0.018500782309808016385 -0.27677639405515236382 0.24063047175361426677 0.088581423975442774577 -0.41462581685814942078 0.088545432130362269896 0.17332682520926490088 0.23850559294939893684 0.19194426867443331597 0.19424042867784341304 0.058811702892013213717 0.42073512064116619369 -0.079977596106474313498 -0.11045634427223546825 -0.23618417027274501985 0.41189644241564399296 0.29525175259364755398 0.17653934207321919647 0.00034672023017114653393 -0.27327065769333758194 -0.32191828816520701162 -0.30102647204133431424 0.19583251593991946038 0.18010123356433144215 0.28897526546188340157 0.022998508850624325289 0.074083809715580470345 0.075419518134091451111 0.24620222690039120228 -0.10496390317515348622 -0.16201156431090873999;-0.21907788849693804467 -0.12943214471812708455 0.12338594535642292971 0.029533691980124190946 -0.21565239421424078903 -0.0066295557231377481161 -0.2440257423383509483 -0.053029515542328153899 -0.0018390501665134690885 0.087698115901785334003 0.077483457661261953553 0.19070089164120304637 -0.16721290068751001878 0.068416802285552982821 -0.059835661175286915248 0.016519684096221516623 -0.00012262943080717559913 0.25659481924961102806 -0.43204137333833053658 0.338742598228273184 0.048588914049947806717 0.19198423794456770386 0.13878830117631793528 0.80969797607758975388 -0.12155020125013081544 -0.27416867623636720364 0.060095989249655056008 -0.2775577668886022864 0.09084117834798478841 0.039575289052753169494 0.38949205342453674383 -0.028289625947997200373 0.0022745297307996455854 0.58139944257655784554 0.51023911228188700839 -0.065665907796865735646 -0.15274827438432772575 0.48245935127629513417 0.26967654714176952924 -0.028861280536634548871 0.014155692094709527648 0.05987696687906070292 -0.20207496755787374143 0.026316359269779040359 -0.27784125302654827383 0.2484452180434554569 -0.034984981371733614441 -0.29072817337944517613 0.24285520679307018299 0.26760440498905740947;0.29494081009519856895 -0.22769511937602371354 -0.40579380463853953476 -0.16994514751407199804 -0.2996613015788534562 0.20571377223580541993 0.15729525167961316834 0.34804807721243874452 -0.22465982398249023655 -0.142365695289976113 -0.16313590908580299921 0.18763424875290696248 -0.056873889856516000874 -0.42827215594211864857 -0.10901100589833634391 0.16020463470610010748 0.33031359699118650886 -0.18648173412935889481 -0.026258633945007242572 0.15585931438804623284 0.37794169189412835097 -0.28884389492690010215 -0.30056563844471356761 -0.25397514073599525286 -0.10146561109131588263 0.15022081903199982489 -0.15446943589102288263 0.14879125165951798127 0.55027033389656510032 0.35348169147773900178 -0.12169262786416283617 -0.38440725127694413965 -0.13525110954229074833 -0.38754310101481304063 0.52885324434585934128 0.25164604087690861656 0.032322883613941810754 0.19110655927099953755 -0.036355393833847594875 0.19072547870412601134 0.23632945379211386938 -0.028457326529126695386 -0.25099957449266707687 0.24717737230250227953 -0.11939908824663750253 -0.19235622232911539498 0.04130748992637062883 0.040971213095802434812 0.13786183422673389809 -0.186983854107359182;0.059990360052754009013 0.21237363432150535569 0.0033813120505814973568 0.10057347588429985108 -0.4041005669160654401 0.38160831062807704095 -0.16568620865630562244 0.1843571280381155475 -0.091996341759275637728 0.065337913799233315881 -0.30343710840262660966 0.30367338593791171064 -0.39989214311669718516 0.13699137540739653174 -0.32853431420193718315 -0.0024684632459606972894 -0.1393601832711677535 0.26213555435281821193 -0.71655965645298214106 -0.24451797531670024788 -0.075276938381662869548 -0.45281666551365429285 0.086936814603953013747 -0.43416916615285855441 -0.037263053363898089587 -0.035131482621847946735 0.12208137797693457971 -0.078875146810600385572 -0.20593225909045168032 0.31936122940857591956 -0.2332955741288903484 -0.011666294260532334218 -0.13880550915828654412 -0.087700241048419003143 0.28589958755429584203 -0.12068173954398181413 0.37844681508180516571 -0.0052835628255860096064 -0.060488984133494204387 0.087960049719578298211 0.054325792476546959364 -0.045637844481923636741 -0.15119670705927604204 -0.053652571610127278157 -0.23672550711106613019 -0.13733045545547351018 0.10384140447116557704 -0.35027613941888857685 0.15347821625518223709 -0.053564810051427776127;-0.23793326331751576963 -0.25217494915830324098 -0.3625703596196798717 -0.43075010782712713775 -0.5009325031201226075 -0.42721711521129990263 -0.019261793319498211885 0.33077788632599919305 0.073763554491473315444 0.24599155839921538202 -0.094911924990770502042 0.55697349541608376366 0.47115963432047769377 -0.50373028622401305743 -0.11755574232347157371 -0.55654447107833560082 -0.47400182274277469219 -0.09420693299440981161 -0.012354396935529952245 0.58509776851662675945 0.73937045552273483739 0.41110534266141979254 0.631348986830056913 1.1281924924413120337 0.36146145216879221884 -0.90965624479882956077 0.15086105845831448979 0.64641454413309284988 0.30360138281462778487 -0.42778473499445018868 -0.027781598832338289667 -0.42842982508805216302 0.32433423502661690163 0.94102039151496497116 0.15896727438098662288 0.10352011056022292212 -0.33227243668709854907 0.13979364776667832504 -0.13629177274815207355 -0.12206274678023067148 -0.17977618956438970454 -0.10315533130031094566 -0.18256678265200040889 -0.44928953793254661209 0.0070349351782051754156 -0.20443981608540870432 -0.16549279607819461502 0.10323380620123696894 -0.16883233527920990524 -0.13132046423884149999;0.043312160863110744924 -0.28087159983270026942 -0.3492976791204013276 0.26548528017948141988 0.28808968398367218455 0.383787344937849495 -0.16771211669353125462 -0.06572309154304012413 0.27913234528089875264 -0.1145575686606859489 -0.23926813384965150977 0.081855520552202631901 0.095992517060384557892 -0.23384356622294735772 -0.0013153640935910562021 0.27389559551361430945 -0.20139074898721298634 -0.22183361750745517194 -0.19167170207618580702 0.21965964812422844599 0.014078893950095320436 -0.11062869419185575315 0.3645626528026899571 -0.078981727133552018238 -0.078504559948062435648 -0.29902391109955223092 0.0030634974938519880447 -0.26357071781253388343 -0.33618917859968439066 0.27046675851034523985 -0.17903155426116382221 -0.039073134180221423539 0.032327398105068391732 0.65480510083072029914 0.28394023998710016254 0.18311946661346950593 0.30719197871639364328 -0.32171755752422454 -0.25805606361045302366 -0.18669134945630602718 -0.33474273617375149836 -0.66065026706272189649 0.25301440332967117808 -0.21321951141109429795 -0.20744439463577321603 0.23678125688904841373 0.15254546193978088531 0.074232098993351092187 0.05895889615576908882 0.25096999875692438398;0.069233232175519465734 -0.023922936815716989295 0.069817914687660034834 -0.30140985125000996359 -0.12126302151441806232 0.028209249147176006234 0.11527261064936757118 -0.38682506323798809822 -0.45128517183117206057 -0.05473604363092129943 0.083088343972541847671 0.0520980209368118799 -0.06800534279266584603 -0.11963510536771447546 -0.10409453890981772151 -0.041829665074014116266 0.14117687850239624137 -0.27564710393844388259 0.33627942432223673075 -0.27394198466612373899 0.0047693769306858934537 0.17916524484663434724 -0.081104688400443797347 0.070076513985422889119 -0.41392372462239923614 -0.64419161370289679258 0.043006510275161259627 -0.092201557555556215573 0.68377887358331701506 -0.18754852676491590158 0.37092770005800140831 -0.50416712486471315646 0.21892205548587770347 0.38233839860957935519 -0.17447294121667988875 0.0059289389800440874673 -0.39314486269052517642 -0.10474411226356621085 -0.014374146711564235457 -0.33439368355932752586 0.16448437283801184416 0.11580073637756160831 -0.11498125028483063836 0.53195722024251579363 0.022456451411820687464 -0.36004866481953623492 0.61143868708335225026 0.096251269524225968599 0.063764953794049339386 0.31482521115547473789;0.098469795824469907863 0.065900477673297083725 -0.036778181965742923198 0.21042012229500847709 -0.29428017975463871547 0.10357819808255878946 -0.29697219741772090673 -0.17994119106549558151 0.14941810724680043565 0.24454467507145705163 -0.31122554952436393139 -0.2093132557524698123 -0.028465237926958798786 0.23485723508624334332 -0.037646266505663515678 -0.095265394806182346343 -0.11169697966934639954 -0.11038002865273964515 0.40036014544267012338 -0.042709082228156544647 0.070068654520559589538 0.10108804454216463453 -0.37338701014608349782 0.2123069576761823507 0.25150199812179313552 -0.031245791848881043773 -0.16037328857126451065 -0.083096360556379506024 -0.26885485403526471204 0.23707577007250982271 -0.35998496016786896146 -0.23159606652133665761 0.25835925353575744934 -0.34526066836122759618 0.12000651316417999814 -0.31907681646468516456 0.21427692697745506778 -0.32034066536538741143 0.14255654796845657062 0.25380703141122679112 0.46233277671993799895 0.049563315074085227685 -0.0032122872204866123429 0.041613586429461876803 -0.1396795671990916643 0.1193391535342665094 0.31783746060333745165 0.1366627805624218428 -0.0002260626609428709004 -0.17946204441987922973;0.41918166898862352365 0.016781402035629309349 0.52594337250811684648 -0.095753266050949206734 0.047936717684125905448 0.31224745675080461949 -0.15636321388835699997 0.23219714983488598525 -0.46641042337315968824 0.11815713132079645742 0.26991702132245404266 0.42115665947251729184 -0.39196978350244632283 0.086382391822974552431 0.2075372037934170022 0.10885431967827131905 -0.40717489785280142067 0.075031612764958635631 -0.56129295644713050883 0.14303755183261790407 -0.28023890127058909139 -0.15345982027719443086 -0.27712861670041460949 0.25590526798255514018 0.10224229753213560923 -0.67919501242000013264 0.24856252544207182997 0.040593636915800909715 -0.22714891216212293457 -0.10305670781686789017 -0.30253285605853613704 0.20067243945404325545 -0.23040350749811311371 0.34515739082970431362 -0.70808849924167904799 -0.15508478043134926727 0.16016657186349164688 0.44823280092816908393 0.2180382689480315217 -0.1736531907444758549 0.69765749232926632661 -0.23351006354547471089 0.0024040960114571469607 -0.19642356715337691564 0.10062918638653683967 -0.41004446034023839252 0.44701609068507802691 -0.019191297711417119182 -0.078191395924445836196 -0.29128103413776140762;-0.03988158094463162967 0.40644123735048304225 -0.4730598142765364833 -0.28212228691289042981 -0.0054690386642892623373 0.2211421345506617564 -0.50564395652866722664 -0.29804736685344995761 -0.31936496430557942405 -0.0069924681913530514071 -0.30834658029564387949 0.3281419488490625036 -0.249744996096279398 -0.27902038729491324132 -0.072584116522436528673 0.20244486276084566745 0.48030469158515498584 -0.14963475327148215155 0.9055446751321905019 -0.688758354498312797 -0.072669872899591439475 -0.14804538702728720079 -0.049087002647032522418 0.11716303394203834987 0.24302700507802080243 0.84312281571846192652 -0.12624749301319793116 0.032222383073918163532 -0.46164992710439062273 -0.17019980142523624678 0.23790316724713300722 -0.86037360929440254154 -0.055660105516078285659 -0.32264021862127967299 0.058211831849237234693 -0.13175366856799194948 0.41092637881448312864 0.01123992866659138945 0.41244438973500796575 -0.63225602811138170711 -0.062145926576747223535 0.36889795474380626672 0.10862839382169568736 -0.056699936001266250385 0.24547083119827203812 0.027730228987698425647 0.0091879630176243294593 -0.068868356985022236016 0.17319027619010185504 0.12911949598891131474;-0.13493999698995073899 0.3350195956902023986 -0.15076237211677431804 -0.36104244805187440948 0.081485461241970216784 0.021672859673925883028 0.31841256820740415634 -0.0053208797553932936364 -0.5503923918325960285 0.016193846047245934183 -0.00044061292642304602683 -0.087959909140969114172 -0.19567199126588991076 -0.20632706053493163334 -0.14451461896576797694 -0.045644489760548002943 0.058701463792327580882 -0.10295013996704095727 0.25656158949617235976 -0.37702988601747877695 0.11872090685716400749 -0.013892270676839296381 0.30279866378000375171 0.13665500304714248148 0.018807525069729606054 -0.14113229506205626773 -0.044675717413636607811 -0.42313474797435263186 0.22334132530106112768 -0.20499340767178930722 0.13668539743724764102 0.33407631082332228667 0.072404184143729358181 -0.44773665645041399452 0.32565138969299545213 0.097148282774331642941 -0.10697751776699482296 -0.32996623057307333804 0.13987061980999104804 0.17675561958888885705 0.39268938058110364198 0.048787539036205508636 -0.42966263359703710245 0.27200672657440200242 -0.42639026393056206343 0.19717541042047026512 -0.20585542555603578152 -0.025832575588841603931 -0.0055034453535054896761 -0.13136313345488886961;-0.073749872155955506492 0.18604223708346551147 -0.034492129684529290734 0.12594864737227620677 -0.20797807928123690502 0.043239301241450520119 -0.06320894967768481143 0.26518278143889756349 -0.25160684805577265832 -0.038736854059905165282 -0.15686364713090267253 -0.11034220746770186106 0.14797883620653734527 -0.16752364534796654327 0.12025000868212215588 0.25453392712593475578 -0.031811299121630443043 -0.29821634120876333585 -0.1912990481111291885 -0.17724902933963798679 0.16845218844146439552 0.023620254262947153884 -0.12421819781536910798 -0.10134676528535647988 -0.76701324395713255111 0.19859517568472800919 -0.030527583577750566635 0.17274534930672835742 0.44644697378396769327 -0.35080902281538106635 -0.42611671080467411477 0.038300373907915054306 0.29892424472241924116 -0.49357728969737285629 -0.24577304470701710759 -0.054434354884357036286 0.49267024043215756901 -0.15254206121083116465 -0.32741914252907394767 -0.40804098222517276584 -0.051723052810825453918 -0.034376497664193851611 0.18653764349807819278 0.16570045305504538247 -0.28446806358810877713 -0.40815628429909295294 -0.14662223397222531873 -0.41754360368938531201 -0.017950572376204291386 0.033913493836504604584;0.29596560387100606659 -0.072199678446813075894 -0.044755192652807425369 -0.19191175520661080123 -0.33206419911909423881 0.31070047769603359455 0.30943863505141250281 -0.39565630011642477504 0.60131951033220487624 -0.082014508707633909657 -0.163106026179400454 -0.15650256848550664346 0.1007636688797447222 -0.011657692153272995739 -0.09442559085248855566 -0.51905789923316170142 -0.50292840621191869932 -0.14311023599907163328 -0.28903845096336910903 -0.076603677125346741894 -0.062911403515246711038 0.019220087304443231324 -0.11335899259017544194 0.0082738528160795094674 0.69642125367512663914 -0.72806627424639247526 0.022709948564203989718 0.38452132848684555944 -0.25035090007580568239 -0.31896155861820962851 0.051539131339208947569 0.34288502376789686821 -0.018346323166857018971 0.9423050580920507846 0.14358174459048145266 0.71335780297388073912 -0.58786815201197906156 0.095559865325543391634 -0.21700143260628854125 -0.10300773911552014994 -0.29110133085446882051 -0.009403230123274253921 0.024461396578645017152 -0.43794518679816629714 -0.15798988992070742143 0.33735730614724601661 -0.18641224166545761198 0.48191405965224470842 0.31523641303454935647 -0.19472344394606175277;0.49514187175832508059 -0.3154365363284633017 0.14245613407103221992 -0.11667966978543101164 0.1127401653414567273 0.046608896784849654371 0.3697253667332062177 -0.045000283137294094793 -0.562110203356782967 -0.038865593744368140405 0.019775726283158271551 -0.037080065079431387409 0.23400057866632947845 0.64593090893859861357 0.12518722606953097687 -0.55382584024044634319 -0.00081856815404854983611 0.22113286308086141374 -0.12733940049907610526 0.22545610536295127013 -0.66220847122191150991 0.083552389733481391421 0.16665889711782760907 0.16063859036283059667 -0.38916238096043143102 -0.2983815152717572694 0.033535742000913019989 -0.1045927880787889952 -0.64236658980159344612 -0.096875635485606736985 -0.0027968849116953016336 0.021938811818955437222 0.36256060846105503392 0.53086258975467970345 0.050772373053296578072 -0.24535564411246324479 0.16015135572371611006 0.022793550987090720888 -0.39987722591215041357 0.086401529232586107843 0.14910753935814205495 -0.40223214211155766673 0.025283285457631438781 -0.31210417419010488826 0.057702306039539179305 -0.12140125848175783996 -0.52142648631026633499 -0.050571149445079656426 0.11861695865987365028 0.1935521690195132205;0.16530541645721671951 0.11865026492575268813 -0.042969688223315129216 0.40273402726356477555 0.14011682363221569791 -0.070747164693300002014 0.26069942184578126509 0.19219591355843221314 -0.028899208391792396283 0.13332378506101177917 0.06839430238563611042 -0.16465924805407736176 -0.050288021698708731955 0.35047944324310237318 -0.016313221598884895813 0.28143065403995576323 0.10728913676326823357 0.21341835953224130851 0.32065029472843920022 0.44201442448808542229 -0.14545961027284623479 0.16641114698979017628 0.073729085109350694927 0.030787272197488790154 -0.72078643211180160044 0.0024742891032538535598 0.014908975539377726169 -0.31332432120804404319 0.34079054045540896345 0.1835306245647291834 -0.020801941890860500828 -0.081706860924195129359 0.04250637663962589935 -0.37805744845008337762 0.11798210383323755324 0.090315321715388807711 -0.3687061108176884483 -0.12392689561488136329 -0.31082940760950694692 0.62060999808478478634 0.092912358744499809471 -0.27657978282663453484 -0.3100578696248632582 -0.12440014949930815191 0.10921509713977661793 0.01904512941216057742 -0.20108189247399751998 -0.048227118042471678327 -0.091519261892610281883 0.11783455953534732741;0.16790675416193687197 -0.099760279450623365327 0.2878376536286194054 0.10630628592236555929 -0.18369242802166679818 -0.35026240196248875636 -0.25929675302666488346 -0.10853292890799245973 0.50755628141510888973 -0.11033010404006844685 -0.10976424739198781255 0.022387857264873068514 -0.11147784236087342202 0.029260061761172181244 0.040846421424782550225 -0.13348399267545665858 -0.30816413173523171665 -0.0191454686129326479 -0.32332985337749925447 0.343481732407468765 0.11323058046172207458 0.16229841690888513472 0.07976422081914041895 -0.36997146510035994194 -0.51592530660971414047 0.46604531458094933249 0.45713052792851216477 0.69152367184027796476 -0.42743269311073373018 0.27895352276987062101 0.080953741436470411097 0.3042642532980872061 0.60506331655677547676 -0.30372320221042059529 -0.065497099056499405445 0.11702051126794960068 -0.12512214683726202713 -0.15031919236508925475 0.30449349467206004993 0.08381840980832314103 -0.51852468193812917274 0.21822730360435993457 -0.24069467483164624921 0.10051845639409870414 0.18316396285276523304 -0.17524786280925377935 0.13604458240804070956 -0.34523398351259904082 0.059701990932896298325 -0.025847365264641392751;-0.20780417645197504783 0.085688000629763533267 0.023220215191388036274 0.027141203453714145277 0.2901350997836796286 0.049388334651006969567 0.21998577007186242982 0.22910623649205907881 -0.38146268068609112678 0.17090745817257377293 -0.14239307476590995494 -0.096868718211424828524 -0.025373883429127316869 -0.23141775716450024847 0.45218765705617280926 0.2492963775202606258 0.074521315413288144458 -0.11900322976489176308 0.4714010057359678818 -0.03949755438812844327 -0.0054054990288853856442 0.38538974468869641177 0.33362000723600998553 0.083770951245405150809 -0.57303869555913178324 0.66227446108305287886 -0.10824690384528103115 -0.29440350017610317224 -0.2362527233517464631 0.36799167821700540237 -0.05199865528392343117 0.24211571989547947537 -0.15878865492597701858 0.25528136543818591431 0.028854083504342382949 -0.2771866069182837844 0.056452353415017683669 0.061204457050051730427 0.37330626027396668354 0.29170601565121517806 0.045580882360642983875 0.15020979854799670905 0.095301707345509883984 0.22519099739364112356 0.086020015209404152023 -0.030906477363086694299 -0.20644056057374957081 -0.30286512531132075976 0.19186437194502309334 0.039342285588157353826;0.093029844887666288122 0.36898518489888604277 -0.31397697255600798272 -0.035690097456934091746 -0.13948614882468726717 0.41367506294963801716 0.071844993996848724449 -0.04636006706507991848 -0.44205049626390607864 0.14771772356027637607 -0.04741783724634355407 0.040683700641084598326 -0.079011908760416180164 -0.081492056515926433735 -0.22955977991643308767 -0.11479730425598957955 0.16510559600340277142 0.024826233802282625385 0.56448007959804191724 -0.11999874689811439177 0.16073965164650833026 0.11149345037478897158 -0.049033417104265099307 -0.009036714062483193477 0.30241307192714317331 -0.10868203203369383725 -0.17103213868237285289 -0.06785346760490651441 -0.37639295994532878664 -0.047001636732020533882 0.17984755007845343311 0.069650490285151855918 -0.10033489340045309568 0.31363387108871593201 -0.14013173670999232168 0.19614965205519280245 0.069146311106488819731 0.09397824765135080749 -0.062496219837723458734 -0.078848314044424147595 0.48161287383157486142 -0.15030431159435667099 -0.0083625460655020449757 -0.16740836370215791962 -0.22469832815738888243 -0.47180120300389599697 0.1344140935061637343 0.099403603661634157285 -0.019040184375182435395 -0.28950243051589102938;-0.12229957931958707062 -0.19929690457932597303 0.78980616713544604668 0.26405214782772301607 0.10206308286374089767 -0.34290720648460654152 -0.20629133787598993854 -0.25347664703345240689 0.0083092325452252171342 -0.067894679505272045872 -0.36666089073051738589 -0.23223378492377161342 0.81794192310678759394 -0.19740716384290335483 0.25358450647492047914 0.99305469193980722142 -0.15953691444668904875 -1.2017812248968342548 -1.2644192634624609184 -1.3211435612042923271 0.4564021813220287549 -0.27009409237385095803 -0.40728362877610102544 0.33095790375614897449 0.076927753737578902227 0.4811361566055965544 -0.35073730061131580538 0.41230392845401553359 -0.49410657208329566981 0.17335751071223678976 -0.099111067580751582851 -0.056870656267316535559 0.41274468906621719633 -0.10216373365431301312 -1.2220192349334841886 -0.20933390904220108841 0.21552773326932861409 -0.41807157840497405354 0.099216015032836168963 -0.35566793780868183328 -0.22394943268753658705 0.90410923756514005589 0.50564197111212949576 -0.2485351303615470353 0.14496847963509784663 0.5131196061400256081 0.23199414558301562073 -0.44217099045106345034 -0.33030095040593143718 0.17070975308000571613;0.22770612763191661054 0.20169439207349690313 -0.26217815686360546046 -0.031832224914002470173 0.19367343297780009737 -0.42461274483867889051 -0.23618968837716505793 -0.099015730853711389492 0.33168754325323257515 0.065658645306156671051 -0.084167386907145508301 -0.078220498178687453139 -0.068621135731541257896 0.19782541720111426753 0.034641241085253939025 0.11596726702481900684 0.48996104980013222008 -0.032449917458097596312 -0.14177073301042969478 -0.2398767298982380225 -0.025872765128444084187 -0.10284190875785197139 -0.23819668415945069451 0.12513772522301036538 -0.12127315033261193422 -0.23146396800785581926 0.042311785391927994593 -0.19092517093781360971 0.034981372067783622626 0.015506495475374424201 0.17631476789844185982 -0.063736749903814074458 0.17945756174540211658 -0.050330075399534636438 -0.29372894513672587191 0.1811931537136251269 0.091162691578857188435 0.16585422686446391061 0.071007618437577843529 0.034747082171145429741 -0.21384245346970867652 0.064943555622712340059 0.12167854994162598248 0.30811829356324599294 0.35092359349385537914 -0.37525227927601212397 0.18062427061706340381 0.17193021060281313273 0.24948618463023408687 -0.21723607701848107743;-0.38469032161831734351 0.34854039727803465265 -0.24513149256205646331 -0.096769939141097799373 0.066413420797482539126 0.13144750788066786318 -0.076665950835419244269 0.09948851316784021459 0.36472732043066813379 0.056219037452263621868 -0.19625396761492897024 0.51382593163470380304 -0.13146352801415861489 -0.10886402758443614047 -0.023144592418360632885 0.34232965603665310717 0.23798393427423869539 -0.56176968110304958959 -0.782508099046639094 -0.045398644614733391078 -0.36185257071172927112 -0.20588390599952277604 -0.41822530029781507244 0.10940330193113027846 0.1093339605799449471 -0.7224206189069571904 0.2676935042274126153 0.68008576651417340653 0.093274976688009672565 0.25590009792490714391 -0.40194550438194909248 -0.065555454275703681222 -0.042247712065285492056 0.084876167882327921421 0.30959309354274305859 -0.10647373708155311034 -0.0023157763902221539278 0.35353440664916108149 -0.35858940272622319423 -0.018274934277278855749 -0.0038065830357970125916 -0.056105910450854799831 -0.080503399623457982948 0.044176723164003901811 -0.31330502290313322344 -0.64885489889980429989 0.074383121790339040702 0.35165308656516719443 0.077033479078293401465 -0.21591201819488914371;-0.022479805934374010729 0.12656425887108091466 -0.28626707583164812121 0.10675496975860764015 0.21911054667303339616 0.077249428538154266133 0.41090670908951393292 0.1938454911973131467 -0.18008627589045361761 0.3015758133916171535 0.27177798290825666561 -0.2394772792168436415 0.19989239236966818702 0.12953728877631229266 -0.15511662293710495875 0.14053472858662457989 0.11232145134153985466 -0.56426887814709691948 -0.19183267932383638033 -0.8510920449069907523 -0.09356329766646771795 0.33633407964584149941 -0.059019750744194438008 -0.3414009423373767782 0.094901523321828593072 0.29960926628672213123 0.19031914352186116157 -0.024844837677941142284 -0.56219688607729256802 -0.14291780136986739769 -0.20505818418166332773 0.081507955532961223755 0.32162056815553202727 0.22698587635750233638 -0.064625615095812063982 -0.01851927424525876692 0.2920029760474825431 0.25150439349364905883 0.33539604444645287895 0.24852688685759638521 -0.21449398564375843357 -0.35954563448757437261 -0.24560736341594796572 0.31903764601145417901 -0.09869793553170180811 -0.0890229923103093429 -0.21722909537820780934 -0.13052953910193729192 -0.094003749193644167703 -0.061286280737951628894;0.10756143159761868966 -0.53529166211109280304 0.027678835127850017622 0.014953813319840733587 -0.30544105681387578866 0.26553395082650749215 0.28565174139694138322 0.13838107308298763787 -0.25134319236845287238 -0.10116466125902746909 -0.020806147674389666169 0.20848235166004899788 0.24663751376987783082 0.34373899668354840342 -0.048646512486817901355 -0.4909226080851548657 -0.82606902311378127557 0.35662071702360925718 0.10347369727918810656 0.26924186492705853846 -0.13265888915246645818 0.26116356844088584044 -0.12776062465664828061 0.044985775610375637601 -0.37806241452214678356 -0.1703068447095529292 -0.08237473177506732247 0.26051806376602376636 0.25979376577794549563 -0.24943193966823973273 -0.038285304564574657027 0.21693556239317487999 -0.012323765548412470364 0.70325379677295307701 0.47042324553911996077 0.14941492347095805537 0.09049469458336324712 0.15042069252226075715 -0.18583384410626246908 -0.34251011880418458233 -0.26768191550039460713 0.26108427435182224308 0.033738829214307396176 0.12181242410114406782 -0.048090457579885205475 -0.14722423479202892405 -0.11411962170624435908 -0.39646020575880847048 0.11906190681215837734 -0.24656886421702467471;-0.1511359835367065696 0.39271888435497115388 -0.20078427043774049743 -0.13393873140239992425 -0.14502764046018690181 0.16450169914472290156 -0.36540443576863934627 -0.25803359862360314425 -0.19483634280017700369 -0.2182055895969679804 -0.26631529157531252938 -0.18627247397457052935 -0.29139215183936595377 -0.21889278384444876835 -0.066496614212460419813 0.1425299928525187998 -0.090810933533931714745 -0.34581442137262380365 0.046931110856393204456 -0.0013730825681743639727 -0.24968636356370829676 0.35953794799283633754 -0.27519766644712018167 0.25366614370063250705 -0.068985261278029896825 -0.025882265054198144022 -0.038131670308028990657 0.28673731617404979444 0.030534199213851406784 0.14303221217713590896 -0.18702011666808165957 -0.1369729530584475885 0.27327855440798509701 0.26528681355034877676 -0.24675583242081716717 -0.084950258948467388675 0.011982940036026519526 -0.059281328662463432522 -0.10615852966564642834 -0.26235915105418650128 0.36845494076779727877 0.032235409487287848551 0.3958972920343073465 -0.069690030906273486844 -0.058221269486025906126 -0.1493438164742075247 0.38109660207890577732 0.3260935879635722956 0.1649122349751005745 -0.29753268221522088943;-0.028976427837605012172 -0.24901002075495082266 -0.040393136084990795276 -0.29370824557873292937 -0.26055996885241489158 -0.10954292112345689891 -0.26087650167610959562 -0.021648863599606379265 0.23253994590423368582 0.1100928684953852571 0.039661672060418352859 0.10951383532561273504 0.04707277954571090911 -0.35724196976674638115 0.051570595580076254716 0.28280599724395533157 0.22424632341598213503 -0.30401501402742564517 0.23972592345245619105 -0.16051197990266311 0.41872882729347238318 0.051398138023340783631 0.21870421749405150047 0.058241550047498820419 0.62701074180789451162 0.14616850788047772158 0.21843146876448893412 0.47987929635182169363 0.24314414494018096735 -0.30467201127239951219 0.0030924953536305191913 -0.18217161894456099236 -0.3509263395875604763 -0.36472112181984517321 -0.11174625068163876462 -0.19159096462175079223 -0.23393253091583274261 -0.02748532158865288344 0.24872051403794864788 0.17685195321467808705 -0.032264797252664685623 0.049597717388494333424 -0.014261737392056066456 0.21133480093097434249 0.0035457788914999895796 -0.056203473321333727308 0.27056167686749998946 -0.032947927073664486086 0.48891496755636665306 -0.25266802020553630337;-0.21574237490608169643 -0.278898526951383674 0.070051090640075780458 0.12133044761291905678 0.4503903117126648592 -0.50936507173575773511 0.028025342536627008416 -0.088792267198790242322 -0.32558886596366182209 0.16454944690642625549 0.036084480232030674562 -0.21247171201279785313 -0.053654475636996851184 -0.28499820642019391137 0.0058281819132176776802 0.56677524695175585112 0.36589823778567931445 -0.33616374011270061528 -0.047439282054211301398 -0.30378013553808991265 -0.20654963396689959843 -0.087303729106730523779 0.096748448009195311958 0.22481121780391588594 0.37737590236547607914 0.16388807291654386433 0.19262088908298710677 0.025805369184185425468 -0.5651514780521696979 0.071698297855109227594 -0.12208503230078711355 0.28340899481127124204 -0.010839020578053250657 0.11416146199028380515 -0.60049922342334094427 0.21134014264131856242 0.48914342293017565311 0.22622231361027925201 0.09407488257303359136 -0.28157633447176616537 0.16109768264938204019 0.017307542612081869976 -0.012344119674704147338 0.041521969934606307862 0.0078180748213365017923 -0.08467376416212418766 -0.17971575326855146471 -0.35724190606902600509 -0.1365655196585273401 -0.18590481817075837911;-0.19083909059196188518 0.14487746637311055276 -0.14242137390865422519 -0.2539958951127779252 0.27742569043393638939 -0.71772718752059017078 0.095562051101480957604 -0.13096008623096344614 0.084088260327272484895 -0.17103023700821096131 0.13986318306586423277 0.12274214569423855248 0.038811622744278455321 -0.40516847018222590382 -0.11785681240408056591 0.4221762246807109209 -0.37287356308604907573 -0.21627871676740259566 -0.44564031753157762328 -0.31446166372691009006 0.31676415196691887211 0.16175241484408597881 -0.22761025756358638228 0.54492201016828667459 0.1569821152184841806 -0.25425072231223327934 0.28505921932403355257 -0.22135414649424267619 0.32429414172678533435 0.092061510633099544187 -0.092230999550060657755 0.00057540766802518595116 -0.042811855161662436264 0.21076061322848596569 -0.28447731522294178452 -0.081311474673735117946 0.1367421538599344899 0.059316282906375535078 0.28736777946091290881 0.058947452864561149244 -0.12757999021656366012 0.036480907400839035493 -0.024365883646789657929 -0.15041547216169570689 -0.33408183592788370797 -0.1248634910872802456 0.035664940211025626671 -0.27649737117662004371 -0.013880170535348373972 0.19934678008997855359;-0.073919917087712824766 0.2415523016813286572 -0.37303316375466816224 -0.43744200031701119258 -0.13820463042584718583 0.31480561591141281719 0.16255870082041137814 0.0066138117859206460927 -0.015250696756285320177 -0.16246638417485592676 0.19754774457920579178 0.14638793223045160063 0.48716790351897348854 0.28943269738125693147 -0.031673353572052441451 0.51331314469501088116 0.21966855452980699193 -0.12505876738973664697 0.71641190445708557988 0.39811850205432192107 -0.21343957982801139983 0.35564486833261810261 -0.13246352537858049891 -0.17662447837253597571 -0.39733435859185978201 0.1237599263378332537 -0.29667610379984615809 -0.1777757296090446415 -0.40970493163885163268 0.034770572096650680105 0.065651752846951100251 0.3579197613395576627 -0.016859394055811591229 0.37136732925259469118 0.052950739232814535151 0.36515829833003837779 0.123184451422095817 0.34037700866732556459 -0.12015016318384917626 -0.25537534442254222755 -0.016594572550598041261 0.026133540990585648472 -0.099001894608418003485 0.13722284536016543521 -0.15960126455742368323 -0.26551451322860958326 0.31508118118912731287 0.12889268923204302841 0.23252472803689605563 0.01312494323149151175;0.45735878307802696474 -0.42560886607006820359 -0.25887597043968951782 -0.13871442697599503657 0.13358770680653256346 0.12001241911038390553 -0.18688322718027117197 -0.063110117825888323306 -0.042868681653241001717 -0.088018916642313094201 0.13634174265533824388 -0.12690422971373715999 -0.27627220771181548731 0.38391604285451558232 0.29945427262075446917 0.02617339701927560644 -0.10607752381035737144 -0.15972468306592588205 -0.042016117233320805779 0.4525823365103505691 0.036612464903308696018 0.44959921916650319451 0.086908387796748629017 0.22793635507285700537 -0.46604957181063400018 0.10486893350040389639 -0.18134826146962065851 0.24417243585676565165 0.70952044145057713287 -0.41445276464673297401 -0.1942248941647795879 0.19082021079852165557 0.1354236616369526025 0.61871173012336966313 0.2756253569106699719 -0.26316365865675012126 -0.12116822633919738239 -0.075320113222072437864 -0.39320106900769957736 -0.24395075467969007388 0.28926684139363184611 -0.42284411336048810526 0.29657027874733621342 0.23651076736216083973 0.081928077891425310497 0.31748376439807790561 -0.045733874790644148123 0.034378816267522017969 -0.083975805089431018735 -0.15912174452295155258;-0.040062461738685703483 0.15608767475046453344 0.10019858888432330024 -0.094853472825784462819 0.056661808849684344724 0.29121303159930483906 -0.065625473815099505392 -0.058556220703760909763 -0.15056696811856928875 0.046620895894757763411 0.31917228158536714577 0.33553981289719830849 0.022975545483931138213 0.23754262342622523008 -0.1749591120332237848 0.065116586619467717312 -0.39423337465894403575 -0.44120077353363079675 0.40358830453108035519 0.04714272192455679078 -0.0089185256643801117532 -0.30387906102512957096 0.16831819804218320358 0.12537519852204562221 -0.54254535025368466616 0.30146070444680445055 -0.082998388900967751125 -0.0033758004309614834948 -0.15323354171105380006 0.17177315221592154293 0.27834163333624772907 -0.41242999356138537737 0.065757291091491462676 -0.065524221694931480964 0.024413867879585486598 0.1992171014335154533 0.29728278110568573389 0.34427300712579161912 0.0038370200590413482133 -0.048958207813078476189 0.061407087046317691825 0.22539844432533862051 -0.4427596625374942696 0.16300136827278643992 0.45074700333172251776 -0.13471621224394284 0.18361459402489807569 0.11093086345174976715 -0.33641989398176636028 -0.33207352514458376991;0.018665395991878809545 0.053635661095232406437 0.4936970225301163806 0.25897474916136326017 -0.20412160626340400404 0.32724542907175774298 0.30475901061836874195 0.42642236980079800679 -0.50215294584642322651 -0.34478515740584880778 -0.39189474764467646661 -0.0910974879934288162 -0.30076206248470360727 0.15266721814593262052 0.12036706232847593778 -0.17245832003872427207 0.19522442115831609155 0.090337389699369469165 0.29962674179224124682 -0.10806823838596453513 -0.14749975066210851971 0.13679643548802458697 -0.0026962879480754630909 -0.067730064715615642679 -0.0025522521866123254984 0.11452471488014656642 -0.24201762085728539819 0.17534099330292185481 -0.1796954328199461548 0.29754423325395551458 0.11590279628173515147 -0.2402995748172635504 0.049614661395452931691 -0.025573480515583568023 0.15051423515426765043 -0.13319794171050797216 0.19537221784910330236 0.31642200052520691456 -0.052915266624475106039 -0.26737841550931146228 0.29925107784109306053 0.43963614283513874348 -0.24179186497381729981 0.11950037398826576784 0.16383580293717708853 -0.17901521199423070518 0.016745516489135425092 0.16648613282696880789 -0.25817130720365516483 0.12794911492601040992;0.32940853801077907281 0.10651577758986967293 0.36104634866451551511 0.2824993919579161239 -0.044629823579985967996 -0.16424832098493155619 0.22840387480126544961 0.10218804411493337403 0.025020674055952211307 -0.31226170275088432904 -0.07331014117864974311 -0.07660912891623790355 0.014028978865578162205 -0.07070803934890348974 0.12988035284959334459 -0.16185783339203105302 0.26550930284591417463 0.34277921711619169232 -0.029805172224220993771 0.10939537482561870196 -0.022798587653177077028 -0.038709528626719023892 -0.069678052322557526566 0.10793784463249878058 -0.29074488273878990041 0.35604305133802749417 -0.05812987269280216196 -0.17081623947435403688 -0.13931557266504054904 0.24346880450479518876 0.15030244373166667948 0.078278885073150436535 -0.31521471946913387496 0.40203539901770796172 -0.05378204823956260483 -0.17247691909576493008 -0.092477786249348478687 0.39271897867392696613 0.0097523314368654807904 -0.10053548193313859016 0.29847610333800678184 -0.15233897099962381838 0.17629218342702582256 0.30336771067555323711 -0.40199219454308943167 -0.30323113520642164254 -0.15751971741763173829 0.068744218251839517286 -0.20095886551438235657 0.34006585027848523772;0.072013005829497517274 -0.065432726161152893196 0.32602310466907680198 0.023068715777354437818 0.16702009731498215772 0.12498360066309138761 0.07497734581968949763 -0.1562769472954836647 0.044527140578017231076 0.076127206331031843645 0.153458839204271974 0.25642581762827365566 -0.060528824595382266227 -0.10748228158170787527 0.21763819716171903251 -0.091332879895145130389 0.64189678784404724521 0.5028801235686263249 -0.77271962980647002084 -0.091311757612714261612 0.156571295560279794 -0.23761001067541634435 -0.42059118118585409052 -0.23303959251228470451 0.41900997467708778199 -0.26570856368764655953 -0.20601055145337512919 0.11825093631643418535 0.15070880707100892115 -0.16505989758500708153 -0.38484575278894234129 0.022778364646009924971 0.48952468538708676649 -0.71284953091258873581 -0.21729594545134792161 -0.23933631333657578999 -0.17313035194850653897 0.054470377777402809172 0.12400964769150595035 -0.04217527026245061067 0.43264597778082308777 0.21502863957576834331 0.33746287403449132247 -0.1126434722809159239 0.062559149063257796231 -0.040464737493018536341 -0.28519111678486464001 -0.15137405714728052741 -0.12158425208390528927 0.074512595772725176424;0.49438851002062966788 -0.15057303929214219118 -0.10997095924840072367 -0.44569131341569556692 0.17788204490758818821 0.15122926664646610395 -0.05971768415392124385 -0.068358835239360565827 -0.39931386340055741169 -0.041920846774941240842 0.15599386690966604574 0.0030344327411707004358 0.34002156783142256646 0.41308669772384443153 -0.11979049995553389674 0.099146933165435199853 0.25419370634660998221 0.43761423907666885391 -0.25373946816095316326 0.13449545764608170084 0.11206667071837324301 0.23296046361835984206 0.0020224744170157351111 -0.16315943059906465318 -0.25839363625578393169 -0.17680163940716375759 0.049752725646898310341 -0.20533317512285667594 0.39748123937353124768 0.053515297452387478039 0.034277642687923756681 -0.14996813783326110037 0.025230133050719621285 0.066396850685478306375 0.40709885619470520535 0.0231208140821617808 0.19570546250587803061 -0.06354375484468388624 -0.048030264799086397343 -0.020217094757408713562 -0.17518483032596057769 0.08560169890834570805 -0.040384193083380211242 0.22175579855034580068 0.19862337730306844907 0.092652101217930674104 0.028566116284545452209 -0.13376260273186135752 0.030359309956715724993 -0.077800890048445370262;0.2931605019564567649 0.19944631317600827747 0.38605359436396380346 -0.042581041708737547846 0.35094253829597327199 -0.018580028629190073475 -0.13258146089977043691 -0.019889572637675548977 0.061279937751883478692 0.21968245232450764326 -0.25492588386927922395 0.21271742697076626016 0.96047880464006918366 0.43037531148071328513 -0.0022776138711940964107 0.27284912018929807775 -0.10478505133704660301 0.42624358434393877504 -0.23488053936862837712 -0.05870993428402386527 0.24482578269895610701 0.36017089282286907093 0.13075955099410274673 0.32545540289593827277 -0.38793220133931999305 0.062050323265427122232 0.211729515276908975 0.097714703396231533672 -0.25130211232840238278 0.10834867224912900219 -0.22635246264863445598 -0.39088185460026120266 -0.49260855663470759502 -0.055997935821687903901 0.057841604123817412508 0.081124551766981106704 -0.0063846835792941928484 0.23074011638354441356 0.28536847602564269222 0.15400900435437489544 -0.16239979888373798356 0.51358746990399206656 -0.25663946833262857306 0.10683591268263650798 0.11664778644392201357 0.043441619454683493007 -0.35816625680729929915 -0.046610488185783824355 -0.34605752870003930743 0.40580815766195393879;-0.13133151993249225775 0.32070808028006198009 -0.060672953786341875249 -0.18461170554541250777 -0.25526789782659747852 -0.091399331612874487596 0.26630978182838060953 0.048229829575514686357 0.27618533882866019846 0.09310353148937718093 0.052428695714187352472 -0.083707465025632574185 -0.26518293096589123925 -0.51357657739578288503 0.13428478981998620556 0.30971352292832166064 0.21464516672991140744 0.055622182137941178492 0.026335597872602797831 -0.32356948040477134798 0.075772665894951921062 0.074394876266804729759 0.17273269793353809853 -0.24886198595313924198 -0.21993863083808998238 0.11421227287161961339 0.079424509616858637862 0.046065893553258532855 -0.11033169960334356097 0.36621340372441035793 0.078198757901718179975 0.068450857790495658883 -0.08588049370054702536 0.27501521942917983576 -0.45702166399964322396 0.14157162702517997466 -0.22234175926633112375 0.19913303291410461293 0.14504932877012571835 0.0066577221674658897121 0.15926153706666493215 -0.071338688841079064828 -0.29368502439844107466 0.3557584761205073165 0.18884346172949809106 0.1336667164252683393 -0.098598674092153254511 0.11716857199377947452 0.16747856324394586047 0.279939199044486553;-0.011531711548837376632 -0.42611984600364699594 0.066857287574283913445 0.047626065590996358168 -0.032799639362723363722 0.10326667620186189001 0.16762908154140637729 -0.26120648379070643408 -0.42825807904034557394 -0.30346405661848796509 0.0090679779927941572826 0.034069693030363466801 -0.036517045768274164486 -0.2859728294080646771 0.095147134929739141107 0.56423561861469362366 -0.087929743945350802292 0.17820371034987594894 0.066375933848512480573 -0.42648068877226036344 -0.28272457395246308742 -0.19408141941402962116 -0.60053330930748327621 -0.095418875925965124241 0.10702606420685603639 -0.03664414970555318618 -0.26559079353051762151 0.048545995526400334552 0.64398927393450544621 -0.047966456011850379382 -0.27415513789868511951 0.34372429313529734296 -0.025311618084812914642 -0.35244965233422365092 0.25089732383933072146 0.23603844359632467076 -0.10972714812249551031 -0.1798354807604200245 -0.29864720152480855875 -0.091271721918567749743 0.064634140134104955955 -0.062734441033765686591 0.17772782372462722633 -0.16094730215496827475 0.081312707635381578641 0.049342912549114624488 0.075202910782720774896 -0.21908144385930067299 -0.10505633370089223488 0.38336399213581828782;0.045177702388822071899 0.15649764101659391358 -0.49489086701757400988 -0.28796714227964975708 -0.0041507485705173166601 -0.45077488574862994986 0.15624010745997393701 0.097742754170819470816 0.12666002399606479667 -0.077528772782884031178 -0.22400437012014445815 -0.51504576664451195978 0.22846467936308950675 -0.12801993570259762034 -0.45542092970993064416 0.43200472151560498357 0.20699008638243174274 -0.50216270986871625048 0.02575230391720747733 -0.83406373478347939354 -0.071101153786688714442 -0.25931138609316600752 0.16140658341582073132 -0.026605344514136822914 -0.11757296024115519717 -0.43410812205903148708 -0.027546707598259393551 -0.22334143138315293298 -0.29342792568780290408 0.31059466615775427334 0.31520826447433347717 0.32702430599944842804 -0.2451946349100020961 0.63682329402633608417 0.1248462016246071199 1.0146646036369917354 -0.3049255538584489944 -0.17070235161373070731 0.52445924027741197548 0.094728772210556033695 -0.10578825012884005008 -0.062561930144725316771 -0.63529968674344816648 0.11375283303757409425 0.086426458448688389669 0.21847687725113626445 0.016208589930100384541 -0.032165668875671724058 0.010210447402198447389 -0.24186346393874430527;-0.05185195929814953586 0.30255827767093090852 -0.064065407752449898826 -0.011688342873732176022 -0.16830648396393663169 -0.20543155357052500509 -0.25539189307196319412 -0.16815520648660034486 -0.045684259747578753741 -0.30580445621152146929 0.040535913743045187685 -0.35175352615939831091 -0.36183036917599964433 0.0258244221928965699 -0.10964255381171279791 -0.054523005598174002773 -0.021470393773358163042 -0.10098207137368886421 0.41706954639485133152 -0.41751047401187879604 0.07675919111762261049 0.049738936401640468365 -0.036471413219915121973 -0.28864770685286511576 0.24943818946197487962 0.24978044137579238915 0.28466409468254122439 -0.10081522475344027734 -0.37998493964787227739 0.22136835506219051939 -0.16231104180152436389 -0.1243969224364342846 -0.15383371288496736073 0.65004963156485084941 0.58221416018398242098 0.12749176612708071343 -0.21942850573573871586 0.036516022832904962425 -0.22722651906858773452 -0.14129551945209267716 0.044022233989334705329 0.12436731696596954599 -0.0045738167149435206976 -0.3390830363330663566 -0.35336224975227970013 0.046542623434488464285 0.010001759243669028354 0.084078192865920706178 -0.12402749523860839842 -0.17861527370961219341;0.0059054744517303345286 0.21639581967192778045 -0.24962801158005651359 -0.43965942005521385649 0.087662331810701668577 -0.073922236423533460581 -0.37753086112023026555 -0.23539842299347257804 -0.16214154717760290159 0.15601344668358349543 -0.15395248517463364091 -0.12768838308160299078 0.59297132942540498046 -0.11298818823164613612 0.053319633742294925138 -0.15210042503337706243 0.10908763109026500815 0.09894121024360275074 0.089680584024574225288 -0.48606359588074532496 0.077616762122485360997 -0.095424191130883906364 -0.16036513819969958061 -0.24883949913740516235 0.25607585609985256125 0.084225714320712130601 -0.20527943527933634194 0.22753886371092360563 0.42104141015856638708 -0.26901629564180806753 -0.61687724400149990256 -0.26425079462445422163 0.0010355384597243873744 0.57283167194652007126 -0.38702984332371037635 -0.85705096154182136559 0.49049756245331077587 0.04437223662419042397 -0.0900037248202739254 0.11666510721689997421 -0.13966279609941043005 -0.10020781412019395817 -0.024707216344492636401 0.15157708619572951569 0.0017684601545769214857 0.16223125030914620215 0.050960711113523349258 -0.0010612599785910462481 0.04514633704522856561 -0.39755258499294354735;-0.26668686740934244295 -0.084753211539065578806 -0.3463528227967044848 -0.19562625244936177049 -0.035669724951819130332 0.039949206800424082175 -0.035930857767278376325 -0.26471853173509446444 -0.083748250854003267185 -0.13485231388806706576 -0.27542733767044330628 0.36775028245120805481 -0.16459832928865375523 -0.070995262866080183217 0.11396236987634232596 -0.10202796861065834 0.09812150161307084395 0.32567848335836030449 -0.54825784829471080339 0.11603026680526924708 0.077681584231231129434 -0.3581192911360711606 -0.31334025534601622764 0.35405014456859651428 -0.12204150149692793992 0.17180082355518350168 0.27390530080207203811 0.034652193801130382056 0.071124160802292835104 0.19290424328286726041 0.24748951567743160407 0.0039565672013467225246 0.10198425262932049595 0.069166518640528834583 0.25500791876407680192 -0.18319662446659559785 -0.14950892398652151916 -0.0058152860940585571897 0.37337227032297137796 -0.0094253518303252653565 -0.15019839912838175988 -0.249104896824861477 0.082440531445011996925 0.14223028654327718456 0.18610837624870624207 0.46941127202693816445 -0.18151028010437761373 0.23840932903887548933 0.22182677047795198999 0.10894475324148283901];

% Layer 3
b3 = [-1.599468441724701151;1.5169093778879627621;-1.4885013198278604918;1.3559952039027509674;-1.3524937346493446366;1.2194532137408462535;-1.2735546752856614638;1.0076885574832277204;0.93495591408829137325;1.0784198160632278984;-0.93898469103681136971;-0.78007718363402622774;-0.86551687918931918819;0.72598989583028927797;0.65598857715319036643;-0.59922170995453782893;0.58568911125312050903;-0.43790548274435570075;0.50772088153305006131;0.25280981198514018704;0.35939291687814395315;-0.33995571255755935303;-0.25593105829740536716;-0.068038733786566343853;-7.1136378471526624931e-05;0.22398778190796195253;-0.017755096670625237359;-0.046230933073315542969;0.39794769625201431573;-0.22142716519427202426;-0.39484083081349041766;0.46557387155092905262;0.49264976512694513833;-0.62541364124595377749;0.62499593376516826559;-0.57230005470383504829;0.79621511143625900431;-0.66925729779265052954;0.75124764921455977618;-0.80093001605608293847;0.9951430725550561851;-1.0576130856502219402;-0.93599676497515726936;1.176533154646345114;-1.2855594123262970019;1.4205787028261747107;-1.2728644507376076778;-1.3833709227723034463;1.6226121793612868771;1.5087309792193555058];
LW3_2 = [0.17227480525963589919 -0.23773013547888730002 -0.096431362489100017066 -0.00086543209183419711125 -0.22455210475731379738 0.053184036405421811211 0.24409838423230231785 0.17617808260140921384 0.051136018186091959647 -0.21852967220821095662 -0.13304366542831233544 -0.39690121933381200536 0.077438260355449928252 -0.55786245975927428731 -0.056692498761038136179 0.11912059298018515263 -0.15953364554905710704 0.50442920208849817421 -0.90294463932000967876 -0.050524117957402789325 0.40210619165498284744 0.41022830157959211395 0.44289674097874420777 0.20435324468103607809 -0.27239024106836051686 -0.40293855603769856977 0.23047714874619965042 -0.053936937886291419497 0.055130006286299548801 0.059503529265397744896 0.46448019518872046829 0.10538793228113228773 -0.22418819598886557953 -0.32909153058337187181 0.12130132105658174291 -0.2104202591970130154 0.067879001011245096442 0.29425309668014754116 0.27176034888591765748 -0.23960079697943229005 -0.30723817728101349145 0.25413947769804068333 0.36052977320418749807 -0.30581818442385344525 0.083178938797169782449 0.10850878159674127998 -0.63042432099621281694 -0.12341179945000807505 -0.15255050126444832936 0.23829173812028878188;-0.21173362751913571422 -0.035532326550781555274 0.23526979120165175674 -0.24149074262978328931 -0.40841004831713789702 -0.042195435904608842581 0.36642589877156461764 -0.21540466146431164196 -0.23635172254821040783 0.14214231360175583196 0.33799303048805678928 0.20798552137912468263 -0.20636913539562834474 -0.10577931441730567541 0.13161149972685037834 0.18622498078618796025 -0.2948332063648366197 0.23689806929345572084 0.026246010314797868501 -0.34151747428139461737 -0.3525372930107902314 -0.19414006240088230171 -0.22953962430893701252 -0.35786421313858929327 -0.40948174602602105399 0.05426398748506301023 -0.26858792106785650544 0.51602338494354293985 -0.20532942904493983738 0.084509060005029973395 0.44361674496999331518 -0.041570745742909941123 -0.074189667254168312205 0.0036498955647573032117 0.39597457289925935831 0.4083016628769646772 -0.22487667513002299047 -0.18317848486428547905 -0.27158126709063823423 -0.03518017042857442267 -0.17760605344130278582 0.064105787936901900692 0.0070187872518250914514 -0.06560031141167965707 0.33638600316479694285 0.33150542378645692088 0.00066398345446600859701 -0.18931238927954210927 0.17933550093499381339 -0.031390362751241768224;0.43004211897265448572 -0.16128209000325091638 -0.022985704906228567046 -0.19635633376422803598 -0.11331036553045231718 -0.27334004504208520014 0.09382754347011829088 -0.23059729500582978878 -0.095186850285704935337 0.20385682312201053312 0.35369720299944529263 -0.14190313139281088284 0.19022635527925046972 -0.38423648926603748421 0.27249224470124083775 0.28459526379117205952 0.29199748604404673902 0.25617992633646252676 -0.14119018515523007462 0.33417925242758811377 0.10887384417988776875 -0.49566559734685233796 -0.21588023439070933018 -0.26332555571695209773 -0.3338653253323621839 -0.10491328675787320313 0.27681176207907820519 0.24877286692656988554 -0.25925976554683616282 -0.14123617830491777547 0.0076122078281752421011 -0.0063369052872635110371 0.20315144175201413357 0.27304489864091091578 -0.029434607198451746141 -0.38533260097073268602 -0.28993031302965999174 0.010849115439237550299 0.22524120970413069598 -0.39242508363284783757 -0.0059043966002069745228 0.016900959496916299896 -0.4225065732640839733 -0.26420306254898967557 0.40615166483619413729 -0.46409256429721584825 0.13256303625449186723 -0.062822495988237664344 0.016536398858596725731 0.33452057379439842366;-0.085565689471537587085 0.061617642265600403029 0.55228973324315633331 0.45301169789633666252 0.41847278709645424621 0.041909061062845087697 0.12198585257949268179 0.26517559779380889262 0.018722492651985712248 -0.089019202139670933205 0.17112388306378595315 0.047262111204906274986 0.19165018556681398532 -0.11743610471346055402 0.23509577421945909714 0.059911332225048553879 -0.12568083101235330568 -0.10885113129396116471 0.086547672518556287291 -0.24680673366827596271 -0.056912595500186957675 -0.21024496826167246577 -0.048181989284037891885 -0.39375615131595198548 0.060953317690810998597 0.068452301648528224298 -0.19138499821762208764 -0.40219699017525378792 -0.18059934902263516387 0.22272258502226238708 -0.16772000193021041614 0.25009061124818948718 -0.10548765627990805416 -0.078244191743118612914 -0.48987414666809114827 0.3448459197751992944 0.19958830993704038126 0.1849331747242254631 -0.18227257506465596726 -0.39664098059722957546 0.33905726180501138955 0.21885649372541010615 0.23213031845947096343 -0.019696856303995272097 0.22285239742949783381 -0.31406063051389704333 -0.42702660097910027925 0.18168825143301955971 -0.18170821553022020733 -0.25177000112867381487;0.18071284111383958959 0.4166642313832130684 0.046943089480750557763 -0.17751398700550699572 0.10548690511191562147 -0.05749844656134015658 -0.27264020098801949876 0.0011984649492409252258 0.19728417257122179973 0.26389160487063928473 -0.1314892138794886145 0.14599648925606645289 0.39015195550444065065 0.13262687101813858126 0.32653422208207855126 -0.27423013051951178332 0.23013765216051496054 0.19235236485628748326 0.04201172743296843759 -0.18397292511238111379 0.14815665755802417958 -0.22004768624389639542 0.12771245780259932179 -0.11365770718724391153 0.24687367459845294126 -0.40090880243011806083 -0.36505296344797982799 -0.20552591606402034752 -0.24651961800992083784 0.03328781397493459776 0.27272803922351218642 -0.1581039609207546548 -0.064941263969485837904 0.039247922275859249697 0.27343425592045284001 -0.081915642750607420286 -0.20183432537196685508 0.29050873810692956489 0.30550766664901390923 -0.27835013176651540734 0.15718216499070661318 0.060384331586063481889 0.26529723552493716943 0.063462651997869531928 0.2767477950769855477 0.0036095421111404370033 0.12021397220589623289 0.11440917774826685205 0.3671149771758260294 0.30518624566635643713;-0.33165673350053187507 0.025684959002342334922 -0.045056853366765139968 0.046260421170724042028 -0.2713591739680898951 -0.088659086625295341344 0.047510245134241436971 -0.10405396816505955992 -0.14556653407055228366 -0.15459006284134219067 -0.0052624342153201287761 -0.015157459481493181994 0.42870179749964104632 0.039176594529593600225 -0.44373273005594726648 0.15908120149425994394 0.30424450645266509774 -0.074211693751291191168 0.1938033226804589948 0.19396729733323564426 0.15201384258865194288 0.19857290697618215636 -0.31221542809760127746 -0.27946995152729314782 0.16765075408873214569 0.11768595002633647217 -0.22685817508560141009 0.39633816467431293162 -0.052552292802163211305 -0.11734714946501573207 0.095370012485500060828 0.060696056423861700913 0.067055606854257293614 -0.22109470018886018261 0.17646166413938468853 -0.082657860044722364368 0.06827248104660026129 -0.10154452651029190202 0.28953725201166086167 -0.071821501796198616852 -0.18980322897258061765 0.42632663591155478544 -0.76117603370744779667 0.18265562934189283339 0.46701186235652619727 -0.063026448769420401197 0.0019627524527076004729 -0.29748326067191377398 0.37733753686617349521 0.25431367368570567677;0.03820365470845964867 0.35005778447525220942 0.23261462135333776935 -0.10280932397039008186 -0.074606995478007878675 -0.4491622343845529941 -0.12913214662907732122 -0.3962213203785274751 0.058459832364006834859 -0.1978542363776955304 -0.15175120417151968799 -0.23695764691359683107 0.16128520100253285197 0.029480542205980963394 -0.15931657562302886655 -0.30618779759631598036 0.19709225952914385949 0.35546532529843477555 -0.10711092718180778571 0.084587994195995927504 -0.17661707683869229402 0.2151956472194050396 -0.032226226311837281868 0.026223817122222402298 0.27157529815343478541 0.009976774711009106511 0.24407583125206208652 -0.34728192627132709047 -0.013205328994317358168 -0.20849517948061138672 -0.10095472716072730057 -0.26066335453006056477 0.097814442665498338436 0.031054120962059079264 -0.16418776433591852904 0.20476034108189558602 -0.29406529753365290292 0.26193067722486118587 -0.19000732507514103697 0.029986103244380394456 -0.22181418972676614221 0.023101356998817046406 0.12898328352000398844 0.11216262983459612812 -0.21959953287453504167 0.23283762300964255809 0.022432815641938403523 -0.20434733494487028471 0.37285647272020711052 0.094227845199776158469;-0.57104098258827584722 0.011269619243711462286 -0.18040894647500607673 -0.37941107331627055288 0.041693115334473798694 -0.32813694879808480431 -0.095287296980604008212 -0.45159188664168969929 0.13110601566897553405 -0.32693635981780522215 0.15554243607785647741 0.1486477623560059913 0.035547747861501194366 0.14168981849110148796 -0.023868279771781495541 -0.13116671418325126508 0.11145053297621999866 -0.20982659698390193626 0.015856149260246244631 -0.048675939529957912288 0.056826188465529149652 0.12782746234049122136 0.12616864007691946936 -0.098556044160961961409 0.28051297283666032367 -0.026743982365679104529 0.27080442431598489295 0.093651104745692853593 -0.12591434028589526539 0.16926341738176101104 -0.042105879770415598207 0.12710481799933245894 0.5533602071725726157 -0.21984249690819140932 -0.40292159583418513114 0.31897317723009011026 -0.18903379446044230039 0.040066290391025667639 0.19231278813166960417 -0.14571776513884401871 0.19776965864798168315 0.082303181741516864833 -0.098939949944588573283 -0.065386775128317989325 0.14252517421742863513 -0.15629334992763338485 -0.034872391297324105419 0.2242437463546982368 -0.083144972157260202406 -0.22861490490720082214;-0.053753859115717318728 0.13292394070485877289 -0.38883602905646136305 0.38613588269560028543 -0.11234010002848446308 -0.34625642092057451471 0.22110735725442270949 0.20301209095521696724 0.064372714313121914831 0.27958318362203338214 0.19848740576026260851 0.29006839869394251963 -0.21643854821312816239 0.044238095130374216479 -0.45517285951237523856 -0.0029560641692153062643 0.24413588596492841187 0.04193849454745038341 -0.28665597422582472786 0.44460864031180019618 -0.33078557486823995104 -0.35881580757852798991 -0.20011140153971021527 0.049378130416858678764 0.22129341370691354984 -0.071499089004241678236 0.66850491415347379487 -0.13438091714833533263 -0.1239741065667994413 -0.069268449008773116948 -0.46080977764865704849 -0.40839541523939193457 0.05270727774054441428 0.095274413094777063438 -0.13933043618857038348 -0.21666862369141287603 -0.32458760136420561349 0.14482808397056376459 -0.01507776297698658341 0.027750774527827370974 0.27932586524691299656 0.017427122607355665512 0.072758277578488184112 0.029427675880992106017 0.16903613594147071097 0.14442837201974698114 -0.12034306425551276332 -0.075053684088017963427 -0.13180771838697852294 0.15619495355374238277;-0.31288544282419372689 -0.13836098752832362568 -0.17886223715243251831 -0.0070632836777088665176 -0.2562951156731336777 -0.035894654373221070165 0.037465020614813868138 -0.037520392750494152567 -0.020455718769008882085 0.18324090903212858494 0.21897877068759874497 0.1816859520199008704 -0.21727995924874862754 0.28639395105331444391 -0.054914704698591755572 -0.080763714169524755682 -0.010188485302974644234 0.048766384029415035806 -0.23687502570219182152 0.20121014624667465931 0.2376735775735392131 0.40764703427889770193 -0.16617659794865921596 0.11380198512958596135 -0.031125357468033743036 -0.24319703650440582798 0.20776858748660270715 0.023867505517517970115 -0.37366839552614433684 0.29376172272476863689 0.14007679481615040173 -0.11300887642219445417 0.0063611957593315889697 -0.16458326627817657095 -0.21338118349621112979 -0.13831354045661678476 0.31201056903948354293 -0.13570760492544328701 0.29746645427650841853 0.10155346934280662374 -0.049207144732514640495 0.4820282706056298605 0.014040367238752017934 0.51194460278103348649 -0.14717245317354157863 -0.18612547468092180414 0.1340167676912953354 -0.23496919396728449536 -0.37944778089237374274 -0.40668014494812176896;0.1698918535485283432 0.19803795840769469749 -0.026744620523878537971 0.36214973432451086355 -0.045269938238987277035 -0.042394410049253573869 -0.16096824555071279073 -0.094475214564023302088 0.22712687169245684982 0.13219244410957142755 0.28424376715061716592 0.18880281134467022386 -0.30839890119775265065 0.27438989648795308884 0.1883145286808467489 -0.040843451729932880867 -0.18821566099445677378 0.32987027902216192743 -0.45092202417641014112 -0.20113553353078683639 0.20801057076869722273 0.15219966720560648699 -0.2850088526620782603 -0.072498558846460892102 -0.36580434516647020171 -0.3412656304287795539 0.13565510160108718019 0.16698198087379231835 -0.19781724653903540179 0.45842893806666151768 -0.38598015326674711689 0.0046223775619798580447 0.10098933052429281965 -0.038567475690628238993 -0.016857261866855724475 0.39913270564627267856 0.30964866134381596741 0.52428892015241135294 -0.075253114222770256525 -0.45532699639601864616 0.28689639431390528967 0.054237466612102033792 0.098317448873260104847 0.018384754922616354522 -0.32831214830728361331 -0.33345583832423109083 0.10811070079724093007 -0.68495171245692032524 0.020494268090521919334 -0.21451117250288329052;0.02271706313283976264 -0.19879899503322365217 -0.26787393721179292294 0.11228614867404697331 0.297325183121135872 -0.15461187439139484345 0.0578537114737197114 -0.10955635549733594436 -0.16246506722680495449 0.17892980942628686214 0.050787930784737506107 -0.27122714859372737406 -0.12653425702422860244 -0.11744375719361575816 0.12545756088218029678 -0.04151796425598989343 -0.25263454616867231373 0.23013318892676523642 0.1929829678096325607 0.14793254369761679734 0.045072362171153450283 -0.42335262041495203 -0.46405358727933293528 0.24464314042938209437 0.012527193951340635444 0.22321790711577346733 -0.17778746045048424151 -0.42605389191614906341 -0.32561429713412620712 -0.040231174906795882928 0.0095436290246237402007 0.042536229252744986451 -0.064672825509092521368 0.2151661362249497611 -0.31818123654774310705 0.093361481919223415771 0.1524825167896556033 0.31859403280132275738 -0.10007402570661373675 0.20661965958390576814 0.3040167135494281081 -0.678344460712998365 -0.16413561228589362839 -0.57777640879656377848 0.10510299610359204181 0.088895754687399242133 -0.044751626153732702862 0.34017117170899280332 -0.37767568129514195174 -0.29556037853389161008;0.053094487991516801928 -0.13114443280700141536 0.39517990730243413022 0.62122136207396361218 -0.15147732930930737916 0.043714150270223670058 0.45028745956904253633 -0.48828981269754745398 0.26719993697744598427 0.027595555998935563519 -0.20546996370390926967 -0.021877225519664488668 -0.29166325512904833772 -0.31865811997622567331 -0.1711943586628283942 -0.42211327795190911605 -0.14324889205859436814 -0.55538160468220598709 0.40499646474983580502 0.25091164893252404511 0.29475452616971892228 -0.35575482344200931584 -0.42079987571716453987 -0.16417608281639942125 -0.54997430390814938672 0.35953948622496767484 -0.1594710531183217983 1.6722015278509452241 -0.14334972010573518442 -0.62839807379410439481 -0.29384794787447116038 -0.3054413270116087542 -0.036187252601790405315 0.33351976759538093376 -0.29923229190975003666 -0.56971166603220724234 -0.049454609551294784198 -0.15032645536626931815 0.35798991536850616191 -0.21668235516760822601 -0.16137238380053467446 -0.021362918201001987462 -0.26328414630673746544 0.0075107267758492777393 0.29932648117364119011 0.1542616807836494075 0.096854216697516204437 -0.12389669993317393992 0.078454938914158292573 0.35065703224073008215;-0.48711591265143172613 -0.10614556550634765553 -0.59774553178670242204 0.067673042209687714332 0.197366813280067388 0.073948963935269715342 -0.26549697253291409949 0.20001709284350258078 0.60587634133935741598 -0.23552005159506075871 0.14684723510951455672 0.18511503973889767427 -0.15712688308099520551 -0.11849998640777920089 -0.432378692007380383 -0.015828098795741145366 -0.24313168103182516977 0.39560402461398158636 0.093882365556044053423 -0.19145989139968894177 0.10397655637723535182 0.19698029929150670525 -0.52163399021880030304 -0.35083274297503602712 0.28912504685773782187 0.066379197206344706106 -0.29259939211138369375 -0.42147724517604007177 -0.24501957914538230465 0.2579450062785500486 0.23778235875813380495 -0.11920735581443817064 0.1306720516492518025 0.094004780992593961475 -0.030975815107803981313 0.013246811145901407972 0.22781237705370044333 0.15105632485759740158 -0.047343617829607963221 -0.048093114573249891308 -0.16171288242417358738 0.074421140028332596894 0.50579420380870077079 0.39114715269567446043 -0.13215100906960036697 0.41629087172214312984 0.25651366626789545711 0.10677351906037124696 -0.4648530864252216066 -0.15307457477654884404;-0.1374459253040837825 0.15928241230124823291 -0.29647257634762663736 0.20235407609848052313 -0.43684668193895193067 0.32152500248652904347 0.20676850154167367157 -0.10196969817781116607 0.15121027141205042876 0.48140797247665922942 0.028189515848091675071 0.43823338082897805856 -0.13185249015475855594 -0.47814292637222310933 0.24748968868603807292 0.41434269410152807511 0.16985333188920273551 0.18498730739246230237 0.031077810427655973985 0.27457747646612157277 0.018583141724814303264 0.17946316656003363788 -0.53273492274709910443 -0.319754899383445923 -0.084062379058266328835 0.21341493098756392222 -0.24075501758770809224 -0.41041721175029433066 -0.40655276735108314412 -0.20559847955232909977 0.20237389714545231389 -0.1231271043639914492 -0.054475023873797566443 -0.12750679903183884112 0.13939342375535046514 0.36962212204400196613 -0.16952376295739024492 -0.65131857858783126503 -0.040822355422796635649 0.060608529542922645605 -0.25492369477000514921 0.54703449873879728127 0.5972345972139507797 -0.080821814703104524757 0.086404518923050718793 0.033438037138130864701 0.62356178775196713371 -0.28290486288935451364 -0.085562674565628618617 0.084571733909998461631;-0.055644275180158450644 0.029169464302979904169 -0.20572614445961201479 -0.18493042749207913578 0.26197420340059329735 0.32296120837725966757 0.17653306340931262941 -0.38481143156346186984 0.0095474859348088029348 -0.028538525356640004338 0.026850734364666277443 -0.092776459786282308717 0.2727230594816197895 0.092505624470319472441 0.27314005477293834545 -0.014605379791756698329 -0.0055259790860372201907 -0.021607703848463291618 0.22375231045466367763 0.19528485301884193626 0.30034518047242103611 -0.07069550331396341758 -0.25810964880119385834 -0.32559325018605905777 -0.066646275353085926429 0.46146692324797045082 -0.40406530533016499218 0.1881804895649909215 -0.076189820730652849101 0.2174573534994726498 -0.37410945871680512109 0.30888327363883000265 0.3118266761479070448 -0.13616852124672829127 0.16903161397566995872 -0.12591639732729098533 0.1568256771207467426 0.065590901557843889202 -0.1009408971021657081 -0.26365949963915874532 -0.081852675314677617036 -0.18919885427074042972 0.51468842464057085184 -0.42354487451809214038 -0.37542356625059219999 0.24742199854938312642 -0.44223198075422981423 -0.45174964340294615495 0.075861805569269885607 0.10495442258476654629;-0.35011939044948892086 0.11520921289432886625 0.38757377227849720835 0.22135481531519415888 -0.14940615079007807386 -0.26523690677020317352 0.094672948914395940734 0.22722155585140874079 0.36713920687422724187 -0.4750005155391960332 -0.12559780300017722721 -0.17456253353007319951 -0.18058528330549800112 -0.71307300504326065482 -0.38926527010940858986 -0.02121822991293729338 0.20859615815015319917 0.28206492719948389469 0.40833347793248259139 0.2283576908808016559 -0.52848324701574111995 0.39863930863568608487 0.31467065805489424779 0.23203634724715072046 0.12579391839514605933 -0.02396886640190179843 0.15352630838979849925 0.62725179461114244361 0.010762324442711735523 0.3563225054536498515 0.2209451097309660661 -0.29251107616715837922 -0.056557281450140467483 0.29044851552245137816 0.1789245564768313923 -0.14644443836511719659 -0.25320597043653958469 -0.54115223278763402437 0.57315678145238524444 0.34341320436191458132 0.33890847364342907566 0.46442396781664141425 0.27203029816692297915 0.055554396384687780575 0.10729058642373867638 0.31852836878386686648 0.26543859409175157849 -0.44188261574319498415 0.50022381745396171659 -0.41516558441447726224;0.074247203069612258131 0.21451504355719114292 0.0051091231563518231182 0.642349982381961504 0.09352215889217807554 0.34842204003195259565 -0.23534468986792664302 0.24793038427968999704 -0.30540304015576669183 0.20565130458040822847 0.033800253926499261581 0.069372917855200763593 -0.43362330447330033056 0.092409166445104523602 -0.0078173667909874969273 0.081252730725158123226 0.28224749435488399874 -0.071837679995374228992 -0.061328074366794646521 0.15371104111191682962 0.067146323277117364592 -0.067110110617030940827 -0.044240521667039955922 -0.41008425159751954459 -0.14843670978363854296 0.74322691027519494078 0.10257461545885604437 -0.17670452122380495008 -0.24818180341680121104 -0.14080770995893557296 0.079005084013879595117 -0.15165118546199080063 -0.32771155359585191214 -0.34188594645351166879 0.40803271851063627196 0.11006623221350277098 0.32619781650926177319 0.23228232643496901644 0.039029810827422656283 -0.13931428262532893902 -0.01509178962650344763 0.029346441625548953802 0.19630842619713276265 -0.13869683179298480935 -0.29973191445838820446 0.05620524479583852151 0.037004385894553182279 -0.11434429537109037922 0.32319456399809914915 -0.060666681673325499602;-0.10603991704853968359 -0.042257035711572646375 0.19924153453207213427 0.65887447089183182047 0.382138765254298296 -0.1857763499052519085 0.434819330370560031 -0.18784525560256912224 -0.10397519748640991766 -0.35683671029648827977 -0.54447298039747960008 0.23717231071649919061 -0.35178840225809576703 0.26368297750309827032 -0.40135723289974967187 0.54789087918596501847 0.34714880089818450637 0.39703695643412151295 0.31420889108142308066 0.15429618275483542034 -0.015394290401559200532 0.031201509874818074419 0.18471331993964917872 0.31705540527783876437 -0.0055848843281674637185 0.35295437123813422353 0.37155538581100888695 -0.089514910935131461467 -0.13281500902944853859 -0.36585076553840678582 0.059167822984023149546 -0.33498970456162141529 -0.31160855688969713029 0.51451419875865955778 0.18792749664458210934 -0.18445059602071853244 0.030603409017354865629 -0.31570887733033575762 0.20658542838749274773 -0.029900254975837401578 0.19044975416391804468 -0.16511974236421700368 0.040667475913408211718 0.19305663948670503949 -0.33658012858649377641 0.39007244387811895736 -0.26774636960931197383 -0.20580727416891128612 0.54654523920651998381 -0.39422487779104548045;-0.12412661608725746032 -0.14744207541525702898 -0.18344351369682732056 0.0778660436942866796 -0.15725903328387677571 -0.23755510917397967829 0.14284713624328998494 -0.12942708857892298857 0.12475500261835768823 -0.22811947236857535448 -0.22090932402910581911 0.22897956321595241969 0.53881178914591498774 -0.27084581848731775766 -0.17632573788310249019 -0.11384393993095118236 -0.0028937556654587658078 0.26350492982412376808 0.377455574981301889 0.0019538963160770500549 0.12132185967303418805 -0.60358939923364562929 -0.51736248099361858976 -0.63485064313552730386 0.56033206090189258131 0.40201172447645910912 0.018354010147419396598 -0.37382585104202636916 0.16063868768626721195 0.20499454183772886084 0.34492690699037448221 -0.033036399905694187329 -0.43608021921324241488 -0.28911836593280443308 0.44235937295305666206 0.16332426415002065934 0.21325240010320969941 -0.38481443271463300349 -0.04197922342366333659 -0.085147356590497408346 -0.37175057662439986439 0.1171102041649855624 -0.336855465629583406 -0.40105147956608211413 0.40920886114349946938 -0.24787390530183195381 0.45711479491672629694 -0.071597032216002221006 -0.62636087819348262862 -0.23283139278265546634;-0.25270025050919087128 -0.22697550325681528638 0.43028504115396093432 -0.024479035131011999543 -0.145839267321390742 0.3365069875760642315 -0.33805749468678802927 0.35062105390628556245 -0.26300982240201764562 -0.12700878662063241897 0.34113099467355789685 0.14689428147419503201 -0.42439855484520933038 0.12057891587319108373 -0.54824084748127410727 -0.12466082245864626432 -0.26100389112124666724 -0.19413566545817945164 0.20462549425672366121 0.038483592872977603894 0.19369277904373941035 -0.31818564565968848745 -0.038366688380613321596 0.063989353211830024559 0.09088599337857163063 0.013807342606636406265 0.52487078179518664722 0.031138829605015908714 0.020597105692897632601 0.034622743497456170969 -0.32444865916522014349 -0.34222178001146380533 0.19328230472882193536 -0.30881283678358251166 0.30620878804946849439 0.2879121906129543107 0.077056672452242291893 -0.14283048553757865529 0.010024896512901067258 0.41028869572859777426 0.36252501323396729704 -0.012859444490931782462 -0.26811421225505199795 -0.18443744191262914645 0.14933976190787812133 0.38718985443516945599 -0.29531446203595934641 0.095002571826319798243 -0.25566626602755443409 0.02593369252152582724;0.32311814932328003502 0.37474190019230047 0.12596252154816514612 0.36002608706894084767 0.1971503375688031523 -0.25716202701032286893 0.070697374332114537587 -0.38645765612774946041 -0.49758091809880061751 0.26833935659886087866 0.066709482017417651156 0.56072255310255858518 -0.22836767718894457335 -0.34856828655353472302 0.01064793979724196725 -0.41679292643685239561 0.0051500780151328790987 -0.3017452175721507257 0.067866286369580072768 0.38231872670806110737 0.15956324127505305821 0.071602040928503654649 -0.0809774423021797779 0.071449491677170240411 -0.092571066272687171916 -0.46320077984019164541 -0.042866914747344685155 0.047527514093874803636 0.26461617919743385396 -0.24540257096373610524 0.0065534787506410169602 -0.087777789073401252251 -0.18213587904432443354 0.29842254723542266381 -0.076910171041726108077 -0.050663006292570075817 0.52457358401777909318 0.04495126666567099416 0.0093331907612754696352 -0.089030440219662665413 0.21789596759488424893 -0.2882733841363632199 -0.59653302444921374459 -0.41054101768927186988 0.33677487761780511288 0.4139274844549869492 0.04117294893984339843 -0.26434265282448710099 0.10493227367504297243 -0.13941717676621717681;0.1901303092584772092 0.28837329327738769891 0.36760604746568786849 0.5490263051944948014 0.73734469209029007697 0.12614493861168132871 -0.26580134977410729835 -0.11539521440050558299 -0.097633598322427919691 0.014542493491332712449 -0.095418721172826861943 0.4989506398201292714 0.23249704088658421086 0.31625058617086082569 -0.1311992811692070382 0.058522556629094765746 -0.0057541413221353782115 0.13760662470170981209 -0.26606853195660656874 0.36946914057891167005 0.29120377573411160288 0.56386894161519196533 -0.30212744216121134588 0.20931931991322424991 -0.098178408646488246614 0.20418749081554696256 -0.27251839413093265074 0.39124051400196513395 0.26067485500117393293 -0.1268025847567665898 0.29747816263441123619 -0.10546157481048810955 0.11602876462326322526 -0.30048964331376248893 0.34473242916869295538 0.098883184751953956404 0.36662460316825662421 0.33945506838251521264 0.19226039317762300129 -0.31304752282742853708 0.071206214105800927361 0.028610833696592639919 -0.1319060035106501827 0.29947194557846107399 0.3432749033957373519 -0.18361651336542264557 -0.16727542762452538017 0.31301791849621624086 0.062314606789906849815 0.10227530663062645022;0.45529456338744367372 -0.0097508712012234523281 -0.61710668899818521549 0.41126428407479831417 -0.41134807339728141073 0.092470755307805407863 -0.17242697039916415891 0.10504598608563019135 -0.10459675150403772992 0.16324070451148861571 -0.39393023319715114727 0.028043525007540325705 0.032433278567794439351 0.29245698489689897492 -0.10007805436223329854 -0.43079816595377667943 0.30176952315596761167 -0.2635532688299230264 0.017017314046300184571 0.44513224431786824198 -0.1753318244642712298 -0.00011017289178058961498 0.39301722113722797891 -0.45565324723102251792 0.30703263717858675363 -0.28922753827305591745 -0.26187899837574601936 -0.13815359490152820388 -0.38817256334603694734 -0.016241093300644555975 0.020572823661112033672 -0.24789341049752863788 -0.087780251051931629247 0.24435887917229767718 -0.15868087615237597143 -0.28149253079409330969 0.50124621276412550941 -0.28862609862473553868 -0.063589429408229300456 0.064433317651985219654 -0.18393457544822927607 -0.20315467243953927445 -0.093236752559280600128 0.32466412251350801332 -0.18818870118697472726 -0.10915390076646583339 0.28563952632418615485 0.095951920374459737095 0.16871783004496085367 0.31083385342431957277;-0.35820242490309717187 -0.38315490980928701426 0.13715185420534939387 -0.87724906370443822556 -0.31810442796228516338 -0.091333940199409879845 -0.11713900733996787662 0.26740986654019149871 -0.18571050634159361192 0.29494343739219136546 0.1989725709003369869 -0.66686220879959368091 0.13733069195973190979 -0.087837528146986712518 0.017124043312204444839 -0.11419902720098948357 0.0020990371563820386068 -0.2159323597120072491 0.18414307554897646479 -0.37291803136993584289 -0.12745521788699751276 0.0036001868773998181757 0.22333018295429779565 -0.44811864458534855782 0.13155039610370283798 0.047643434411481354329 -0.052356396842184120544 -0.26897064559901673331 -0.030705511104259685523 0.22970723729146436121 0.42112543648144329378 -0.42566030088158546274 -0.061351768088571158322 0.12962442625458756029 0.31376557563788665117 0.15951271178748852031 0.19653173080698840836 -0.12142645695124625049 0.15815349710224116397 0.0058679385883762865544 0.032262158387830627837 0.32885128813284120186 -0.16002618288466335938 0.095966861794125446483 0.13456379622070074875 -0.19501354916134003292 0.17993748810736906463 -0.40368710024683462922 0.15611870586160978003 -0.21756858291678776718;-0.053537060577933712202 -0.48111688296393700925 0.5625180516734197278 0.61241950965437930154 0.40605566116978480951 0.14849941502172567254 0.1693649896775693553 0.023074674357296740684 0.93623314375673183374 -0.12948458122437775386 -0.53787170593340993818 0.54048097701193487108 -0.38377989054322619866 -0.16152107402290186156 -0.17611224127784100291 0.7863074944356949203 -0.02909535742493585958 0.32536659951354296449 0.65552359061027087872 0.51818174269272210264 0.1970266267070665267 -1.0090006573855483385 -0.23153191669663300556 -0.42097699462013882243 -1.2013488768815407948 0.20567827248366929438 -0.40526132807323167473 -0.98960813936724634221 0.50222953230860167828 1.0536699690957642694 0.056244117569244883592 0.62353004844665549378 -0.40970987573674960691 0.12029745333389983697 -0.4489274827003239543 -0.45169239673517552758 -0.12426901790390174063 0.74926092088189477636 -0.28441120084165427695 0.20948798557329217918 0.14879079269645636985 0.18244573791047158373 0.61808541270880168472 -0.088829158853208453617 -0.57181666107355377804 0.67056232233805734833 -1.0755713774566821872 -0.57796587217814787696 0.29675680541727278428 0.087069286406274468137;0.41213002280461102922 -0.24336797046017999424 -0.65721235318759996247 -0.17794028075576590053 0.063900323205209122457 0.018331315826181370648 0.11305468376458929769 -0.065016903380946608482 0.0177781624999638517 -0.26434621829649040947 -0.20635914896615392689 0.075719740883795183528 -0.13888436392549929899 0.40679132651781912955 0.40856749716498980129 -0.075918016477939789799 0.19229565333239967417 -0.057156111470006647213 0.33752667785052786753 0.10525923373186774068 0.088070219351103040673 0.19152097604052306656 -0.028691245269726526473 -0.029251664387750987706 0.19761263930400599365 0.13498482549776638639 0.14341719953084125505 0.12600860435556549 -0.067149877678704478212 0.14658107458769648046 0.065068857640247945717 0.27451722685508539445 0.051697201024979870521 0.34436771544141558943 0.093474744907271062333 -0.40471987977294437977 -0.6642339033689764749 -0.077890094837139406403 -0.39704006561255916763 -0.25691184537589301096 0.11769902680312853416 0.19744170679489717046 -0.20129661548723115638 0.014744639380793914119 0.27166155485102283507 -0.44755961463504190245 -0.26440580695763116204 0.25593369464433696203 -0.20378677530932662321 0.017667713653419847564;-0.33735318148939447136 -0.047929942909311351595 -0.21378519845828580781 -0.85627491272510081188 