function [y1,fg] = fun_6d(x1)
%FUN neural network simulation function.
%
% Auto-generated by MATLAB, 13-Sep-2022 22:26:51.
% 
% [y1] = fun(x1) takes these arguments:
%   x = 6xQ matrix, input #1
% and returns:
%   y = 1xQ matrix, output #1
% where Q is the number of samples.

%#ok<*RPMT0>

% ===== NEURAL NETWORK CONSTANTS =====

% Input 1
x1_step1.xoffset = [-1.8163731098175;-1.84154224395752;-1.85734331607819;-1.91566574573517;-1.83750855922699;-1.9300365447998];
x1_step1.gain = [0.54606903868122;0.528416717973799;0.534570462852977;0.521020598417853;0.546384969223456;0.512844766513591];
x1_step1.ymin = -1;

% Layer 1
b1 = [-2.3642787624171952565;-2.1348155905075283378;-2.5372712510968771227;1.6941604297545980184;1.1637576068315542699;-2.0962146057264439136;-1.532535810445798008;1.2399971766284909602;1.2745059897083630407;1.2826780954618424158;1.2949130669305408681;-0.86441402793176835839;-1.041168876522676312;-1.0075099490039602923;1.2014344952308382286;1.1350928862404960906;-0.48391540285213041628;0.81558281437353663534;-0.21652379808775126802;-0.40374126880431643327;-0.61490174580302847662;-0.12435062289113528455;0.75230022028177723215;-0.22062961543545739351;0.16758538171808090578;0.49716190448622216147;0.81062174619311300194;-0.44251574575179103421;-0.65100426212893869327;-0.90642484088953667598;-0.18601458613367688466;1.2963805726433377252;1.1315959121962346767;1.0756398167967096136;0.48137775812268313036;0.95248715318256216289;-1.2021239715974967321;-0.66012367211011246937;1.1343311315505260062;-1.4330760311756878256;-0.89532238764160221312;1.2625145283220431391;-1.9350679155858001579;-1.6368187571840397965;-1.2051933873774174355;0.99227034229015065314;-2.1738447903305462283;2.7241515363718922238;-2.3878604852114899693;1.7937311781319971171];
IW1_1 = [0.81046826020116702338 -0.99284024955301797277 0.067587210141934514485 1.003654302522754227 1.2554107417269659841 0.61278011009244826024;0.11197671336555349575 0.10956180104034242417 0.19573633244877877702 1.4667107392182610059 0.83880219478900563956 -0.452876146092220766;-0.1961314043413308339 -0.78266986962091078528 -0.28359521052524910845 0.62140869851240032595 -0.12668821385719511441 -1.4961174086463910893;-0.22189947375079324687 0.46387365539027258787 0.66045917753857497079 -0.97720766069882281091 -1.8423467001798989884 0.021480660015668614354;-0.70181148864953735167 1.28579978744868062 -1.1290993356314822371 -0.24919923074520058948 -0.10152893907749688251 0.16020551970196916791;1.2406093674344991218 -0.82539779983086003501 -0.10039351409121084757 -0.56950775760297178696 0.22862797534389164844 -0.66091032521155901325;-0.10511015359812377057 0.30834103938953788537 1.5479972118410845194 -0.47774703876507684797 -1.4258617450394273085 0.85639517665680142677;-1.1920904691336988712 -1.3013901774912153275 -0.1333123512990050108 0.68964520514736415979 -0.05740624221837942881 -0.94284872145473874738;-1.3572545100252644268 0.85748045782580595287 0.81307171407302203381 -0.75936060939564808958 1.479049150459503581 0.39181275383225516729;0.033760551892641398053 0.29809192595816069726 1.5093651280333346687 0.3004633761842949724 1.0520149217065244418 0.82317353446851959653;-0.72452161847073659473 -0.18491354760469744245 1.3037901273769902932 0.58626539077688255563 0.83589200610464164942 1.013051824073519791;0.28070246299752554808 -0.82793355655549394356 -0.6998469311455982611 1.2203317367806556515 -1.3060520995207489658 -0.50757550114826477383;0.83705304283384696085 0.45692411353870460156 -0.81053066590911160283 0.53549508297078807217 0.55053283085274684616 0.43210766627208668789;-0.2134430835410364713 0.0033411139515768881886 1.3849740866804645112 0.15403030514268081785 1.4100207993899145364 -0.98136941846119574162;-2.705984652580677885 1.3365204923806666137 1.318636336605041981 -0.61898212311694444931 0.01233976574160700404 -0.0086679028735284699425;-0.21982941905162958762 -0.15395866087980680792 0.4643625644284818943 0.37057978251672668568 -0.42942442088565363489 -1.4536061716204624616;0.87037997374911502124 0.32472848462307513095 -0.55310970642689938348 0.48209512581243102458 -0.62789458842580980757 0.31695123117581935901;-0.056469211809071120922 -0.9615470042247283855 -1.3203765129749023277 1.2069863513639476071 0.18426315613058516507 -0.50695289951274113971;0.61687164965091811908 0.88851937575330863783 -1.3743834478584584513 0.85724164416160131275 0.95311504635273958108 0.32021759158141066548;0.8190654121039636637 0.41941897673734651608 -1.2887326973568429267 -1.0067008663223908638 -0.9134847907346164142 -0.8265091970706125446;0.049980920801405495646 -1.0085620868241662595 -1.2882777947530767992 -0.75643629928892197611 0.05339297858467542679 -0.12660453799110188422;0.83177870731631631251 1.1020568461332342913 -1.0621647119140957827 -0.9453159137395495959 0.98055829473548750119 0.77915650354441279291;-0.61920395346698198225 -0.81077664992865006166 1.4959239022071244563 1.3612715875347798367 0.073962023295696815994 -0.084298337457948957496;-1.4446939555774851449 1.5022217179773307283 0.40152291364539682839 -0.9378319935591750145 -0.36004037229615215576 -0.29516411543953058327;-1.2962736518324153856 -1.0357089763792548531 0.57633343808972636868 0.60404876086838033 -0.84129373232226467572 0.61834654603583083521;0.026001784121955563711 -0.0034950189481136022945 0.92780201399026696052 -0.2343417750041287273 -0.9655820645486177245 -1.0928975182365587848;-0.10847789563637631749 -0.43488369282545974448 1.3877234230715689289 0.8183747594588972607 -0.59674975716736256004 -0.74876657242465549658;-0.53105447482864409636 0.48469395615896193608 -0.62478629810965435887 1.3550239775646326645 -0.03210620679863428889 0.4879892294149533738;-0.64094222789218935343 -0.95478278198961519241 -0.96141328607288434327 0.18130114252801060593 0.19157760304085541536 0.33560735002896613377;-0.36733709977728845608 -0.18605216517136144438 1.5423202070264176999 -0.52163296534714120867 -0.9896907401111467717 0.71358216820759312604;-0.8409312286582637519 -0.80268099725280406265 -0.19809921270159644435 1.1855245103652733984 0.50852733494817059512 -0.50533793818086314431;0.058319262819155288924 0.58780168179347014323 0.23995963630796879329 -1.4150616895589962496 -0.59584541037929628082 -0.4537327781957586903;0.29498970622809828068 -0.18067898453521299973 -1.6556101343472326981 0.66354726383679984991 -0.72951940947610305344 0.67065259999764059717;2.5864704736366204152 1.0151912910164757609 -1.5452695710030939225 -0.3737114867802127649 -0.047772174929187817549 -0.095383248118478342059;0.51907391945831193869 -1.0521348892227049276 -1.3599042293985392771 1.7398491352894829287 0.62614857434029669303 0.42036423628156327492;0.67721199081810301568 -0.31973728336507956094 -0.036778760021419373838 0.60280419220194125796 -0.92916415939140706293 -0.60415072017467053023;0.034966715884458231256 0.38960447771257172844 -0.67716729665950836647 0.60576683118528040772 -1.299361670065823704 -0.6613430446272579033;-0.35611282181429371185 0.99169527859127748481 0.74286075570526255429 0.39775341028202260141 -0.95651889673387235913 -0.87222020901592056674;-0.093730684322762200522 -1.9239080265599328712 0.26794194874510829374 0.92286504541415215197 -0.085769693325948956342 0.15423076911364608232;-0.98520190768466675557 0.34907299985604200998 0.41532291809770449653 -0.87227865187821418402 -0.96726730695733331711 -0.30936729656203443284;-1.3315249160428990205 0.73512445401788262256 0.30926824112226664054 -0.77465699846219437941 -0.10804628462917241494 -0.2933795294601408421;0.6676083587685258669 -1.709440439631396691 -0.51698595039853556532 0.83806355648745178843 -0.4601835118703215266 -0.10843389361767642731;-1.1062837633052426956 -0.41943415407219014623 0.81886484198913100929 1.0319642894046421322 -0.54384909481718468616 -1.0435266266753633335;0.40168495813805571437 -0.22001637310314833829 -0.21112699179174887476 -0.14895664961838203655 -1.4809428660222576646 0.3473024852122346684;-0.4510827563698210918 -0.36212262198456102169 1.2760183653491787847 0.87955751679995253234 -1.2019160570971696433 0.63548208545607698383;-0.67959500837304154253 -0.42697728293430753377 1.6709785403604489051 0.068022206410809429866 0.39650548254098100243 0.22112623915974194411;-2.0091140966525906641 0.89075754689922981289 1.3668519683513196128 -0.14934436569633777192 -0.3964074725385786091 -0.17395823470471624694;0.76026732053192902505 0.46249331527165055133 -1.4768281415504480591 1.0723860382416563475 1.2502820808692505228 -0.52903827611211584614;-0.62217299163314265797 0.35598464956344022525 -1.4052550150162139708 -1.5443061818544965291 -0.21963805382852244485 0.74593733062786082844;0.56890579310229538734 -0.30630873225518479019 0.67750494425974472357 0.13075591190054222657 -1.6432708508914863899 -0.35291980330394967513];

% Layer 2
b2 = [-1.3631852083728359659;1.538025205007477636;1.8404917119710542117;1.3610481623990906552;-2.0033474201051619801;-1.5405418223571243352;0.78092619177938127351;-1.1567230491537126014;-1.3161408587636420631;-1.0671104346559268095;0.95021002339000881776;0.80099847964905235287;-0.76999489237165075206;-0.71990216089541259059;0.59402765447481198358;0.56372428435734589502;-0.82641108127268469996;0.080034464512768493938;-0.1584343281060676123;0.18506929420979573164;0.37600729589187675828;-0.047370064763448932466;-0.095924285423106298021;0.3026611073759497561;0.73237207739789877969;0.009867107528041322434;0.51582645243519475997;-0.22986821168375676239;0.62628169974404646059;0.29207651684946683845;0.15602809743072285076;-0.55230946486164600451;-0.43518785048899133461;0.5061764377119916114;0.78492235827334699838;-0.92394939827905153695;1.2896346128650844065;0.58437776180174416663;1.2351911618250459579;1.3439303751989906122;-1.1388201360806855522;-1.0546805813045585509;1.4097969372174670166;-1.2661900524835900672;1.2083948323196664898;1.4585889823405921994;2.2875039325394537215;-1.1062739280058886404;-1.3920665108985552649;-1.8216851708729921988];
LW2_1 = [-0.02388456524677771281 -0.35134768595418391923 -0.053236303970548709552 0.092827052837653953321 -0.32619199153905220623 0.58181324798438749379 -0.42248837122203064531 0.14240070331341711518 0.21193951693809748305 0.248453446249023574 0.3240289979617995697 -0.05460002030225792613 -0.24942622208045001075 -0.19107100589022363302 -0.36132368599251896146 -0.071604401772556489081 0.21438414208884049028 -0.13417197092399088532 0.072960491390400908363 0.025385332821684331722 0.32200139297280711004 0.11536173971689260564 0.10490457726731025612 -0.36275464228705173175 -0.0038306752567474266699 -0.17720029369648659934 -0.012373070353586649445 -0.18015298074281510532 -0.3448177043113819229 0.16652547007069126717 -0.20102547845456891773 0.30937049213699796546 0.29156781791253133518 0.42462358618451750969 0.20667885543550751359 0.2099349112034842868 0.21451303442200203575 0.014856415575002161755 -0.84959246442381319842 0.22166117910151936221 0.10932778862439819501 -0.14106511293231671633 -0.42534313278594876317 0.24449259035280485053 0.40489968742839138605 -0.026787301356741302638 0.089840076099285487432 -0.18034224377138391437 0.16131465787377541332 0.46307580591534486247;-0.19611096008514480871 -0.091403485962105401885 -0.38471010947515865697 0.10643690562085837692 0.27579016711279480401 -0.40837876611266965554 0.13286989865609974415 -0.13717298761991073008 -0.15730261059444120009 -0.13904052960506171899 -0.010831829358531417512 -0.25975549470477338199 0.18036278685836035218 -0.010435114351684690592 0.22160979424995636 -0.27501794481317803909 -0.38379909028373504487 0.13810043665486232412 -0.10161518960323319416 -0.18836922238570780186 0.14019625087185236256 -0.29471827258138416639 -0.17361849753013702813 -0.32660223863331039329 0.17405420981990821216 0.071869582058522576973 0.44223858034151125596 -0.32351273573880101608 0.22573867457786875312 0.055274849822936907018 0.13687916538991498627 0.04144880911679692248 0.24199679651965727567 0.24568290398512207529 -0.058678822373401523516 0.32347575462171979099 -0.087346913405379922324 0.059796390399385251913 0.24511101339217977735 0.22892370832261615954 0.048062574142587403958 -0.11831981025638160787 -0.32253989730356591448 -0.1721873506901288875 -0.026397744344685902113 -0.073036695497360568097 -0.32191424451224698311 0.24406957525414252341 -0.19318542734960986174 -0.068074314874555535981;-0.041323680217260225223 -0.67772543471795998471 0.23663402082690954131 -0.094692504371579333533 -0.12730056185574956107 -0.51063592346700170665 0.40302884306837560846 -0.024216558584397161746 0.17332891823201185266 0.15503281683826228288 0.14534783719097080223 0.35745308582978801981 0.050328853142158895551 0.54164610797545986731 -0.36489936157146007911 -0.1907643234276952815 -0.027608484171234140558 0.72421445088049019034 -0.12405919406045479159 -0.35438473695616234949 0.011992063383595211873 0.080639261779307913613 0.065935550260333611328 -0.41004965327018561005 -0.29265005009754113674 0.12970671688588056303 0.37734582608016686844 0.13966211541946235708 -0.64848673274206991568 -0.32796889199785445035 0.011747146570733500368 0.024883511997682690453 -0.17572481697658373645 -0.8434216853007647785 -0.31773463234392151922 0.53243021988186334248 0.64482629316059569824 0.21373063659893642985 -0.19191870897187496281 0.14407897087887408527 0.27684036231929981531 -0.43883174843427774636 -0.099438521254873235566 0.3120832792404580891 0.12291252415720069213 0.37312390648272392157 0.20215454442582617145 0.082466297718762404667 0.049426831608090950054 0.2386842302251759862;-0.34739432048924773211 0.013398877331355495135 -0.19382610237795136476 0.074766948864455895496 0.35878180612963345153 -0.12017101357227780167 0.11308784049731242238 0.32382121046538142606 -0.20518020971786285478 0.19029801531441031814 0.21754436261913595585 -0.10543671798258630323 -0.14968981070544662426 -0.045893802095310014255 0.10190306025183291927 -0.23060182643142584924 -0.20496155515950456594 -0.29477182058812173571 -0.22999060167553195266 -0.33286746291454299973 0.21771302848640478045 0.17701145529531958633 -0.11392579193041904584 0.072319327804823876904 0.23532517339382660881 -0.30659695386781976589 -0.031879864640568481016 -0.20797418988990015731 -0.31215165848640258339 -0.096259909849616021038 0.3092429372278925892 0.19325942591869274545 -0.11700390316077473318 0.33073582878051827061 0.060846378297385983469 -0.24098707468900520956 0.13774919052646267259 -0.05003383691798992533 -0.11929909031583386947 -0.35917662096785119008 -0.37528684355450414589 -0.015606943024361876957 -0.24709933400293340733 -0.24468308452820752841 -0.32068064023091125136 0.060410540952698300876 -0.26833738766271464371 0.048500105926572618931 -0.35093396214739835948 -0.12811341164627546019;0.69759601431689044482 0.038338798757728165256 0.55050327599850668037 -0.28657043029379253296 0.93575246616343565886 0.23249108648153182788 -0.50577685072060041271 0.096949395713259181595 -0.062757352891254364335 0.5083677339583048127 1.3531983240824050352 -0.42684378694757307837 0.63207212354303243806 0.47683742339909218622 0.94970098254000567817 -0.037923076502738663207 -0.85155568108834522878 0.19737154091878991724 -0.034851865270397672236 0.054565977623576504552 -0.24415172104105162254 0.19328050346201844367 0.69074545238455364871 0.38191897846709649267 -0.14745277661422212523 -0.34964814072809491385 -0.62794083598899930188 -0.26277608583274070231 -0.087881888833264670824 -0.22033075384179517942 -0.38443230673525052854 -0.1136246920066863314 0.49377229307674141978 0.63581231515766001294 1.4896225792388990694 0.0066938345374162981638 -0.14832148383914345313 0.23264530082134335376 0.67857475012677037629 0.53951052501706220355 -0.85766864726655367424 0.068186768839254119356 0.62802450880506999198 0.42890906400669859266 0.79038961652630523869 0.027953534226633998394 -0.43817910226904482895 -0.71299956481882087456 0.66815229162810763075 -0.85946677483255518037;0.68150309229807171096 0.54231797829864258897 0.5736977383417445342 -0.43138757541995220723 0.31296260278689058687 0.066082461640727591101 0.14468316968190908511 0.11875581002237659001 0.15416874306954481133 0.20101888598741443626 -0.49659247431808356543 -0.24857498002065372966 -0.35893910671266904266 -0.31955689652841029469 -0.72796686596972093319 0.65563606033079047108 -0.11998437381872627261 0.12344782212723648396 -0.061945561026180935571 -0.29911156328422322526 -0.50204955293852537856 -0.04506109950104048717 0.20323454059393009086 0.87167159338650845868 -0.57901341349793511437 -0.15059601453163659612 0.45728435479631124316 -0.19876591664459969389 -1.0041602871649588646 0.12402720162881079868 -0.5241513509919322189 0.65433317226960785451 0.42306863237721537008 -0.2943573747435454524 0.2388360775025702154 -0.68121209877027555368 -0.19719912559952362807 -0.06130099917221602801 -0.36500731486169524231 -0.081740552303749172691 -0.31006048988027146152 0.25947479682898999531 0.0098988444738022495634 -0.022671454711126547144 -0.13034157333674201151 0.23607409923699318455 0.13142812568886519387 -0.17719153785610441965 -0.17637470162033061505 -0.047738460258498878475;0.21844503222371597362 -0.10723579181924325354 -0.075071219938374275649 0.04152117387863768494 0.03133368357492720413 0.01169719729220400177 0.19974616488405921855 -0.0031293409344803884559 0.039007386030530485921 -0.13793394011707874047 -0.27760566285637228168 0.03518685998224969913 0.092169783461051743578 0.048111118558210749785 -0.27223277820870128707 0.033850925922094515785 0.030626166369433872189 0.025004715195285010659 0.036992298750905525107 0.023894042641086958578 -0.0077839765477683625292 -0.023906245338438769643 -0.06518334076668534649 -0.094274741477150064695 -0.036053900607762388864 -0.0026565464504989780466 -0.17157204916090826319 0.055554526650180353908 0.18780085267369608926 -0.13564950091488417461 -0.066279755608071463935 -0.030887444007988030387 0.11656188011869027255 -0.1467296269464816727 -0.070544752353055115157 -0.29251136644747227633 0.0006391884130910374575 0.10699753800943269388 -0.14113155277841796242 0.029544242410671966992 -0.1059187137235791526 -0.032376264523738221279 0.33531768210562967747 -0.10663568995345236445 0.24217897964211484996 -0.038242011381376540824 -0.17529307812102759567 0.0099052791911978573663 0.062765453152014358262 -0.013586762699822450481;0.42013612499302593895 0.69501633109850846637 0.47745198734486321568 -0.0624687767116106768 0.39697161042311152057 -0.045278960562491317454 0.1205479880244226254 -0.52965093483234260141 -0.17950202910981166715 -0.11512278859015516452 0.12240021669822237493 0.088925013152937923411 0.15683662922681423924 -0.095759347884509793403 0.59823727941042881273 0.043085582875480456233 0.32765872488779884675 0.41645150223789445532 -0.27004288316316354956 -0.14616207237176437328 -0.86789578726037441836 -0.22631247663158193806 0.30352568712758487557 0.14812139978570396104 0.12550352249320187448 0.18391486103020482368 0.4500156724388146845 -0.19229686137927071155 -0.23652006410601417175 0.30131573214860823962 0.33426209287272662385 -0.27384214344326879287 1.3173241065461072097 0.42057020597276834062 -0.48702635956916512372 -0.024225930654345369242 0.13132968949582762841 0.26936564052280237425 0.46827630804865444381 0.18128687404953675033 -0.25101269840659107269 0.33198818863946999436 -0.013645045139282337143 0.44382529951874577501 -0.1398888355369691805 -0.03348608112081273569 -0.26948564378337896974 -0.069285087310140769379 0.73295198092354940655 -0.37482645139312825711;0.21907450420318130835 -0.4122172275180297496 0.23034440557315413733 -0.11971110959408695629 -0.45016109503734652586 0.56078279816041465278 0.86502697915070581036 0.48141352223418792944 -0.057584821846459098571 0.73114948274389912619 0.66696335083439317604 -0.45210232415900597491 -0.05050036841279350458 -1.7251640979893776429 -0.1393847356121064307 0.043528596645076106375 0.41952209155738084956 -0.0002041419499857455007 0.070296338853472167818 -0.18057206291790953157 -0.16212509614085998666 -0.11676133720354212042 0.38859528079275135193 -0.22790830311301021882 -0.080016046418980468768 -0.37485868225453355951 -0.79941202959246671078 0.20754151153809000108 0.050477434475105366352 0.85309729396245603805 -0.14405842919427985782 0.71694226211764222612 -0.50374062681573772426 0.92111337459214370771 -0.52483482157036276394 -0.35775577191758967111 0.19227512122749337853 0.081513031676950897797 0.14162495083797541073 -0.21344778810249562251 0.35657501715485923066 0.090659920403430252489 -0.61445873325357780459 -0.67671278565545844863 0.62471457701884614 0.098076820234634723428 0.19091331432286129388 -0.081394487970814666244 -0.26644214285470868564 -0.1386187472082953398;0.13352315678639267715 0.052242824265041259979 -0.028440661869112128513 0.50730473664900788133 0.27816618758006445011 0.20474165280141418122 0.26615627209375597451 -0.0099576350818984873947 0.045171022589492314248 -0.11988239890325197434 -0.092939631086519813863 -0.091986473820902373011 -0.073396988461163659156 -0.29136377936765917029 0.28104502238340278719 0.13185770268742541544 -0.35674676725538584376 0.11492444899939625869 0.32664131505937854527 -0.054323838665699147876 -0.057852509731254456171 0.24185879786074021558 0.023609610541800499922 -0.45433880146696559166 0.30326344021985229826 -0.3719277365111655631 0.074314876546741084895 0.0052362803199383538624 0.14488384275873214535 0.20737448868200247798 -0.54736752141852274001 0.67982929942832337478 0.32719331946178276116 0.78058371635521583976 0.08403354255394586414 -0.05921641709976408624 0.31293478453123318994 0.27078338065286600145 0.046197262207089674624 -0.33356498235990145185 -0.099889792591379547582 0.3998764474730883145 -0.021739371336076854235 -0.55798679855593469323 0.51072928319701127453 0.039471462376466932842 0.31846007822846600366 -0.21379954326013400623 0.27324851481184886381 -0.82100315447070537633;-0.49740846852396902733 -0.23995838484297232762 -0.02560982586155505572 0.1445892336613289475 0.36034256268870701323 0.14516958905939580937 0.443747320565617831 -0.71518605634296272822 -0.069627344506889954356 0.34623431759696826626 -0.66259354484510213368 -0.27600717041978789501 -0.086559232774750624606 0.51444358272642054519 -0.29797504890389486798 0.54177690059343286411 0.11418780775445541709 0.51359087269875247639 0.20338141377982621449 0.094316427346092787665 0.063819833945288062527 0.2054003547416466402 -0.037629105374419880015 -0.029145625564560653092 0.061683766317172615545 -0.41089146205950222157 -0.63128850660913005122 0.080117538264093138278 0.22467399648249852806 -0.46674335802838073928 -0.57960322354824533875 0.20524380461339961079 -0.096283088476977654602 -0.16242195776785878225 0.22447777354327583255 0.0067827194295015389228 0.24255403195498803637 0.27936464307034725163 0.60256341371772570437 -0.0061168516892112813343 -0.12119203413802705216 -0.31657107994291577846 -0.32861358279183650044 -0.3241038556892097966 0.56846541174322362533 0.059657626405111664758 0.02367595885181988935 -0.094892983253595103443 -0.29284310465583912597 -0.15416199160957019809;-0.22083417151201667483 -0.20682267675888493796 -0.11359756770484669142 0.3014883561324111505 -0.2957593113445358135 -0.23554207636964813455 -0.22507613810023638368 -0.10222321323254245085 0.35297242986417592947 0.096703034256344494457 0.084598191858396218357 -0.22895397246425949755 0.21304916919675986886 0.31135071823988491602 -0.51561682658792951095 -0.68195183959788274741 -0.15618558641569960099 -0.031391010091236598578 -0.077796495906747351046 0.44970823592096104138 0.10680471182642907457 -0.18651998892860871537 -0.30939262310989484872 0.17074416732426778154 -0.34251463036807006102 -0.013479574533907863476 -0.23658412748620907817 0.07895078884782523454 0.1647710894683988847 0.68612803594111748673 0.2866366080122467741 -0.2035109327193045381 -0.097641551315916078058 -0.15426723608190828774 -0.13874734051641790522 0.0004727850452490241261 -0.26612688176369647675 -0.26489307094947472931 0.72381241248240357766 0.10794217133515673912 -0.0026437743261965994564 0.13007232135869853384 -0.03875705767760321413 -0.37368810387348277979 0.04678503095207515311 -0.17477073756752431466 0.079644152009882562826 0.3895743997956461202 -0.097843048471996735271 0.17894609336361103069;0.36566167498890006504 0.12496521440138431969 0.56719293498709166812 0.32499003724138880722 -0.29681598032534456388 -0.47329817431531889804 0.15945563658787650918 -0.041348995192738005611 0.1344415128319249586 -0.052441044992578463024 -0.34060801333513357481 -0.036964173392298294019 -0.1198764419049403035 0.071235963880640129631 0.22712097781249274142 -0.066448398169548616998 -0.17535598345447855895 -0.35635770316523385226 -0.23148230610346964831 0.1242212331656885882 0.096645927835968453712 0.092617938282630388191 0.14755984890275777865 -0.2019950131146341088 -0.2322865155028891182 0.50187251072893768189 0.21082020336705911689 0.15570976048015086612 0.020413281169400047943 0.024143458100242119746 -0.30020068945233940871 0.33916030538536745542 -0.38631031245187819056 -0.067575348566624365843 0.025023741852943932884 -0.19276843896539389012 -0.47044503985154573211 -0.11665698134754916293 0.23648732941250530382 0.26850219502443006814 0.51816694112351313617 -0.13802767712465993655 0.22164653065396622278 -0.11224008428018991679 0.07336224488687059786 -0.29930874146016678283 -0.013981885718702860566 -0.060640404707599612766 -0.4321884273647190744 0.1200853003824982751;0.25269691813480665843 0.049255678768382625543 -0.26004973021568383862 -0.26980034949381531684 -0.025950277330949945293 0.26477446199831528029 0.23285701801265853983 0.28239843248914153762 0.22140809509702452651 -0.12858393522289629507 0.25233395369677841247 -0.066772526068475238081 0.10619457744893012752 0.57847675045118396309 -0.22285897887566094577 0.1020095298895534186 0.027491914556558427057 0.37476067166043336432 -0.32891602949425918778 -0.31355156531500777417 -0.0069980999992581586697 0.24858524445945368031 -0.16485278927009361372 -0.35324061423958441619 0.053027049675904422421 0.12501069051419783085 -0.31088036562422149967 -0.48530676960539370635 -0.15686892844545946568 0.19814390256466321572 0.31930858420136076781 -0.24338167659154019695 -0.044000619491511086534 0.14725188944655090428 0.26617475949681546066 0.15727207881017443714 0.26298216525170137192 -0.29648690718369630215 -0.036895548137291969693 -0.15154774813954208224 0.17414838421828737758 -0.23414526608072047664 -0.063678800381889402726 -0.0953932440826445599 0.42535160458747106604 0.060847535975904802619 0.38377080449952882812 0.050923910648828368819 0.36342730387152966109 -0.24568562782912808928;-0.24318155762253021446 -0.11797110305182792467 -0.21121878095378315843 0.14049210386748509083 0.26565124357089836549 0.66486250395786916645 0.30721440953272816099 0.57762391069873808558 -0.08691230559555773727 -0.11856704460019219793 -0.35428628153958197089 -0.026758458651765747865 0.13400524946721889541 0.76646024383129995883 -0.47854791862879242359 -0.26022631590099004617 -0.032731859771972529605 0.30816268542620900428 0.12645966103936606695 -0.26956400332919633334 -0.57110835759503186804 0.04986725091300478474 -0.45504337434962516262 0.85348184924098136062 -0.38151925374120260193 0.44294025952783649958 0.25114493436413698468 -0.14960413195128952069 0.22105124078771584695 0.031518001969577151555 -1.0613059715276453865 0.025946818635134948072 0.37998923444990806431 -0.4345046538492634558 0.10915448722288582928 0.1347599410484620619 -0.033039491384845263988 -0.19211934613869316446 -0.17687853930517524748 0.093042698017840486102 -0.18988525115879167915 -0.63060210355709500618 -0.089739381087907715839 -0.33066605852517577668 0.074365600842088666611 -0.47239104153393840502 0.30025773991382198602 0.043112929553039809616 -0.57281128326275765339 0.44501305989061828994;0.572920796481027228 -0.16412023158959776481 -0.016421618345036179121 0.30422272040604181331 0.63850654124984151938 -0.13258001887454154422 -0.88310473534338251866 0.2778225804437128299 -0.25101163070459231452 -0.4809593479399303928 0.24758364047920630724 0.10574254126314250324 0.62812753496232853756 -0.093975455104695529429 0.83891957553960061489 -1.0325638457395960312 0.49094731573839850425 0.58616676164432102158 0.13795247042973063367 0.2894400306274133583 0.54847921749707206907 0.16889024552358747333 -0.22231645624121942895 0.32072248881006554244 -0.19201498193494970224 -0.013610274247709389789 0.083499945060518471207 0.091233808070141697577 -0.68783671420481506953 0.0087233155513068288966 0.041662688649998246004 -0.30595794350904170766 0.79953711569223495648 0.93237238035618608123 -0.043209969963109773339 -0.72847549406548972595 0.43539042024512991658 0.49034278698556760245 -0.8635700035585659462 0.47798247608157784505 -0.20793637191046937529 0.41003621097984027655 0.15245203685863623067 0.13315561825012350861 1.0284017204386537436 0.63713446736791379266 -0.62861721758219268885 -0.1695084064949534397 -0.51505922325990527444 -0.44697726002714466276;0.17369496106117596201 -0.022157709506337996963 0.44851742315012632645 1.0168193992235359246 -0.21224652210423303189 0.60501197219618896295 -0.57184012976688125551 -0.59366557873417846736 0.46471005872179954599 0.034968937843834119183 0.58366335782713396618 0.29784293310377957242 0.65594152530397487055 0.047792648987472083344 -0.55533834201869780589 -0.0020158211124000281929 -0.59378186294385471022 1.4316254856051016109 -0.33478376828772288265 0.098031481903441797243 0.52870160399193821821 -0.023383261316139169333 1.2313687406966156157 -0.40866901941573913204 0.27968798060173338804 0.23844215105892085926 0.58972064032850968207 0.12550215290512911626 0.18777835971277340166 0.26124891832899410637 -0.1672575384568260326 -0.63930545705746877339 0.58482111767835298632 -0.53782831389949103951 0.3135192083428076093 -0.25235363078314754226 -0.18393628124708508165 0.030414870734820850101 0.59877812891004944529 0.097279019954082002197 0.21658772930635949994 0.014595153442018993922 0.21329616304500251256 0.28112138248199081136 -0.10056782763826076221 -0.25913331067932671159 0.16903855464386260965 -0.13372886949701712211 0.18992398701313331633 -0.92806556504752912851;-0.44269246037459675236 -0.23764397670719400457 0.15647543030163615918 -0.052347443719682869301 -0.71275602421239681039 -0.13416748241789627771 0.049545069001483914295 -0.42911748326227056038 -0.037603909550481373625 -0.92683600177921765528 0.0037437459517990373005 0.13080152331086689066 0.23383881930412184214 0.68544987599372719789 0.93566498048652180231 -0.33270625362184841345 0.11568409717980984719 0.80414976420374417732 -0.049801190005987552856 0.012795321173343657262 -0.022015007966097122072 0.30798363401856315713 -0.68017117866472132093 1.3166495856842728163 0.41654868636703490381 -0.17400950500571413238 -0.14726411770715289173 0.50141318483016472651 0.28644996374654047022 0.67929023645905806106 1.0978285380733503462 -0.094136513692147441579 0.50825344855172294167 0.24290996298537695375 -0.35728186786924698293 -0.33899514741249514582 0.76963925986979719873 0.020870978335924845332 -0.47819771392697185686 -0.86709571110976413344 0.26413129158260861828 0.28552713777300042786 -0.68929788689035598193 -0.17382988605760876788 -0.18807886437031726135 1.4487351562238093283 -0.91141832061061212045 0.30583812688494976806 -0.35914988526677837921 0.5722577123732597304;-0.30607990818296715307 0.33489746554650673405 0.38079299504910796292 -0.43765103754244116807 0.20638555046081635824 0.19071804720833290814 0.42727791163579897926 0.14077649923619811601 -0.10356326640281783569 0.24725508722980341081 0.10457809698840268842 0.018314497408822291019 -0.083189825591460320187 0.050586668215070393351 0.31673037092866646036 0.061299118920808484678 1.1521813073077149525 0.2652092232216505252 -0.027895228854707937449 -0.097470998438991707236 -0.17660050263503185297 0.076747369991121749955 0.37383841311509852234 -0.038383736196660973861 0.16362540608854475588 -0.14212256588293809001 0.50763534764435236379 0.13394270810346997624 -0.1288242753913178551 0.96669505971007207989 -0.11642099974406684704 0.35445738853718655736 -0.25656028376827610948 0.53672454829261495579 0.22765575224673456622 -0.29047972439939045985 0.43096537778783672312 -0.18535291136598991413 0.64409358456202525645 -0.34777143079352540456 0.31372633931740095958 0.23581006447695507244 -0.43966640927683819928 -0.027363046410998657226 -0.20713153530226699472 0.12714371854081318869 0.60255731800648115737 -0.75289326784673105131 0.12199855094240923126 -0.4546556443417903437;-0.39811324593540831085 0.21608291868266446545 -0.022110849218559311402 0.33004095918141895805 -0.19596917816504605403 0.40394808402102055922 -0.46763328299954215472 -0.4696804374094972756 0.2770322908097507808 -0.53240883352821255503 -0.39765202596253557132 -0.083725924429749715161 -0.62916544115165873308 -0.4873903662692760097 1.1047992320834176816 0.10155911941087487904 -0.529253466791751781 -0.39024902507422098985 -0.40581696359373065075 -0.19795234406536288407 0.14319124448628758883 -0.48803090969063606108 -0.54015479525542131611 0.94895705289684939565 -0.18533912250734033145 -0.28545774797834411185 0.63711308017224099753 0.058218267607787664575 0.12145455061358080562 -0.32669672720836584467 -0.34022125422254528848 0.49494521435567145895 -0.52868559560086647586 -0.64134627410977407269 0.21262544459435139821 -0.31922806651841945103 1.0417422231619606343 0.17833940961773911416 -0.57202555126033916011 0.018714672008702130934 -0.25055819054793060374 0.49025758726514495622 -0.42694166330335864279 0.14003963154337692454 0.50892550176637141313 -0.077734248046667300813 -0.097197277980601071157 -0.16092458090686589944 -0.17244309214015293708 0.63006613713504167062;-0.70282274431131785963 0.42192321654510533957 -0.15301381602179667252 0.31167096516359504843 0.3132607128202022917 0.084196032416960081557 0.11980733690273369374 0.40712417131301353868 -0.27001036064169969819 -0.45877365368296096904 0.069370823166128567361 -0.48205549665785685232 0.31663516842125100093 -0.012641502916378900487 0.14024991801058769858 -0.27068135075574761839 -0.47243095916590738259 -0.14503833561865064894 0.023907388424122360399 -0.13047092228534190594 -0.32878252448853273471 -0.2714833237567325086 0.33043456142734389802 -0.17632878036993818172 -0.0019184132573602725221 0.16073463693634035265 0.29152166177264643432 0.37951930411163825596 0.087017759556902010698 0.068275941344245069664 -0.36052310167462892077 0.1041414681371174572 -0.33477204332942878118 0.13192932068652662991 0.17829528295182450748 -0.076296242587197443674 0.055828055982447985506 -0.30676571659932316827 0.086959709798376305656 -0.4038720422704789037 0.095929357876846657605 -0.63919815990106443326 0.69657775703853297422 -0.4461618128083668644 -0.069455566809171642717 -0.097263751576889351247 -0.20492765540814189551 -0.26457842212324278464 0.2306647774394597894 -0.11176438648711785329;0.057208456536611863863 0.067976002148653125179 -0.043689380418957285412 -0.14093822946551520792 0.28359421959169900385 -0.1369120065524623564 -0.0022729722533346703554 0.12269108930344022057 -0.030083060759190566325 -0.92811719571676798424 -0.37929247153156603334 0.39889415571310921083 0.019953409443966178133 0.48472452425979345447 -0.30767138274661404163 0.28924853513855680598 -0.026671854506805977442 -0.44214674981177143342 0.037234756841993087162 0.20770920466290532236 -0.58792262845413922889 -0.18885105153460735039 -0.30008468093148282785 0.20138193291548414643 0.28338161969132574791 -0.26585611680968768145 -0.068224103155499427054 -0.032705817883805055057 0.62041532236366614406 -0.35452263048964494097 -0.60491285681628537141 0.35727660215018292034 -1.0840191555832150438 0.49297742077866057997 -0.00064016296174407738995 0.57559795284760195688 0.13684043281893376598 0.25088445087710231629 -0.23526565018929754269 -0.53375792450967329827 -0.16867501399032827636 -0.24605246748126735623 -1.0405910503292405966 -0.27578651923614494468 -0.50323523486025856233 0.55584352879875953413 0.41165498870357913885 0.0063396192074608873415 0.04323672891983947747 0.5509749749367554017;0.091686012054145477057 -0.12797126763254104698 0.40994823209693753707 0.34106818441978753453 -0.27886516342479106267 0.0079623818265261488841 -0.85577438138444861249 -0.55339150028644712442 -0.12424501601663184847 -0.13140493649745768612 0.032551897459075003483 -0.017495787839442489969 0.35275988989179990485 0.43258954411916183957 1.2313671613244767666 0.61746659299192185877 -0.96471105544968693835 0.11099873379645809612 0.13823481981689755838 -0.018596190888364030197 0.029551957381672044889 -0.42153447145522132677 0.23721893264930871137 -0.10132450448684700295 0.24859310133581796753 -0.3676757722216133506 0.064496510252690888998 0.11856565302681268403 -0.032401283085098493697 0.11820832324414783099 -0.36108517382337379509 0.23478747577172104366 -0.84437836956998413296 -0.27315267390538960912 0.27352244975981826469 0.068391828459745659941 0.19570184612176941275 0.23269121640909781745 0.45388795375285823086 -0.21006966354260508956 0.62998744906830561607 0.035701866886564882775 -0.38136170507392774809 0.88880268095300929421 -0.14900104599426475249 -0.37627932302947725285 0.61702578872312019431 0.25983146368846354868 0.28137667231528007417 0.49542788700909218269;-0.15246339920695589631 0.28964390690027352893 0.10127759665618164819 0.033593749237077565051 0.62983092781235738844 -0.37387312538541672691 -0.17161593568690775014 -0.11389074862680359512 0.25947504161732942718 -0.18330707312184840729 0.12235093607087516032 -0.15921890361005267001 0.031898625237911829022 0.48625087912557923842 0.76163369587683860118 -0.5051972551938119782 -0.25777840147757946632 -0.11090619020299402608 -0.20362777098200202097 0.0028876416161665173672 0.21511151480067011721 0.049646888643377087846 -0.050897391346744785823 0.40695774342938806356 0.20594731057236578819 0.38928421117420730635 0.11814394798620742044 0.16535636603985007231 0.24166097957513163474 -0.090874983629125855034 0.30402336486572745233 0.21521954645943733309 -0.074203253888962331097 0.053194511214075576588 -0.11573862301946888365 -0.22599575150173767391 0.076222425694919229699 0.14977465810230983223 0.47212337634981371703 0.34864811846841847753 0.12631156673715357441 0.60483923741020562126 -0.26274741020358732824 0.12498609928227233379 0.46819746876847323502 -0.15607358684115668623 0.065212545518078840479 0.060101121556219640196 -0.12290450221964213662 0.072299662386960963922;-0.11876008272298246848 -1.0196665878995931909 -0.5063732922026711325 0.37983559156552160196 0.5190269553596668084 -0.22334761606709957471 0.59776047420439604174 -0.2861300822622873663 0.58778518601888585238 -0.70120247273577307467 -0.25491456182106136952 0.91486231802298034754 -1.0408851552684430519 0.19485750924250225258 -1.1830151071600703006 -0.51345532758903544845 0.39517576666351617032 -0.03467117901225302834 0.62194082454787691372 0.56068549434093273298 0.31427648033021265972 0.073010758894378482986 0.0042339665289517925545 -0.066681648423664849346 -0.14025984465000082557 0.0090525187085734645093 0.25607975587569953291 0.86328405194859647587 0.47055450963821904287 -0.51542079816298824735 0.48514307865056638391 -0.38166116670246180709 0.21584473176209700851 -0.13652151160988335032 0.23545208062139630356 -0.62148892049311166286 0.29561808373776160552 0.37997672507785335005 0.22746575021318893306 0.26862978949559118691 -0.14304707449135273256 0.47202857253060542808 0.71175083408683958996 -0.4753161490201286421 -0.31406308006010080769 0.40422097708093140955 -0.36350251495081337128 0.29114933552828314856 -0.41156919019828347439 0.00061803126738857526272;0.052644293893358118375 0.53926139435676245792 0.2709046017359122982 -0.098929511985717533129 -0.088183485682137963124 -0.061949892760350205867 0.33513567472102528955 -0.099528216942904618181 -0.2335387161257390376 0.066644871748084061336 0.3866508978252123363 -0.27732751897516239037 -0.16517414674242406059 -0.19333949898316446503 -0.4068756230928333717 -0.27417704552217314617 0.16321918258231649101 0.11991661822200179455 0.20631740910458853944 0.098491005390731009572 0.29283630307147545668 0.55106858806722858191 -0.32079367214098475358 0.10365103773089924533 -0.014457328194650866798 0.29161628401753425521 -0.31325227985430359468 0.18430118858714092389 -0.34553714339262980859 0.059873626529959741993 -0.011845307789052865813 0.18237287807851493282 0.23724407193091034962 -0.093796604758771912058 -0.39731480707280053544 -0.17982508881194295136 -0.38057960422609438123 0.12853101721078138975 -0.40607325666633414807 0.20471800308878435048 -0.12309069910371549239 -0.43127242706254181881 0.25774852221519189976 -0.23856653491893828334 -0.0049651899357682138456 -0.28140665746679299763 -0.049892663332571481061 -0.40569587596327794099 -0.33075970155359624147 -0.084925110940034687079;-0.29443547812752934867 -0.62549494077604561593 -0.058040367605660829475 0.51544495747486596127 -0.32551813275350505172 -0.35856765624083758448 0.254947323629173217 -0.46867515575388268845 0.08687739702847739609 -0.98016208050758590886 0.56091633788824890594 -0.12918991091702269891 0.011267771422781154914 -0.62079675519374144521 -0.48960600649483615454 0.35275617951634330449 0.22965043474871207896 0.040660967499128522484 -0.21609900169974075035 -0.12908961667030721676 0.14219486823067087333 -0.21263915927501655934 -1.5912477475307906793 -0.075830706355850513445 0.19376429404864681239 0.21088462638245214498 -0.27299593133875510453 0.086209688770794004609 0.30091384809278115542 1.1709325226768463324 0.01595088232834377534 0.12536960007372896508 0.87807625099034480876 -1.1195030872171518599 -0.71999898026287645347 0.13481199388967365915 -0.12161162778475649582 0.10914218806106876225 -0.45510672344891273111 -0.27706067418608099073 -0.42156089439237476313 -0.30366163407324187062 0.037828186249743100955 -0.59722577518846520217 -0.035750382029457267175 0.271128636012651969 -0.21693860837412556886 0.61164186518939478443 -0.32362031393478762897 0.24275370969256684917;-0.12021812955326968697 -0.41727046248832372344 0.73130895586838062794 -0.13216063639925490492 -0.71131056095142264351 0.44696760645184008265 -0.63625217917626053499 0.0061586449179479784907 0.31184172308138846663 0.90414325542489981657 0.028294315177879291595 -0.77962250588422832287 0.32759382086620753016 -0.012026743405305333895 0.57151450801594338991 0.42410533757272261823 0.47139479070651280068 -0.56345300000132181317 -0.13349096033331003808 0.12193758855171049627 0.26482173119954482976 0.012631638266187735636 0.24025240017515078761 0.27822640024685241222 -0.086134483355069152433 0.19447621015904112407 -0.22837770840936122418 0.078236512931148194383 -0.38999002706164648258 0.11621303877171450247 -0.072633285894451601883 0.22160621291886453688 0.28939130499717041767 0.38434502652631885589 0.20402947872166488086 -0.24581797698612731229 0.2502424069461390288 -0.21110341217094250044 -0.42259901978032349268 0.40709631164849696683 0.31000798530067219527 -0.38014087593415640809 -0.04310838473846497626 0.68682636603731506142 0.033703258938567709491 -0.32102594693998415254 0.46522413754536295905 0.18679295152132519009 -0.032869493203966947126 0.16096556169969666872;-0.26009761394049685235 0.055677916164470230009 -0.28562332499343712211 -0.9841954351640860299 -0.093508301445357516757 0.16242794441094787761 0.072768122245315619567 0.50568173467506316587 -0.66238299095140340533 0.35513133020791687322 0.54423584724891294062 -0.43097569079100023215 0.27287983074585514531 0.45191976281454737663 0.52652208887051688002 -0.17732069024340979535 0.060733817038009403622 -0.54235407189487083723 0.63523826837028152248 -0.2505755215489045562 -0.36246239844345390368 0.21963679120732446104 0.43240942684996508394 -0.15856253767033606783 -0.0015656268741159858407 -0.26708370959988508853 -0.15225092097406731084 -0.48268372039738743906 -0.018580713485458508899 0.99054814103286081828 0.15534081303863153667 0.095116153293046193373 0.6689552585722107203 0.28044294225205568249 -0.24791000733424159441 0.4928658035296974993 0.28687170032172104595 -0.21876689433380316907 0.1840109659457450364 -0.098382304456754332556 0.13056908873254613468 -0.56384739951767592903 -0.056558224592589155522 0.20879390161823521699 0.06902593650112844037 0.50959935488233965017 0.0043588850743329710449 -0.1814234144445949215 -0.078488492195261855278 0.13170592301134950719;0.097835613696739223699 -0.01520841232467462327 -0.28928237576161319744 0.29249817064562633195 0.085470096784123011924 -0.35993165505393814874 -0.16843522621204151668 -0.0581797034691520637 0.25131002036600041949 -0.11971531832131933337 0.014688753537066161214 0.036596750502845054598 -0.374964804759446102 -0.13155984871561507421 0.1320281499698053862 0.14236436868449112159 -0.32491742118899724634 0.36672222978734336785 0.052457773569210316977 -0.27933863600352765166 -0.37598450147087325579 0.38987190976627894567 -0.18587343734248720772 0.10538837393330013903 0.013030388553729801981 -0.13195265386660057216 -0.34362084490887945254 0.26296392328128859184 0.26872594332143734386 -0.036425191345687162048 -0.19937487019452931891 -0.1083585708905458328 0.13679795051197679578 0.37187103620018163719 0.19808158950197840564 0.33009290140028518801 -0.22037890393220616048 -0.12406162159448967663 0.013545467893121172775 -0.35352438932596946808 -0.14525711144090897031 0.13993505673769474074 -0.097416111931876561703 -0.31730576949293626265 -0.15053987498304957637 -0.25113277862985228239 0.054249170376227458246 -0.054552474958131563776 -0.36298074538382418819 -0.097877959980434373066;-0.31701941837328923013 -0.14223128270770593606 -0.148809387154499706 -0.27488012542242540315 0.029495199739376719295 0.21494219721952095847 0.16737487322102967413 -0.031295707333690019059 0.16084095445069998553 0.12241825025474774302 0.053105779090242784257 -0.11191528724924997007 0.29732246890394631311 -0.24538657690788293064 0.12408689532260631927 -0.344086562550840247 -0.066281126241497373419 0.19759762971852598556 0.15060784439337659979 -0.14349284871536402419 0.12340570883475614206 -0.20985591965468183839 -0.42771080146944423506 -0.041961684596211502873 0.13910073682088100466 -0.12308616409807952852 -0.10031267573392751991 -0.031988908992646052087 -0.081148861411640696439 0.75290424445561987543 0.18824160428493480479 -0.077659312606513541954 -0.6904523970177536274 0.0029271921415151072599 -0.28072976456322956684 0.21457664570696324824 0.084677202002805582182 0.14306299472741645928 -0.20512172676114626135 -0.60791408492471643576 0.008701109583273240744 -0.00069030708840950327256 -0.38331891181102445421 -0.26734759265009216955 -0.22253836817485869726 0.27353651518432653411 0.64488858987156638669 -0.28874399090814306668 0.082814777446447565556 0.011238581131618463615;0.0028468777092026669069 0.47869744496247712551 0.54367382759587823404 0.67339070036107606665 -0.25072942947880560993 0.92847505669962360209 -0.51635863332610543175 -0.57037679218678116744 -0.010740574312481650926 -0.060109472803932022245 -0.27959635468840826622 0.43263096224925012834 -0.21837632333934672846 0.20288608119767226334 1.1968201709227204166 0.52452455840551537314 -0.029863908772863805713 0.39282798480482833403 -0.14848245586297748044 0.19033275191987428232 0.0087148889763020483817 -0.1461269732539740851 -0.25546221027749649313 0.15094911265906757469 0.12711894278590302187 0.063368848598325602794 0.41380462559611147499 0.018452247928253014131 0.25087471247836573562 -0.35408032635499908647 0.16309862513165557241 0.58182937843898252517 -0.3055498363577874299 0.97735763382809826005 0.12975251470625817629 -0.073508272944271438321 0.1588450763910492225 -0.23092106073433849023 -0.024246838359002771679 -0.14104835050355257753 0.43182645857503137998 0.17033772141217445872 -0.016297881470814793575 0.41750701712073567951 0.48753811292499676933 -0.17947663043224210133 -0.21415670970496269998 -0.37988550254941383377 0.11601152725649396813 0.07729087191617751984;0.081198904358987591956 0.029748200074559846828 0.29635238973785971162 0.36042183129074290004 -0.014768317100575630713 0.11616655718602496294 0.45923310912981385457 0.13070316894930233964 -0.16352206494237497836 -0.72242947208470520426 0.28237214944448024712 -0.56036393753666979833 -0.11023753071970046613 0.89533840411174481222 -0.23772631745963754279 0.198015154667826071 -0.4189260381507293185 0.24706835198599266801 0.63686526621669914405 0.028607424600211747712 0.11907324457287542241 0.41781737343626507153 -0.31147693737471571218 0.55692982935815016354 -0.51012076675809348014 -0.071421674103878549089 0.14047237128948480978 -0.22676459379938268546 0.81552577781585544603 -0.56566818648135230863 -0.18351922084072236352 0.23033681038497080817 -0.50012737178478738898 -0.32473276494922326263 -0.16392750477466966341 0.88697879856783268249 -0.090713649937938192758 -0.25659237214901975399 -0.43345184887226717585 0.70040649293183743218 -0.81853804791054407541 -0.13542176715000603382 -0.31562196086039440157 0.064448335819734872687 -0.72962923665498413683 0.30927672119154137054 -0.16866493269289745127 0.84482514998792879179 -0.1168204905484511863 0.26656967663933800461;0.39085804052423261945 -0.42533031174140578656 -0.14540130264843939556 -0.19491380371794803095 -0.090474865893467940059 -0.029541810018526640236 -0.0065638395130928686716 0.29414335359078808141 0.2330765687868258107 0.17366404536228358113 -0.036554478836288602228 -0.24823262902100867722 -0.38939479947448046859 -0.20304770910775787884 -0.075398430908644439863 0.049047705248454580296 -0.37969819180957498084 -0.099513132138694115891 0.082237885031734986319 0.00069330027933132325549 0.13922895439670834872 0.18973061021849343954 -0.3742069526290526249 -0.097418827899077811705 -0.33337903175032496117 0.013221275629528520673 -0.095396795187062580212 -0.15769063185796286519 0.35892130387797854807 -0.048776542807973881366 -0.16883115230301926069 0.03829255753801574097 0.19682624220029953932 0.15465529708715863855 -0.11761815160467940788 0.20907128761459004007 -0.17639033821561811433 0.21106209522935542866 0.25123610697917758694 -0.19323810505184021991 -0.59754889927120269366 0.0084639229062358940781 0.31052206463323978047 -0.31714542175229432086 0.13753072713545402839 -0.091901963276786943768 -0.0093699686138061042545 -0.33985156362946011832 0.004229948004158008007 -0.14644088805200272674;0.069362367125368654119 0.58937478492187200807 0.3478237470193240588 -0.32376005794130091608 0.10828923636191971347 -0.11333988941369971259 -0.20682292112939973383 -0.11903233152787137672 0.1719776417082039266 -0.38008776850952469273 0.63820922245857658606 0.47683063677060349983 -0.42310123859952747383 -0.050559218474328940229 -1.344976839164834681 0.13420740643854675578 0.97024053834931811569 -0.14995204641870304996 -0.43031732342403500313 0.23531989325952237802 -0.26017437315145658383 0.19768883496670563993 0.56517173323657665662 0.46453195843497269157 0.049451735646379509082 0.19546671530592360511 0.8408889264681397302 0.1053368029218687274 0.23009002649873164237 -0.72439194417746066712 -0.082541945708165670448 0.95849273979138049917 1.1982967713864476345 -0.9213978617305506047 0.15794105650526901741 -0.92940004953990007497 0.43931963583783423255 -0.28524918619952183141 0.85028077642656174628 0.54505674017860883396 -0.46774028391287458817 -0.65857583730717750292 0.029009818366484828311 0.054360767647058216845 0.69084552325730608224 -0.18879892428157882267 -0.33683120322146764547 0.13154102287138857985 -0.068705571069912915738 0.040245504900608616849;0.27167082972429812404 -0.52352314150215417676 0.15565170202450631654 0.42678473069297506726 -0.074792579942750195277 0.51836185210125007572 -0.43829890697825546475 0.56549722360645016117 -0.24222856385664484624 0.018921835500935298147 0.34386795337627146241 -0.040765888185803275667 0.060400912437641347819 -1.0176538652312738797 0.13289463013591190643 0.15324796726464010033 -0.30487429658541681521 0.076699175836645122617 -0.1488215115515610365 0.24069029694607407821 0.30394467231970850873 -0.22189356893543105143 -0.5433148112694392573 0.16394135395521786114 -0.21545313748608227455 -0.08373728606407293551 0.26739855845366289344 -0.11934586333151200876 0.75343861958536206824 -0.59536268571131512051 0.099530127148560895711 -0.13203578554450590143 -0.20356789068827710332 0.065496015109495597795 0.062241249270434138852 0.13883731773539328969 -0.49849798787139465439 0.31735337000812380293 -0.057064836447097130878 -0.13676069979164520718 0.11399811548204034917 0.14869636986116843702 0.20791812425727812519 -0.21179012058432006294 -0.12869983303800744401 0.011569407692595479534 0.65564249258671047915 -0.6892430527831754361 0.14351748477771561485 -0.064867074195569182637;0.10044780805219837017 -0.65259563041339552214 -0.41374006816762820549 -0.36841672558626731293 0.81917207254918833481 0.35941172611444682783 0.32012933182772729257 0.092312850013633804269 -0.076487485775443897484 -0.024268188410879746458 -0.024508439830651710528 -0.25645805094962476067 -0.25604401596308706823 0.59610702289730665981 0.039328370579395893758 -0.52961355052604819349 -0.17543048338614952719 -0.37403855795483831326 -0.0077294035262484434012 -0.54420437779306340964 0.31399798965925879157 -0.5567385124160616483 -0.18051904416705122358 0.54032621862186858142 0.01553570726450299172 -0.35630674979943721681 0.12167628896095215862 0.18590746147269326949 -0.25286530366022907934 0.0040561700456536843931 -0.15925236042740026354 -0.67027004831892011971 -0.25928991261062223073 -0.11785852395271055604 -0.17216409291049164509 0.37072620586182541969 0.53038604474903239261 0.49348314988584152108 -0.65940746054029208967 -0.56626866691628108264 -0.44250171253996350984 -0.9159816799177669111 -0.46567207066444721297 0.044286323667113214331 0.90695490520746513408 1.0753134053784356716 -0.13172765388126550512 -0.075279497013161875141 -0.45725205835592519499 0.76587071609046097898;-0.086298650484608302458 -0.31438410326899751679 0.18419588106320686216 -0.58347196496591580139 -0.24502478418923004377 -0.562023623506169967 0.46533826128572991498 0.62068638706481693568 0.47812209148583290075 0.20578802026107495537 -0.25456164272489401057 0.41821945526551690397 0.37520635142999042566 0.01992531184856036891 0.50693091135904555511 -0.35713060537697011165 -0.057974202263652678535 0.55606341332419684242 0.08103246005335344726 -0.060561215713305263653 0.066662205203302432599 0.27127791094494024815 -0.7595747291336628626 -0.27165424829185608191 -0.23694098554597206596 0.097515119725491025693 0.18865703782146842071 0.1249888466743967752 -0.33003034717389723163 0.30637858522207905843 -0.22404425148113471522 -0.43405350411060955595 -0.41963911875472659219 1.1026800853772928956 -0.13621967221924347058 -0.16131311920632049328 0.041402009044034300544 0.10988969801897088829 -0.17436571271259318494 -0.032920839131087703544 -0.5315781917971312831 -0.36391527211692148436 -0.17336179535548926212 0.0088208533856753233021 -0.23916983850790313193 0.36757816164793594149 0.16224568159322455552 -0.099342678770694678447 -0.052899733345473515245 0.38864879634932353314;-0.3433672128609130958 -0.26397152707136711802 0.0051309256954622127142 0.013648185499691769043 0.1097092332996536107 -0.17314428153838845592 0.23780864111658908677 0.28727483810291470911 0.17446551701511678334 0.19234587870454075698 -0.5154085645966607343 -0.051192213061348301739 0.56903078990833844131 0.80081080010979333039 0.68431722412239293085 0.2818840967740809389 -0.15722614548148464153 0.14667499284069582255 0.24342242706079689207 0.33538962932354271507 0.50578259838348160748 0.088764431611169994363 -0.42617751144645932282 -0.63931582473100434516 0.086649625065982602279 0.24984612179673013066 -0.34717863529969844594 -0.089935950148523055581 0.93731837799080042206 0.15097595559217380501 -0.52927624185135824231 -0.81492140799579459998 0.10112843264265884702 -0.083350763564412955198 -0.41434439195551558965 -0.20623872828120995426 0.65723024348869640843 0.21158431491207757569 -0.35868868254212221691 -0.36077309071310192934 -0.87441437599663462965 -0.21202004810417879321 0.2521718623319828545 -0.62313450747996446122 0.39564829641983562114 0.29844049357304747172 -0.46136616635346289206 -0.03247325198943178115 -0.12337162951268711153 0.57275272166860446976;-0.11109409736533827628 0.22831943450373543003 -0.66162704307453390484 0.12980181275855026679 -0.2162198703738333061 0.028100815650666629425 -0.18224882579495813029 -0.42219260017463444701 0.72793572691312025125 -0.66000663329308106864 0.048762859323730256556 -0.12897199563168668113 0.44652899113005350973 -0.26718285544886305471 0.094983376039552674941 0.27354064325090937659 -0.31803732953696806085 -0.92592488833121955327 -0.46010323410206194206 0.020612865718320102365 0.35785627657251789513 -0.25998803130424236185 -0.44308444996322526865 0.36066849315599464054 0.28511837493547320665 0.28956085464921077488 -0.60833989007720057351 0.34256363711596254928 0.19503139528573221195 -0.25249832329302951406 -0.14047902804356954265 -0.21361759083829146011 0.10734837189092577558 -0.27270145192798905809 -0.62005441366202429521 0.20637615874067913313 -0.15493294385938088942 0.38663212182942119366 0.15552827353347212225 0.13755456543204278019 -0.44085044325987082781 0.08278409683503806793 0.63282901720774187293 -0.31227950905851786789 -0.25568778787972862299 0.13288455291210243825 0.3583660174690185829 0.23099396662381546652 -0.39025478723038958817 0.18145069376285541396;0.41092638933993991257 0.23111354135603903726 0.23547160848743645123 0.15897000753411244522 0.19807669427188989708 0.14569643147960087415 -0.47122044979035987433 0.4418753666802932023 -0.14166050640992017273 -0.27404107705345276402 0.62574800792625917545 0.13031764052436609069 0.53451757446812964147 -0.9907109777028556552 -0.39990606848496124126 -0.044789184428677117356 0.30110258432598058231 0.44154915024877755547 0.025845272611383963285 -0.22744469575803075156 -0.036105209120926413935 0.11111046942857645548 0.81630387176835439433 0.53402434436843826404 0.0044376671671320280094 0.27112852756147332034 0.43005412228632922123 -0.022268432117743711812 -0.48000420208795896437 -0.097124557169108907684 -0.86543504191929399028 0.70724081766559743212 -0.079931077299965430649 0.84765366758579530071 -0.028616784013434402173 -0.37562823463250266665 0.045230080299728185611 -0.24478152255606763776 -0.89578780196535123803 0.13760458991394300399 0.23088215865323352682 -0.4975477603117691161 -0.25627389029675456955 0.28291099107732570195 0.8455066280077327967 -0.054152605040057248675 -0.36766898439707046409 -0.28750603145404746153 0.40943739993393168941 0.25745620898469451232;-0.13167705229389115029 -0.13376751640376935426 0.14356447836195779244 -0.19609035618115813748 -0.36323708029919848927 0.35991956785196699276 0.2834817739317632701 0.01478293207700163113 -0.40545976236226755063 -0.15614745384202044498 0.2784348193406894767 0.35368092294729547298 -0.2788592766632453368 0.24505063486975861564 -0.16842415371300456517 0.42395480884686498335 0.0904535591371641301 -0.12883520813787752157 0.096501683150673450706 0.37073580270217260102 -0.11108879474092447914 0.12508212670972929104 0.031153493935269418319 0.37486699524089411861 0.382969121196791773 -0.45462120399562533368 -0.030181389736964065601 0.25352508561797182374 0.22075151423968139563 -0.15975383685128038969 -0.54349506230677169238 0.2672105985410596074 -0.27596572944463781951 0.032638747596234848891 0.12453293751425865976 0.21053372725773744634 -0.068789393426477968285 -0.1387282748221385642 -0.15663569679998365358 0.0031683315107102834503 0.079630597654879009539 -0.28570511451483360243 -0.22580974868995296045 0.10465107743163264142 -0.15731223519879031225 0.07384399855222943676 0.043432415552734825182 0.036242367555637200471 0.053961655466820690474 0.11270562704248859864;0.039851079209917254775 -0.27827288981376235855 -0.42721428679177442245 0.10022190108996473223 0.05381005444617775052 0.094345984340386976341 -0.25109443601772568622 -0.61566190120752217751 0.67720249212241012682 0.24519408949145701793 -0.46666122877664595325 0.32036285885356985403 -0.33466448804228049463 0.43910656010101245528 -1.9576426959311761244 0.50748370381771268356 -0.13151772617654802766 0.42563788273869246348 0.19378522342222723185 0.42802537505853416322 0.14182465201024213597 -0.38077042994227033867 -0.16713647105854087527 -0.40780335567539349739 -0.20484278608324885118 -0.43890468244357777605 -0.2008909816230732559 -0.38386642073854404522 0.41802271165706228473 -0.79909203396731554037 -0.55708872976386580866 -0.50690293685769649557 0.98985693386887652068 -1.0324033229794156163 0.29423036284375136962 0.44223899898891388949 0.62415048423210617301 0.027741057589110471732 0.093216524566134092988 0.32545139303763342964 -0.49900125298511255334 -0.41504105756248627079 0.31847450767428192586 0.24116560978567577744 0.025269536467028133608 0.40930345260539546803 -0.5961101812203483119 0.19841011695767035716 0.47280892487811659874 -0.16922327910883444568;0.069147025003916576247 -0.11201248844877731425 0.3010664919784010185 0.17933628269071347217 0.55993260774721897999 -0.031037031140214135089 0.11020718931694344078 -0.11569165022074490157 0.08820005680154181793 -0.060444818242851326706 0.26303783487059367863 0.032587157859952926853 0.33718842275919824747 -0.088215079628679735069 0.19316026594658536331 -0.30462463956124347098 -0.065486621953781853911 -0.51893057066369385755 0.33441146758922379867 -0.10356159458531938311 0.12867414335205387688 0.098990956222881815174 0.054387406499451750042 -0.13200100825144975292 -0.51371499818706123364 0.016867299071521277276 0.50462304722318096495 -0.40111162089075025339 -0.09276145418844988777 -0.22330582379864957754 0.18362326344598536854 0.033995274686127167907 -0.35595134126397204311 0.091300957648864630722 -0.2864206630377824081 -0.20103384307542396248 0.076506099394246032674 0.27500886432029603146 0.34881719862553084432 0.20832821220502517612 -0.31147099072223788374 -0.071686395449913412059 0.59965096316804633592 -0.12424293288062608631 0.43841296579545263601 -0.18595670254836602076 -0.16096077002856615246 -0.23140638134042229579 0.24695321906564943193 0.072701140625689206209;-0.3696144408895953859 0.21899500708260161153 0.61488972770531180601 -0.03765510344844708035 0.29849911187326788609 0.027255117734065435753 0.60971927082010679566 0.15937029576823755206 0.057125186610477898808 -0.58589234105772891592 0.064394523906566164539 0.071317432170013600468 0.49445709266638032675 0.60525801272189616586 1.5517211964718744532 -0.27115977889799713907 -0.021296305696380479072 -0.013631787629098298872 -0.097706023792972857001 0.1446085816154879522 0.48122102199198890649 -0.017034506506292169253 0.61216997220693847304 -0.70834011534344709649 0.33684229070135962569 0.15234551018943381928 -0.48439702957853458809 0.17389962033187503221 -0.34383126972900224239 0.12893753786583725396 0.14777407947152290668 -0.16172735623032294394 -0.39882767089168857932 -0.23613716087654243458 -0.12195601445113270211 -0.20321597102286179104 0.13265179488488462733 0.15580381272940527215 0.47075831055772493494 -0.093130620977346090239 -0.14276551599615566746 0.97540499416219306195 0.085254314258648961067 -0.015144170478032705635 0.46430673026338081799 0.071650179556705634321 -0.28198586006613518551 0.3335437476232187004 -0.14457194091001934755 -0.34891768759528885013;-0.090781498562900478366 0.031599103933017708146 0.17474430179120237216 -0.37334267993783581963 -0.17259825782545254458 -0.32881421433440011226 0.61381749591815504274 0.93588140792470364548 0.22582889789212359788 0.76639864759811060502 -0.28449722913564079452 0.29779898403752702585 0.52339185542599053758 0.91734976493013453691 -0.18940677377025474937 -1.0859261805107394139 0.56015082866349319435 -0.0017208659159161851515 0.20165793002937329459 0.15388610467468430421 0.59474505286305301421 0.67990650222226289845 0.15636547522792526577 -0.40264812217200390831 -0.28731207427225080586 0.22785800902590025441 0.42244021368194734078 0.41341342680950199373 -0.49783366019670904912 0.52312649222994767051 -0.28582309559200769211 -0.47412480040547672067 -0.29306320325094881163 0.44916864075851786753 -0.14989555971611573382 0.71424361482067089124 0.15318989913174274609 0.43889506532830846464 -0.71592436697502326304 -0.45081763627075821521 0.20785634942605779596 -0.54112757000363931326 -0.53427103794472807774 -0.017692621717418720306 -0.34586324477010127465 0.68408213260593275784 -0.19862818309873686573 0.18025569847013581115 -0.064025212252737315199 0.3815060499202357347;-0.60525875207133095213 -0.12084158651850726574 -0.29094327320372687096 -0.15283370521880856874 0.061260423769457686416 -0.062669740018305511442 0.07721524446575350753 -0.013459535698210496266 -0.16331021911830856386 0.21382438891906271894 -0.16123933529110506813 0.17989927636290595214 -0.38620217948666252239 0.21842906873554293612 -0.017022363278779619605 -0.36264296386520195048 -0.57795446531299654591 0.011082531899696410754 0.052202517967775724506 0.033989946733306464211 -0.14688054835187966396 0.18761953896588168256 -0.45136512210784407451 -0.068755672223759931039 -0.10959111758751069465 0.084127789551030895954 -0.1748872134548379309 -0.0018941326220866369547 0.27960985675970423392 0.16634518593628247474 -0.10377993600193183288 -0.94220708629260885303 -0.2312620803210661824 -0.40917048025278818235 0.0061634207392189388486 -0.19526843916707661841 0.30688769326110754143 0.16926902874676499899 -0.26803211012081440412 0.11695594599954189929 -0.020438940938133406955 -0.39355578576739974617 0.3806477051233607134 0.36820969173198830893 0.11830798027657027371 0.39187963393325619954 -0.94128671489355730806 0.64327745732570573711 0.45420203177759976843 -0.31247942474670864499;-0.32789640831742156157 -0.03715420539669683081 0.1497597655179970233 -0.2681020389929535952 -0.26616450275257730329 -0.017825857036356324709 -0.23016784223636152507 -0.089550958271463643179 -0.039829271800825134797 -0.062358962426681006919 -0.011874487459577824991 0.073034702899803127796 0.49577793537256631407 0.13374265222299966394 -0.22054061107608732839 0.14770843122252094726 -0.28931311179776875164 0.0079697807474924248217 0.20628357878494857358 0.20852380684067736705 -0.072836883550633599316 -0.014387607363068767932 0.3139948716142846874 -0.1574998599476625516 -0.13633438499253505705 0.12714260030862684081 0.15935625467619909945 -0.20706711609761976889 0.010979105316407384088 0.11768161034057314507 0.31571322219418979094 -0.55815939717699925016 -0.18946001502977766195 -0.14897036085476314526 0.073539765367354653636 -0.076068701372143693318 -0.15047102114472721279 -0.012762848871974593473 -0.17810352220506320275 -0.024085354831049878011 -0.0029764922347310382791 -0.40188621527206530581 -0.12642939308975764678 -0.75475354775496372728 -0.17360959827794983368 0.37388432211328809229 -0.085947737146770897265 0.21734096050494255969 0.18396388290368287377 -0.25730725933927700577;-0.042560940208678572916 0.45386250819136803036 0.16376934460282366324 -0.40420245428940165811 0.18415876505673611785 0.050962826442380065872 -0.47733533032459335432 0.3980362633768160241 0.13783578718568534338 0.011053962849915244596 0.14741251555269155316 0.2481579362332486105 0.046000487856738478398 0.84688868007013251571 0.20147781498092184882 -0.10001682491160235333 -0.15025624432919279516 -0.16619255463036153309 0.098829277481631672142 0.22231530298611199004 0.026122792293042828432 0.011205555054961579414 0.29880710015537864654 -0.14945257637972217402 -0.47330766916219924045 0.072613783136481743763 0.022030851738570843973 -0.11799648848074834051 -0.49676513380333120473 0.15214833962804183431 0.14080110592658995339 -0.2843294385660999346 -0.80113338536527456402 0.082272417776676057266 0.30262843604065892134 -0.22220273588694577915 0.3595241063627098721 0.069783318099588168004 0.16016817264901120343 0.020571301175970321817 -0.012041681380211640209 0.018059074178821313272 0.15864478322149147549 0.2642493515666670123 0.027392745839141089542 -0.20189536169309121871 -0.34009698214918565595 0.38078541162600365588 0.092915353314883389335 0.30107763164610368278;-0.04928891825611803057 0.066703739058446939736 0.73346375169507604941 0.033269721793927571618 0.26483007876030745242 0.35255164337291755583 0.64013865485265120103 -0.40258863309068038117 -0.080559647427246847129 -0.45750976513628643927 0.22731734312277970811 -0.046709420566233943173 -0.50281836135438495727 -0.17483311937477929998 0.36348102977900775823 0.18517231303863199154 0.7433750673340442372 0.51616049785729956056 -0.14336589248058448365 0.50272380095310953418 0.065350380040406608195 -0.19813312029084878541 0.48072030601357035318 0.31638533617266428877 0.091851168204197780609 -0.30212409207203105854 0.34814937319614197575 -0.15119593512035278682 -0.23342513957168511962 -0.13380130219815919435 0.025018395029197892931 -0.11762419808461803405 0.49668712584260676923 0.65822453515310552774 0.25695331955193545515 0.14934243559458426631 0.36078449781458388212 -0.1686590248798637004 0.43809126092447880918 0.062490019603581255236 0.23114988215078582923 0.17478712307082072686 0.085264183579366575882 -0.32243174486145753654 0.73527224755445796944 -0.14508296646942706043 0.15217147078912932057 -0.036937140150745992329 -0.19329984601049082782 0.79558431015605812764];

% Layer 3
b3 = [-1.4555736707251303308;-1.4529759109040867315;-1.5539120386058811185;1.0554448886743128533;1.3694464722182178029;-1.2402813092101745429;1.2099577323816232965;-1.0381986589814669042;-0.97645510366436971683;1.0100431488748728981;-0.99611903747012608967;0.88280597475760802517;-0.60097016033302241844;0.93050302885775681982;-0.64584615105144960179;-0.69428865913480819483;-0.44463708928754980265;-0.53151967669363375801;-0.6225407994048269833;0.42829086746810790531;-0.15583167368779329842;0.26897523017764979336;0.11746501696451160102;0.15562926430279674928;-0.050630596267519582809;-0.0019720519233574779899;-0.16140399022169668597;0.30919336103760186596;-0.25786537393213171399;0.17255176800725710584;-0.18565809571383345977;0.58050739314999866281;0.5395306069044836228;-0.45559133476477309266;0.79826238908090718649;1.1355137366570766666;-0.8129867781508829383;0.57882413285444700435;-0.47698804919232523636;-1.1340497327083143286;1.2120661006365840429;0.95890347547310328391;1.1347689579982667141;1.0136965299976676835;-1.1570911320632770725;1.5540103798858557749;-1.4699330580507385946;1.19539162979042346;1.5307282848937426856;1.4476953346046648186];
LW3_2 = [0.20481962559528499312 -0.16981605750139219801 -0.33828650497551143728 0.36877058880327895363 -0.067259426694905893873 0.2513294079567006678 -0.17851591703998950789 -0.030635701904434597953 0.16389842068686041876 -0.24956546729775727633 -0.34716440156879019296 -0.22126776223180352754 0.076389288868183233272 0.32611206386035007654 0.39414753312935107976 -0.33322487214441609549 -0.19336994701266538299 0.06894287665609363791 0.6719127924264072238 -0.01513831688164312024 0.02507211197696778554 -0.15038659456163666617 0.21137673563790454478 -0.13954981206717737008 -0.047830326130948785934 0.016767005835617659892 0.64922017007681587231 0.15185649242635904099 -0.062118133288800045366 0.095801156624858191391 0.23048219774463105103 0.12069802259855638704 0.077267789988502103005 -0.054993719526198983627 -0.099476450664714041738 -0.10843940000996513118 0.33241954641797549774 0.13786064087456864624 0.0054917407075630647259 0.19197217828626428338 -0.1761248457039142068 -0.30080674283556202431 -0.09022005115299550071 0.0013193064712708521113 -0.087629880769630741355 0.28977524332243898009 0.33407542250899685543 0.20681188346101775366 -0.14263393004053628865 0.20005346060763731786;0.025783043942666360182 0.067232489255700772501 0.28867781617738125233 -0.38329347424589654825 -0.21528645019934619653 -0.04959193344600091452 0.39477081465759777945 -0.21650750123119083534 -0.0080834318105301762591 0.21437992338402817039 -0.093917647896008080166 0.029106128494787095184 -0.2752887154310139084 -0.15951155090442845075 -0.50642863642889135445 -0.12869662573806023298 0.048926119336874927812 0.32654614480757826467 0.45090301218635103764 -0.17957517080198090453 -0.2005856591275501366 -0.016878014474413196438 0.52645516479029863532 -0.32863871865121274674 0.20696598660576845385 -0.21391911067989508033 0.44948609768966890643 0.32961158321449635089 -0.16691908178617362313 0.32286046785267857873 0.10679498105727157353 -0.18840012161924513112 0.36636466826932284624 -0.059242727289885693809 0.25516734973918131502 0.33665317442887904287 -0.038950219147134493292 -0.30530539890750663101 -0.10796425210870430611 -0.31569340625751030061 0.28595595907376825107 -0.14010679636592318631 -0.15958033066679755407 -0.18326287491845819067 -0.036342178103501619757 0.51952372408533120662 -0.16726131928723764197 -0.018653458632389572497 -0.02040330534305434193 -0.059682000652073796676;0.50066126690708989688 -0.28909429326033936336 -0.2596850055633038723 0.14615379192354735483 -0.79092369680262664122 0.18569631042441395175 0.94692127346921695086 -0.48567085470412207915 -0.025266443106568160087 -0.096476954449050786322 -0.07355934358013591079 0.097094225030611353011 0.17703024227753064168 -0.44926312100680698691 0.25459347682762156762 -0.0023949045425284581391 -0.29553216113068941917 -0.023865558377516360444 -0.33918003703653043512 -0.019883799754300726659 -0.80803156866328074148 0.18517832259820607432 0.54711230055431170349 0.37956667860681070348 -0.90117198923618746509 0.10965964712472306419 -0.27426570615549317189 -0.19084763633378870606 -0.3298370815923205579 0.27432744176612217091 -0.4369658522353311314 -0.016225870005250910694 -0.17663347577232141328 0.36271036490987929035 -0.15315389170190618628 0.61451687350806394328 0.70671788606145879985 -0.12745763160003442671 0.15140996452573138309 -0.02339306967984986288 -0.41912341231352534532 -0.05961272923051184891 -0.14828264705870622397 0.22535051523807941853 0.13178258854376345699 0.41209133852191026648 -0.028179726547777086271 0.29884386133774282213 -0.14229881063880625569 -0.0059036671485392490724;0.12488418832033354455 -0.19056967485908535287 -0.24764942642062895417 -0.46452717945954219436 0.45959927157563157385 0.24523826986348332135 0.14514070691207006658 -0.22139397150179082607 0.16648558144614350462 -0.022557853409093085034 0.19249472277560628064 0.36684608971160737045 0.055462829208922294344 0.16802957314922412069 0.16795112860318447967 0.29339953871651303086 -0.24392609911439436243 0.016465753943822040994 -0.16802441226816677844 -0.20307833838253971925 -0.54725909808231842923 -0.22773167871052069078 0.069053309185441391627 -0.10961087992514122191 0.068693979724322201674 0.44554744763392473139 0.8754357431738399864 -0.16697292480056202812 0.035518714276884896797 -0.14573364294258780993 -0.2644558372633008525 -0.30569709725141552825 -0.016042306921757291255 -0.16532709057213765269 -0.31893037244198124691 0.32314526942265658915 -0.76252531791221234148 -0.47682150244140653061 0.30394075173861545558 0.84173137324828706252 -0.27427925955281701187 -0.016621309211232775105 -0.38342156142915345685 0.19666897156837273575 -0.12330278634199731691 -0.17415816002241779614 -0.27552120705507399112 -0.11323888010805650828 0.22260291850333713271 -0.39534022094893916943;-0.56351308369600217052 0.19252110654923756949 0.0045177986010526737307 0.22422300456671118152 0.89155132614606702468 -0.59128999190850795031 -0.33416161087694973286 0.0095332984017097010393 -0.33977091062984965397 -0.020717382794932591439 0.45631960442143659762 -0.14796203131414700782 0.1544968802378828554 -0.024623838445667074748 -0.22584819317829168961 0.17792988176081350749 1.2502973007550748363 -0.4347774386813848535 -0.74954041955652206397 -0.10690129035752254927 -0.14225876307722062908 -0.080419656817655602032 -0.64645867490327757476 0.26916850639158690361 0.7331620974623305198 -0.22279567696045085579 0.19692229324251561695 0.097783699477995006388 0.073849979107484739482 -0.17485998745459066517 0.28304869483552430598 0.10626192083417322631 -0.46463308631738320376 0.46487008157653247897 0.68647805870104194881 -0.11185519870168693368 0.062051477400282127606 -0.050578720678760569207 0.12419413974348499086 -0.13372337764868727494 0.62149599964396184948 0.10609662133850243648 -0.38148947477604894241 0.14942613097116325127 -0.67215169953403841596 0.12242658741366130304 0.18752713611287882833 0.24034798764756235001 0.045388376582112130442 0.31984170051111610045;0.14147177208634828527 0.032355317366063771067 -0.098202767717087954824 -0.14827026954395022829 -0.28537065112155735047 -0.19878480126629854974 0.21173477883912497632 0.32842593505003875309 0.12589679903688744123 0.11336211202356509531 -0.18947079930908963807 0.070503901179004749289 0.22334035564951412733 0.011938802942322402495 0.28078240313627278457 0.1228104366790862545 0.35274041970953540215 -0.3949279938467751272 0.37671435077986020756 -0.2613019004715260718 -0.41159675826874131399 0.13450277490190215568 0.10752236128622699729 0.088297262156327924187 0.37409268783974086725 0.073529245806643772632 -0.10440738901569956987 0.18955077822898730444 -0.24277634836178524358 -0.35214059876685144257 0.085865952033324838277 0.30679343782521484307 0.01098095288258438447 -0.21314997414439973422 -0.061879136040679114106 0.10109274265284340366 -0.092939613715374541636 0.16828648656977929221 0.26629183102008346928 0.13957424634847456768 -0.086739100896135137853 0.040458157150256683632 -0.21388529505366130068 -0.3468524426316698106 0.13353650420065674154 -0.22967949572944243442 0.14865167456044892091 -0.10387559391575215684 0.32893976517904444101 -0.15215972359397897384;0.052298000752432467764 -0.026800587148599338411 -0.56273377308925687235 0.10381924106625756155 -0.87939682615257841469 -0.06348476335766094214 0.59197347934135635672 -0.63838590876891487813 0.37780167237659673107 -0.46756253824399873764 -0.13952306041463310993 0.076296081614996152931 0.56325418820389083763 0.16832267056785288339 -0.67675221601700108476 0.29688045701179738289 -0.16155527009101425251 -1.1123296511401228326 0.48260095037083350356 -0.091632602695224982248 -0.43044108498933603135 0.28123795230796388989 0.45330472518146797123 -0.063805959134594816828 0.14692036154881080168 0.34614415944458154506 0.88313224753777153087 -0.35986933471569237941 0.3297855055778395883 -0.09100885343577283515 0.16395182994398088683 -0.3683209964591046548 -0.072503094719945954116 0.057770099473544701818 0.23579629113965833165 0.18648944347881943329 -0.93918183723395765039 -0.17271658683717389104 0.3476829754106330328 -0.20843231613378476741 -0.05149863400966746968 -0.28074194271832308978 -0.70857939454476315255 -0.27339454733518353535 -0.86115694497410077979 0.52403523955279107671 -0.35867016513777444375 -0.3657368571918433453 0.46927208023526445491 -1.0993904467303139416;0.28899011139673080883 0.2252677129568481651 0.92492430509914402847 -0.14192495895490611635 0.38894725437298555137 -0.061053569233540792849 0.20089317243538004631 0.15415479495731387871 -0.12711524834529666639 -0.11003006079659959082 0.2149383356535707057 -0.69430696206999187314 0.39667642993034513132 -0.10383133121198254156 -0.083512173917647203325 -0.18648485230234415622 -0.41221605229049906871 -0.53301201631253491975 0.042679919358924379991 0.1221913308515027996 0.10148215822720069168 -0.46514712206825120644 -0.19966211215425805348 -0.81757822756666653774 0.40781434143477113263 0.11418638371650902119 0.17390073563418920188 0.53787610192508661378 0.28498749474814927263 0.098094632343671106511 -0.2705998576640427089 0.1074407478060703941 0.35958353694533140565 -0.16817040337437005881 0.32024328052325812255 0.22178079405031822513 0.34998158246339533539 -0.5616175606906589346 0.15010644114346485822 -0.022749006540493669354 0.10351748751281826533 -0.22861906790997560401 0.45620223222244932204 -0.13982559693575935533 -0.067229767113332325468 -0.5408166046620734857 -0.0028259519646154428012 -0.020153183770531664376 0.044909616085888934278 -0.39212710811476086947;0.20887324865036280275 0.012777518947899456705 0.8128405447421132024 0.29251010336400212752 -0.60103826428695505957 -0.17526219581773919143 -0.23033618570170791284 -0.41997069953640092654 0.47107939572151930063 0.027708395015870579403 -0.03976920996025816446 -0.32050949491009522729 0.55256650244504590397 0.079363751003575760956 0.18155944443517510467 -0.17729922093878608402 -0.27986036197086167077 -0.045756003836932110374 -0.42979229498733761972 -0.092781539198336732133 -0.2428467983590134327 0.71127333937882974979 0.69360741710230844337 0.046682112275525947109 0.17122289539647100876 0.060605905644568483503 0.041632992453991761461 0.05979393165309671021 -0.25397549167022798189 0.21486609033871539864 -0.24802129608163497876 0.59770336713333616085 0.079740720835474204753 0.23203680687809510874 0.16882408513505650638 0.3902516339787348576 0.49947972385893235625 -0.24541417109448529499 0.086474525870631493984 -0.75894084543057516168 -0.0068023955174761098486 -0.44373737310798022637 -0.34431655803272137595 0.32367847292032642104 -0.026640650795986611787 0.23962530870439793795 0.28219442967892660601 0.42280468011488481217 -0.34722312083388373605 -0.12968074326884329595;-0.11563995704364854467 0.16199355786401581359 -0.15085894893872223155 0.36337990423580696087 -0.35979324676865742649 0.73739768612655676172 0.1488228706300935289 -0.24003334916906943208 0.43857932269704696937 -0.12057647455810439896 -0.078111750943503033273 0.11823645074168027957 -0.071541745867710421214 -0.1507812905348563659 0.42083964114090655073 -0.020133472322361171958 0.41260088383451154481 -0.50459223534644237485 0.11470701345243401736 0.3249711974169077755 0.039732511857329913529 -0.27484055030824455779 0.096868328323282612557 0.41018312701363940365 -0.39064094318379039006 -0.038463759003324146657 -0.04174712602477211737 0.13245200126158032661 -0.2390124239997005462 0.02433877879977037334 0.20548443246543293683 -0.15701762135044511348 -0.085284031202560159346 0.029371142719273365951 -0.32833133358298921545 -0.063538028667858958976 0.091475654825688257343 0.1156004562879597436 0.18220493895228814796 -0.28990522065670626395 0.09141404891044864478 0.28165381163376324025 0.75685612378714428594 -0.43318199857394301677 0.017619401488636627501 0.2446417706425702554 0.49348071379292712813 -0.068727247164224083975 0.43122268270043945249 -0.050320946942901560728;0.54216626001380741062 -0.21442586549908440596 -0.19632835964386016747 -0.20493924582973369053 -0.24163089536267048918 -0.117034000017550599 -0.27498077764658018785 0.25827971724905224304 -0.023567990948840562143 0.010803097749487407253 -0.4357891312849271892 0.15796461842997697178 -0.16388637257365190614 -0.34040750373789874228 -0.5002770953864833503 -0.29232117056686757195 0.65503495963253477452 -0.26135714985083191575 -0.4340148781293613478 0.0078046306188032351162 0.31989618700496341708 0.23388413195565910252 -0.41556117911678130961 -0.032272057461876800522 0.43010568544374511157 -0.010349245035715517321 -0.056243640907075502511 0.81310191259818398457 0.10533094342909950225 -0.33656383755387214718 -0.16712933564194593083 0.067680667984365061596 -0.18109271188219744353 0.39682244763264168386 0.066939429635899022619 -0.13720218776411599593 -0.12075662804609609002 0.60835623237608105196 0.031011198391262637108 -0.50874189865951824352 -0.48271923308596137447 0.091348811282133138278 -0.14927335172673181218 -0.12027543781917722499 0.31752107068430046599 -0.083582963696519033125 0.16823788336234271612 0.41046607311419874842 -0.45267699841778885617 0.017153149965828510398;-0.31239123680855057641 0.18749441891793647286 -0.28385972797326569639 -0.15088498781462317266 -0.17585326838951984008 0.17890486601373836728 -0.15668491733624947959 -0.094879136343394177011 0.47305048882628469853 -0.086431269441637981199 0.51657827713099169209 0.060214489770276651004 0.11705843096884711863 -0.24146855110618972717 0.0077881962469475967542 -0.057208757246338615143 -0.34812280975281029161 0.034639571424922833975 -0.098922370275916007842 -0.062774986564670648415 -0.062229162421946655759 -0.24590239071203065513 0.030348842419776093232 -0.14977181124475621998 -0.25044618384485434204 0.041981259177288579587 0.29506574982904615334 -0.38294316744518014373 -0.060137320026939139472 -0.31439724048185524463 0.14980196512904564443 0.10964836825638991924 0.020622172078509463933 0.080133615458350404559 0.078578747262682088759 -0.16074762709943912764 -0.15898269651159194216 0.0076586071026190543146 -0.1985411577259069138 0.13722746894774431881 -0.0021068512884473765238 0.043842146965709746786 0.13728533174090296054 -0.30688849193693501505 -0.23994711942899532575 0.03424096148877132928 0.10682418145583316704 -0.33670824659395598433 0.25459979843393953924 -0.074414527803414565188;0.29770869834514707142 0.1204797250571527506 -0.4566291140985853092 -0.13528151262681975542 0.28093512035493389822 -0.14947283993951590575 -0.048783671252298183019 -0.04657580445823258225 -0.2983218606113982041 0.43281658763401742451 0.77632543953167565398 0.098088580424079044318 0.15817574678282694811 -0.17160288307138385488 -0.050532131806544054731 -0.53594795790657889789 0.56841670723962900436 0.002086065265258174161 0.22658209727875622264 0.26768574019143298592 0.45494053554378849347 0.060359678401736907571 -0.35331662502834376705 -0.048231409936593749865 -0.33532663632265385933 -0.46387261178502348091 -0.23366329618202413831 -0.29395624169744904997 0.5106884916838280164 -0.10208001046297293657 0.49835808254576080545 -0.25430174329887511586 -0.28777520462519307065 0.56841589750000298675 0.10666547696819816959 0.51891433952740917412 0.58423165106723851103 -0.45371491455296658613 0.011824258373019664453 -0.039284779851875305245 0.017161096311422211619 -0.26722859395367809521 -0.13198549595861328032 -0.26559378850123571691 -0.041338556064672224433 -0.029571463725972437636 -0.046818529757922840162 0.11130362753505301798 -0.43533047747309694397 0.4454863442302737786;0.15540204050540276648 0.52578155395261527705 -0.0092520107879318462529 0.27050391702186094012 0.010334285602584441024 -0.11249337863566018225 1.0303409699443977221 0.0876050943336031257 -0.050978352822926099874 -0.078948117293372227499 0.057046173303494644713 0.007284869200389465678 0.15547365170933830081 -0.049877832147271636276 -0.016723492827226679042 0.012433108854202816126 -0.020123644614510348416 0.028209328766970208358 0.17504585873712014132 -0.021966622923249978089 0.066168786169512147644 0.0091669488755988758066 -0.034790827675268781727 0.0046924719390836859556 -0.002517409808926316956 0.075689954173849577357 -0.078194614196018877306 0.062703299237629434026 -0.0020495553907282524839 0.20065357652677467959 0.27894425954934859435 0.065905858947433920703 0.015528249716680429457 -0.13776813157438741464 0.042525429627927886778 -0.047732381195121145745 -0.0089390320488440099672 -0.091054599571062502794 -0.011437389410511355006 0.070404008215857696862 0.008097627547779203544 -0.048610448187328167413 0.0040661552462404881858 -0.13532449008753458242 -0.032946198887783696707 -0.050099802506938642677 0.17346109920905705692 0.24148723997520663009 0.1460974591843304804 0.040724730197126531028;-0.12963344244029045838 -0.089874658710746346824 -0.53558154202535668276 0.33698750629235429965 -0.086909300330496749853 -0.9904888992159462946 0.58108475396908243482 0.3470547786066101037 0.11471608313323049255 0.67585280003242931279 -0.18893185476305013326 -0.14121881143556952454 0.53142726206028767511 -0.16373138240399640053 -0.33059298103196005369 -0.10630956906979950605 -0.90751881678363377493 0.33515295936102978969 0.10414572314094165673 -0.014923871050660600726 -0.050179364381202837264 -0.10725064686757677934 -0.30494513659588307064 -0.099034266618365979218 -0.023775628879673570137 -0.41260615895200092318 0.5060480991709003229 -0.077383353714632910347 -0.16042657975724947117 0.22833771890720300224 -0.22058464233341762428 -0.26665736267703921136 -0.37599645791398589312 0.29111327228418759638 -0.56676604947076525409 -0.62959035969101617702 -0.29712213488919669846 -0.61722820235670528 0.78665103839791195028 0.26061266801574434204 0.77082152559281269522 0.053162708367883400318 -0.12504508804798314392 -0.25041962306241138947 -0.53021849023660971856 -0.044606606227183022428 0.1023305979794383036 0.47940475577090646553 0.28244399090393801366 -0.54691362927477760181;0.31279662479462927438 -0.37565423590702168299 0.16335237072640640399 -0.18313359631046513543 -0.13622692150275778067 0.18271737456216957662 0.033259247932184696217 -0.29595372224910199144 -0.0075482134974911782588 -0.29737951499114051446 0.23361267094726562155 -0.16156111334518125089 0.090988827302549521447 0.1303496598433502851 0.33830744771152293504 0.4460307281725522377 0.51219271009252353988 0.21344893259416383713 -0.30820364072858924542 -0.11682887941121811171 -0.093952797684847516591 0.27819786320388550926 0.18385917221916359132 -0.06297536094015757091 0.12371367938381153118 0.49666628504402426936 0.077361925824316460365 -0.33926781794531757352 0.16153347560727210341 -0.29132014662998756416 0.052461686648734247307 0.62097635453746935497 0.14275790902681934069 -0.38932886124626131519 -0.15305214866583552458 -0.21242994961446926006 -0.10334448313409920484 0.13710158214233880702 0.094565236602658864218 0.029611705976100095167 -0.19391772063826720474 -0.12904473494023660507 0.26931158013471279133 0.14979894705007093525 -0.044373117493875430251 -0.019378640322535650026 -0.34129808509458814392 -0.15895467186191378217 -0.20835587394675247896 0.34605981373392191713;0.0040051383774572756058 -0.28019825107096363315 0.25707255808288681509 0.17218265875045793423 -0.75600041646642812676 0.10495980218573244813 -0.35481859996028153326 -0.55938684126140092445 0.12104552134975535282 0.074674430498342450613 -0.090162096166775174133 -0.29287463183570555669 0.083075814714990772747 -0.05290389109614381663 0.09536429933767398559 -0.53221376795364194745 0.24926301103592199415 -0.56962010897045634028 -0.5838458913860634647 -0.02844525276514602366 -0.56098249217457618609 0.96464079113098977203 -0.017392845629055700418 0.0065033546733855801883 -0.15711441289682018252 -0.023136352309015763284 0.060962200196464179369 0.68739355711357863488 0.35447215860239122964 0.42449075061336538628 0.13694619537482943805 -0.12064463418692607244 0.93643096104632772558 0.40135247700838494467 -0.22570058215642094246 -0.16453289676167193178 0.026047327005686193163 0.14095836535524630673 -1.4914244233191067401 -0.027958435790174464286 1.1331592813955169152 -0.39285697165713967527 -0.26308170143468601054 0.30983225462521002402 0.47644772993926820526 0.41712485757229661454 0.13683899028185531055 0.25870708416373627836 0.22226623043075366404 -0.30553500397366040175;0.0073724396013176238945 0.10026952881806790174 0.63695532662964338133 -0.41785570622774209637 -0.069174822199682531321 -0.22012634930930513599 -0.64145487666907952118 0.43829290105766433028 0.095011477756133097539 -0.0016104310136317147393 0.2937913324171666507 -0.45557741868978707256 0.10741494126111575391 0.13200443848269713398 0.34658586787014056263 -0.086435471952506587323 -0.83943964818867700117 -0.10681580327384632145 -0.48229120482239185019 0.37976520359062765353 -0.39729943863756744804 -0.36985416868209880503 -0.18789351466629236609 -0.27497309423401433692 0.18528580991698626046 -0.18832797185302010967 0.1833752305546687833 0.202786030527403488 0.85855027059231403541 0.14107027087587281633 -0.52080553021219910814 0.66760539570963572942 0.64040893957331146424 -0.33078362695770335833 -0.038898713080845102874 0.022771497553323978569 0.81205398114774207663 -1.3416513857778615826 -0.13580783524202427737 -0.56020740507396993291 0.53489373868303169424 0.24603720589734245916 0.26836567939745237243 0.32322731732675674676 -0.14889571199886514341 -0.15404246535134855089 -0.25593238246251825974 0.12299607126488489028 0.48550045667913938052 -0.89717809209132715065;0.21227576124719257922 -0.38242950040763795672 -0.054802741039444213822 -0.015354433196607912906 -0.30239120146755893437 0.46506957311277319356 -0.67709534869015197689 0.062004716829023621971 0.50644237604469843905 -0.29080206860862412022 -0.075952963089791283857 -0.29829193992453267859 0.47519467821181349265 0.25683802951377299184 -0.32838511135684161912 0.03312348372323550838 -0.49779458665920828242 0.28395480465661904201 -0.085322211051796617576 0.31647104982508850179 0.14003953295498539067 0.20032398308036603041 -0.036829719388064979801 0.084430641552462312727 0.7170204369115480425 0.0010870435714238470357 0.39996392600932689776 0.82473565381722246936 0.012061035082913288546 -0.1652078706652980733 0.3354078265548416371 0.46856587766364632408 0.39182568824794639095 -0.019831536773885140301 -0.016626676169859137128 0.20361460630137059868 0.13031938000390355659 0.27867737584806845375 0.0039345160432381846155 -0.28963157838189645954 -0.11402676519718935033 0.075388395012317949151 0.20134070096655493076 -0.12811630666860332473 0.22881107131673480981 -0.03623976446512226085 -0.35261779573254042885 -0.13354425938411199071 0.58487926358640518476 -0.83903441849681636988;0.17271032690184984215 0.33027501229567440832 -0.02594906327169788432 0.0088584815313358846595 -0.47450514014113531758 0.24268101442336170726 0.52600427967378715621 0.025460408120738953902 0.40295058666818611703 -0.6620174996003380663 0.072502760068721139319 0.18355980402663168993 -0.35853724586406537922 0.030768396650108810475 0.61465702559882207101 -0.27200175874740367687 -0.20443913751770381726 -0.11230196978544865205 0.95605757668325108689 0.14144507693871521958 0.34823747302720087227 -0.0055096213621721517803 -0.37272031834114449644 -0.16998649679669758372 -0.42443104179152668642 -0.032392429038567122079 0.20348938200101812646 0.35230069213950276907 -0.22825594689592176856 0.15829200486655717328 0.10267787130857834732 0.40720847729072512378 -0.027835929701399010627 0.15667270362623494928 -0.36370269600834898016 -0.059488422309221890283 0.35167831736294002942 -0.16413327345802289359 0.52606445412648084048 -0.083031281859748215513 -0.22868531136729761122 -0.21116233188199462489 -0.35371547731333458087 0.014967512786566924965 0.50342509639918919806 -0.095576656138610979752 0.14803866291486886264 -0.079207621817863338443 -0.33189573792748816583 0.27755628138427124174;0.49022001855102831369 0.3548518479142760973 -0.32420913276385704416 0.31903214083017583658 0.40689464671898933901 -0.0064120581551229327219 0.42135248144782772028 -0.38860891807026926026 0.45925296010002264468 -0.77990961397638525199 0.14705582970479602611 -0.74120535365760931157 0.18724700644017305828 -0.55960803418365645534 -0.41481138045608667575 -0.25867654275334817093 -0.54043213540556844787 1.470221268962879746 1.5098751637438379003 0.67434549899370554993 0.33919193903902922216 0.806140272711880157 -0.25363744498431278762 0.50615350671091896562 -0.43877136952968015526 -0.15535868963424889766 -1.2487860602008498123 0.091608669093021330432 0.057442883667040534057 0.14519579423650011418 0.14527256079776251774 -0.9856847075788974788 0.22355668422931296302 -0.042383219514021304442 -0.99576358025499533966 0.3466261407691089147 1.1724696955254643171 -1.3922969782318357357 0.24324130949065939089 -0.16983809724666593111 0.68145915481413155135 0.0088937105874205453493 -0.56704367338199934689 0.024036414517104146699 0.22253964570279882729 0.51579694059976866072 -0.1429852839869755754 -0.68479949407163898112 0.2255860060911276388 -0.078707465286250527514;-0.23234596449567765375 -0.19246099535412791726 -0.16068200888400099857 0.25773441138241354187 0.31114008758818351152 -0.10294588437319653063 1.2066800002304709505 0.17751863244206769754 -0.13081281305341810328 -0.13938143047612153169 0.34499745786099395017 -0.42288537295692424367 0.5124206843137389944 -0.10948148839304913671 -0.35517734415177448781 0.0030928295733400430409 -0.30387702499825941516 0.2398379445642503105 -0.048811134587761199899 0.16137711309215915789 -0.11148157043761383611 0.076030608394991830434 -0.035059712380688862199 -0.33008340930987528639 -0.48041679301575518357 0.40643767267093966478 0.26296937525727775986 -0.19785935561002490624 -0.044181025047091100622 0.12383638766816183752 0.52325016504199028944 0.048974133910873095255 0.12785781393470466161 0.083587402327185311712 -0.16584068266264731517 0.1852384870354890356 0.11990840706472276345 0.096749862181453372134 -0.13067563148167862797 -0.11186257693507314914 0.2924371015899631665 0.10762365220421671319 0.19231886352333182888 -0.20888303798816929002 0.3219755419243292005 -0.1556997039582010689 0.065852170826927777791 -0.41169633737543442908 0.20237757613081125418 0.12980525103548107291;-0.62538618720758787362 -0.23326003776775061649 -0.073549734618064951941 -0.23008165489983470331 0.58988698144356221942 0.025631941504810209359 -0.70670247015553966374 -0.34576849667329923044 -0.12034672686554551135 -0.73064188392542883665 -0.28792206052970997776 -0.39916107750499729701 -0.15332772292793137026 0.38826064105420388106 0.56029514521878120981 -0.50184964671984155782 0.059781999877301969515 -0.48045406959876379993 -0.82950722549979971632 -0.80175323782528540306 0.57695523985969654479 -0.067957883014196932003 1.0208801184748266255 -0.72672462198008469514 0.13898526696225330102 0.23648889602804254451 -0.6360317784679476727 -0.94375138009633285918 -0.058835381291775491752 0.046647605479268855477 0.075796729631761067258 -0.27774703754054319571 0.40673517911625545196 0.20329191378834374215 0.32592602578043439188 0.37905468900998001702 0.60889500204714297471 -0.57681716077416833599 0.48895923665037821504 -0.036847422357134798632 -0.092401882831080292546 0.19531145906753724639 0.084680896619052564711 -0.2822723251999036953 0.070037051403301908703 0.0094461562949883122464 0.38106184782370194908 -0.060038771293532820772 0.17341679788566013998 0.023251562902806114513;-0.67554940743537505998 0.33369595942667445998 -0.3970236556777738679 0.17104835006043900281 -0.2758909749305696324 -0.032369207897127660889 0.96501019064536519565 0.27833879294317870334 0.39268559348159381983 -0.45265230138629514167 0.078774263867948654538 0.5223902405428531015 0.36314242621610337558 0.1085324419329840584 -0.10529415155537941162 -0.56949540951070098949 0.30705471319446103751 0.31066076247800189503 0.061213195289132181498 -0.055430101796863640029 0.34324040460584748224 -0.099811219394642491931 0.19738434122478321076 -0.15076286459717311295 0.26114160301223909855 -0.16063058991275830367 -0.23295473974246588833 -0.32671455228076401456 0.12175925092547204565 0.034002961365624286005 0.16777056900152081953 0.38149886246343317486 0.40006770431134691668 0.29879346762494779499 -0.0011190468797811713685 0.15682229550050993949 0.28864458525576625059 0.01045374250503571488 0.0096044170758486247658 -0.19862149938605869193 0.090897061716422672406 0.26544168705746112868 0.31917917156250108501 -0.4372563441199217027 0.18471383755995102183 -0.04387860459048926326 -0.24710863725116621881 -0.2928870311156411832 -0.07599100252540012812 -0.030589744405731915389;0.25804797935890305682 0.19474661634215970074 -0.55818900752565836498 0.23401614922058547319 -0.25416410680604456518 -0.036488826780685996998 0.3529880478038561753 -0.27499713429098676665 0.017461801012450223897 0.19624183914564255482 -0.56301628544606507898 0.22108524777026666852 0.44647934495108931863 0.39158582497214106111 0.49860742293376386636 0.13592106016855359796 -0.63627826722877878218 0.49170180979068661697 0.35456096766130018594 0.062778082561364800807 -0.11586133571308822321 -0.66198284037670018787 0.23988009725490247459 -0.36384596705376354153 0.1067206596623937187 -0.15311708037655968884 0.0049768709553361500236 0.20260290810871328659 -0.033826113169029912997 -0.39399091577133416031 -0.3570760324468837954 -0.33772016854199560232 0.20595075357222566992 -0.094338542421171844854 -0.18316308628759728205 -0.41738783415030833446 -0.12283412145977051777 0.54858460073118531231 -0.33835415879113700521 -0.059640416802804026297 -0.52166731921727460541 -0.13978961739436715495 0.42429436026115002756 -0.0086310584867035217149 0.088618385420084683224 0.021357874763498655574 -0.23161023447758485871 0.06111085757312521155 0.6322395225835253374 -0.3409184261087334078;-0.23327637743207949028 0.40103394790837509909 0.16532598262190981164 -0.07231093579047689901 -0.34160772040530673621 -0.58025679804620000635 -0.0763149148770532193 -0.31013057905987012619 -0.091180211125097651581 