function [y1,fg] = fun_8d(x1)
%FUN neural network simulation function.
%
% Auto-generated by MATLAB, 15-Sep-2022 11:58:34.
% 
% [y1] = fun(x1) takes these arguments:
%   x = 8xQ matrix, input #1
% and returns:
%   y = 1xQ matrix, output #1
% where Q is the number of samples.

%#ok<*RPMT0>

% ===== NEURAL NETWORK CONSTANTS =====

% Input 1
x1_step1.xoffset = [-1.68526232242584;-1.97558176517487;-1.65652525424957;-1.7386029958725;-1.73301875591278;-1.99136543273926;-1.81601178646088;-1.81978487968445];
x1_step1.gain = [0.599917048956742;0.531512601647665;0.55132604579309;0.569549802427119;0.567723226697355;0.523885623098609;0.525390285236873;0.55202541396602];
x1_step1.ymin = -1;

% Layer 1
b1 = [2.2563770480158900078;-2.5087398656270578634;2.1757908111885386759;2.0941360026959583429;1.7638723032356105058;-2.6213906356169753842;1.4954332308655580164;-1.5782995959915435691;-1.50789577805651831;2.5319043237857044026;2.277016995285822798;1.8232320867671902853;1.6882324130359334102;-1.5010330056995377923;-1.4655791682812040477;-1.2487081660916878878;1.6021844720900164649;1.5316280604873466764;-1.0428484953518863954;-1.4630929032940367396;1.8080184295884906831;1.3792912444875997657;1.3363319825577182343;1.257525630148415452;0.82599696266361755104;1.3524128357470288631;1.151791076245968215;-0.99169579244906380655;-1.1930660539097395212;0.91545878705306771295;0.72675137422285307487;-0.93000311049588968437;-0.3153722822779234658;0.97037000235329706754;0.62343926048218023528;0.77877502182451918689;0.46796656879457398936;-0.83670495873968497857;0.64756055434689485661;0.43304935815514855602;0.81453780725401114804;-0.52031633704818802677;0.46843768486182796318;-0.068466405913027786334;-0.4353509636595962462;-1.060068785689260995;-0.058188311909097754915;-0.4725157628213637051;-0.70296182342822011169;-0.050121332128885379142;-1.2865099560268455914;1.0683740090838498293;-0.036620617595876439609;-1.106360932018838561;0.61112672586440475175;-0.080588229265129610046;-0.78437614149989187684;-0.23936082136262509801;0.38675663510697572134;0.65731525117728661911;-0.88710829034569937956;0.66105804198891138235;-0.17844619935170488723;-0.49710807860553546389;-0.15105744412779786856;0.91241182653081809306;-0.63161863678726493099;0.56956393718198106146;0.97935068166662431199;0.680958660720918596;-1.4118382378278404587;-0.78346193313517931145;0.82691825241486105469;1.2376391578278915784;1.2833258320614981951;-1.0832119683397603005;1.3362838865308215297;-1.170924996807785945;0.9346654031641105087;-1.3820919536729017185;1.3692053497363962933;-1.5414011170041850285;1.4011262479761368294;1.5819664412779959051;-1.9794812839309690045;-1.3695384693243288776;1.7426923667445781696;1.5828668092816193802;1.9973187306333990421;-1.7147960137807209957;1.5448948690062931366;-2.0833272412462258139;1.8647185527425673701;2.5191867280060584733;2.7746286249895657505;2.6432350621954543435;1.8771468674679006039;3.0181311512002002573;2.3781206288293010864;2.5635354637294969216];
IW1_1 = [-1.3218330621308662653 -0.063311795762813621868 -1.1666982239062371196 0.91503842074287322639 0.11562571263610744998 0.63110705225771834836 -0.93712017506368205932 -0.32676988009890428621;-0.27216360873738004722 -0.22765378483242226793 1.4543407066144917739 -0.86729977898969745631 1.0108702416844113081 0.91867913292423020177 0.53536618707126570893 0.71283762152189067418;-0.52538862054586343842 -0.38166071787768102164 -0.38531387108536496733 -0.51275349025182537233 0.56400278776658885338 1.1309950394473671231 0.30921375234068837479 1.8974280606743800792;-1.5517684496465840027 1.4468804701790403122 -0.53890415522890067201 0.91235554937027518729 0.47645869185362726972 -0.27188160413198431131 0.49391632338405339064 -0.4113353853188217446;-0.47887291042911767081 -1.6830324327923638084 -0.99735748567178195145 1.3807322023511534592 0.17331295191270851275 0.7771407438654088784 0.44313075277258284768 -0.59546608967229519571;-0.096896053609626039971 0.34246596522711508781 -0.9332932233795318 0.072624056077777054963 0.36519608717570006817 1.2660994362154249782 -0.65969251555610131099 1.4031943431600590877;-2.3503713657300804307 1.4726636567612092499 0.46562400252504021481 0.44222221941296990799 1.0533820336221944025 -1.1644081016087362013 -0.27268003457005973722 -0.61972507383619057642;0.97371768867711028239 0.19276416209141317148 0.00063290076700083484906 1.1187819737128841258 -0.3846171086142358142 0.934300640679966099 0.2998482858760395664 -1.6808834670627941232;1.7205400563002375414 -0.27020031803853755692 -1.2179947096945478169 1.5498188826218119996 -0.71949980715792694053 0.31274440933893921102 0.24778505079060866856 -0.26243556228181885714;-0.6712138363587529799 0.31879149306349530146 0.31279924089443755797 -0.25304639006688195435 -0.54319439365736754688 0.41267688163045768146 1.2898613511707057722 -0.23638651018459808095;-0.86693685227850503239 -1.2666205459075103867 0.59924755555454112255 -0.35932602071032371249 0.72158811482440410323 -0.11219262827863600573 -1.251907224491325632 -0.057528510107058929146;-0.1202106250424487266 0.99044328220740696089 0.42877136751363292833 0.65917732575352183666 1.6497967184892377013 0.29745831071091743958 0.64684552917497450952 0.14469664848149302316;-1.0519891799096001694 1.2016865727210199744 0.21980467734234790389 -0.89544670541548432308 0.39550036031781232726 -0.31851507397134448674 -1.2396109514242608096 0.072828902826376926138;0.26207461856906882902 -0.83208422354567279644 -0.41015299000473992574 -0.56342245127319190434 -0.0059518661700805868681 -0.3714322786138581356 -1.1210996090061695618 0.47954664193078128109;0.0016363803496310580423 -2.0264334365699854246 0.36268943370658979219 -1.6849843574435676707 -0.43115107508720185159 1.1665995325903768531 -0.22147668770694864393 1.0954230021502078252;0.27103316765825230528 0.089135707948497733266 0.25541597270105942385 -0.16303567202378257961 -0.07648034272555979951 0.53854296598706996591 -1.1927579200902374001 -1.2357329253702931116;-0.63594987439191474898 0.46443198083418385513 -1.0260132466884530622 0.2092822682372529608 0.29486290854170260634 -1.0247190582628740163 -1.3404173074243646013 0.32623268822701917413;-0.87955570989114884028 -0.35374061669658296569 -0.020987187174115590899 -0.74550290667630736419 2.423326564728169874 0.95840318727407014521 0.45081632707383595404 0.95462612249529876784;1.2618036709256157391 -0.75956644711339449394 -0.84813295711377723052 -0.90669016568439186887 -1.2183065495822664737 0.59332594368912783267 1.0105116603440456036 -0.19898536207022268774;1.0306985808489503853 0.56846534418393634969 -1.9335960010919410745 0.66191101235119853552 -0.26480265951316667161 0.18621058888467539871 -0.25726376859932065244 0.093852639992243552802;0.20053123094934946491 0.23215978548336860254 -0.12081812259950513999 -0.31818952477154111014 -2.268890324825989957 0.83022035796977644573 -0.63873964454606679819 0.73858252809108382309;0.77516802561908149105 -1.3019220248170029208 1.6376751258948314405 1.0541929958163900327 -0.64216051273971164193 -0.012477885588928113933 -0.46935426934631285789 -0.49740852321629619448;0.028818261293932497663 -1.3749844009197944583 1.6364981066546469002 0.29363867623675982133 -0.78076198741912805623 0.22058266143266849757 -1.4913096450811493821 -0.43044195103008842107;-0.49688187710143189024 0.40134560690465154176 0.89750580933438428577 0.27192842437873809835 0.96531252631212394189 -1.175376210891329487 -2.3276316374474999016 -0.81494067985817342237;-0.88762994406408912695 -1.1405879928698390291 0.52295243126813795165 -0.67089200564829409856 1.478403715939482943 0.51188456172234153563 -1.1459260512254898501 -0.086415410343733983778;0.21696099266239970982 -0.57830340063016016927 -0.11080448360531780505 0.010552732000221838604 -2.06515909807640341 1.2777560948990434042 1.1447302081667953821 -0.90958453359668534066;-0.38506402834291447723 -1.8576709125964363523 2.1908311408782048524 -0.6313627925409982522 0.1899401663621875791 1.2661600339646237323 -1.0943092922235511111 0.39940973974796606383;1.7974225873726135116 -0.18144464343759220126 1.7738032683115247945 -1.5025979864958192156 -1.0327889204038971371 -0.0011400153190274124257 -0.96849583631547497831 0.80075490520602288225;0.41517378002530130887 -0.4131564805717922173 1.4586656696398674349 -0.18400585856886950142 0.077603183430165853518 1.0385485397037046429 -1.6729911963825012666 0.7218208401041901201;-0.5220427091556392174 -0.80765519874973701331 -0.023124691865226545961 0.20753611728362322819 1.3103716355267269744 1.7241018468284690091 -0.10071114117939874988 -0.60360697319487566226;-2.5370428225629484409 1.0412152775613232603 0.080116785533612025483 0.45492518552962457612 1.3762335714289357647 -0.30070560442874838536 0.096200028723345210047 -0.76229279673143812701;1.8337576037879670388 -2.2367264201344845276 0.36621976379222292985 0.017795578026999714361 -1.137179999224683824 1.2522944671341655898 -0.35402552227374667337 -0.16605822454042679093;1.1961820417325017551 -0.16796900460309882597 0.071182772496379026483 -0.51887317537230104314 -0.016037058982186842143 -0.19976328827761435925 0.95322309027072138488 -0.49496956380448503543;-0.21425987374324523271 -0.44170316937240283739 -1.0277518556506133329 0.17431364265730306395 0.11879122078878030788 -0.68099753156408682209 -1.1212414390955574017 0.1070284049047349334;-1.2322095729550699428 -0.13720570754767302812 0.482599589510651239 1.2802362031499288086 -0.17300707446973256909 -0.6872087903738270942 -0.18365750324519683478 -0.90658600555840407331;0.039412617830086066339 0.89911523892929712254 -0.43830385459958659533 -1.2428059405566680429 -0.54843401956800452712 -0.77813867207199083342 1.1823304600500506023 0.76955247208973354134;0.45459759749909600668 -1.6729688066220465004 -2.1990909826492317514 -0.89178691172367341444 0.47792718463127803474 1.1232728789363428668 1.1162983524717495776 0.38566246342045956697;1.2734864957703979638 -0.90737479362093453883 -0.29086140962939355248 0.35900569816260102796 0.78901335539277517306 -0.33380741521514156744 -0.074583159234864776499 0.083559036510767126238;-1.3388844403272841532 0.67633300154780595648 -1.3800323106690797204 0.77444483587451751205 -0.71685104559419154935 0.097362550479326653852 0.12855058811096378713 0.2681599370986637032;0.1310774211928552313 0.022647820427477358129 -0.51784573333310512933 -1.1795504823427680474 -1.3540936159370120517 0.0066035147369455831148 -0.54480010722895622077 1.0236802648425884499;-0.50611114681016733385 -0.11131413959728680974 1.2004455891385024113 -0.63234388501989013953 -0.20508873638124841543 -0.78981146137857427547 0.0079230549127199748072 -0.58615093591536526763;-0.23611132475717183654 -1.4215319021794978749 -0.67148106134309604176 -0.51916416430851441977 0.97326308624687984938 0.63902370085577986369 -0.46049650609460129891 0.82047516285218502485;-0.76398697208951404924 0.90394857026690222934 -1.6647760322768159202 -0.17103936165553379478 0.18010701424941871762 0.05683105708694993069 -0.25705450459324052925 -0.36218142888746895913;-0.59898320417774253421 -0.053414347593473139597 -0.13361283200021534245 0.67521323290887891311 0.29071064234496385437 1.0376241204150979947 -1.5843254898217364879 -0.59903121761870659068;-0.42973652311175825069 0.61963168016890446399 -0.68677660087210457007 -1.8246404021854054633 0.53562210987681935226 -0.029976915840595391716 -0.034973531060467216713 1.5434539859213478596;-0.30317378377422682378 -0.11051618982462479979 -0.35885306459700072601 0.87618274675307139532 1.165192802523151272 -0.74514559771027599755 0.98613916109552046674 -1.7723815198932404424;-1.0978554825565096653 -1.167414779880042941 -1.1780325510344660245 0.51260488222532174518 -0.30457577165985466605 0.40951359342696802557 1.0710353527487923575 -0.96946922524572876068;0.7707406688539537587 -0.52954032371097092824 -1.3862485822256747081 0.79483464818566984533 -0.68495308006174326909 -0.40387906459942835014 0.40583856177478033755 -0.7531673529701040648;0.020797768555069748309 0.13004371999358418921 1.5292509941394838435 0.03004840210591579186 -0.98209574944412536546 0.32288978376732335729 -2.1233978239420068235 -0.87160332491704206603;-0.17864925372424630967 0.21655330990290899695 -1.0709569401337648564 -1.0149622584024542427 1.1991013756837012316 -0.32856868347229695182 -0.39399686090977054098 1.2032139419779162015;1.8732697543939560436 -0.56909437837556486883 -1.6023732645219201931 1.2280005215883063041 -0.76896407221060469883 0.26815050975153897905 1.0938622887278537377 -0.68046706455801397873;1.7937835201756797687 -0.76230552755667346787 -2.3546858941710828717 -1.3350893879867460345 -1.2274032572692403775 0.25949564857079615576 1.1708570716858193173 0.76213079412624440412;-0.84189730344599400524 0.18571449557763752836 0.075625142656326291291 -0.47289214983606597809 -0.66068163926860545843 -0.21551104337506862829 0.79960669922270244392 -0.50813187528272940607;-2.6146227006492748224 -1.4748477626306584209 0.83458457597485691259 0.8284822759011708504 1.2974145825367455753 0.7962207566016974436 -0.51659537046460790588 -0.34757509942067210673;1.5610435344817896741 0.62015906856276337145 -1.2172000471462918192 0.22691478521598137941 -0.15978736366370824284 0.45051683386318885916 0.37620016129688893525 -0.54965014932788658353;-1.1180953621965339373 -1.3612630099155782482 1.1935443211503251604 0.26096881248142378418 1.337538137227237911 0.36690738612025203258 -0.20774259203407274832 -0.4307334023931554956;-0.74151794935141990273 0.043174326588342720745 -0.46279974050198169344 1.4521285993933807923 0.56809242875613030765 0.71093012085680418188 1.4374157735112658152 -1.1102861993274766306;-1.1624232373263534424 -0.1141183890665557199 -1.1670396377622880291 -0.69988150907788415633 0.14234438866167556381 1.0881320827505491788 1.5303567477843587064 0.29991323555736398854;-1.1207165173093043276 0.2466328261774468622 0.56292755000860783543 -1.2255173991030625658 1.017473487435372137 -0.68206666617942524056 0.48704982183679551566 1.0699259393089186609;0.43082735606878419521 0.17146672175101282387 0.27761260622923639163 1.1401489656018557461 -0.57213627350302942443 0.63958120604378509988 -0.85155743537504624552 -0.46435004374652677495;-0.28977686843426198049 -0.74861161572154877319 0.48808739921421984143 1.1516970336797884844 -0.39306717913186406399 0.53436203048598429621 -0.68132878022345144675 -1.4649481532959340857;0.41128568996184661222 1.1650815519270985021 -0.71380143970372178508 -1.0850184395241602164 0.78768208481138668464 -1.0253404968656840701 -0.51957731036963983318 0.042116769983338922523;0.021180622974929320945 1.434922158021056493 -0.52698065380454273132 -0.50775582314123890448 0.49178167071144507361 -0.70650720104781183917 -0.42134014143355247306 -0.072188586721177852579;-1.2724109396701908103 -0.62471522419349245769 -0.23236177298885685172 -1.3221348268171007057 -0.54974250558920867427 -0.47545536337070581911 -0.0059454188975101062223 0.95835635793930151749;-0.46041545702656500039 -0.18317685730740587702 0.59131698021775436214 -0.46420578292520814356 1.6721478610964175537 1.1174587865793272901 -0.4121454155249110185 0.33740861819235512531;0.67263913909382921918 -0.37136073932518276486 0.90358096760746842158 -0.34213599965977209427 -1.9873215950467930657 1.3019981248347691771 -0.6594442932445476746 0.56798890847170180329;0.27208712846859117729 0.47479248090087522449 -0.22473728192733646858 0.16114677989769032873 -1.0851635471454865733 -0.2827702045486715221 0.4215230156109256443 -0.96680228080505392629;1.3729728750554837102 0.47269518585548675471 -0.11655331917725586521 -0.70473856383572019979 -1.0713722699737762145 -1.1220852458835126608 1.3674035885144009139 -0.21456382960671518956;-0.59275860013893866274 -1.5600255073607596223 -2.3632240872738261572 1.0526866233488987312 0.21451115940496348622 0.63918782760961379008 1.3848597095913888211 -0.72059628484832027873;0.98467155442048903691 -0.83732253200649897629 -0.44407683336908987393 0.3003826916510173306 -1.4819691697689909571 1.8002121113187243839 0.25342912696877817336 -0.33899368009645913791;-2.4880310827953366903 -0.87546916659654072657 -1.1728688075608535435 -1.2142135582304673935 0.80852524844145556848 0.12825035631189901641 0.39761306092351444974 0.46553949824181645178;0.077433816516066539259 -1.3951161778749081588 -0.42186333731198755181 0.45608519976412487118 -0.43903548791729729572 1.0966050484878979709 -0.49532367961418355407 0.34084013032032689505;0.099517507418256156981 -0.55433791971016521671 0.79876667853175820078 0.3030066055689875637 0.56114770151906356865 0.85667786145079738436 0.6105860899676998077 0.58166583350022549315;-0.42031635843285952703 0.11248512715753915259 0.66242455207979600296 0.54639440604957023595 1.9581358188052784275 0.49712961321603454934 -1.7129895358788600479 -1.4515913164563469806;1.5625837800239799069 0.11310248167017709908 2.2255733211383730286 1.2895634400587001611 -0.71045539739801899515 -0.13374985593807059425 -1.3616770092329024688 -0.6649260635266553976;-0.97507602825325012663 1.0902178354344633782 -1.1058371071658124052 0.73695015837679234139 -0.051343205947814801737 -0.32906670012452382545 1.1059484833019976868 -0.44206742897898981814;-0.56055664189364939887 -1.0498169770242717913 -2.791146584999092628 -0.10497137330026448665 0.57243520282220705653 0.33606532481037648674 1.8136578564625012167 0.052906356594858740261;-0.91853903186697605232 -0.71106615388624527796 -0.19012053976411769085 0.049083710610264182084 -0.66490916817462097921 0.14697367886870782439 0.89451287142421131993 0.87012128924168907762;1.7387674148330365398 -0.1066238928320449586 0.74423443328919913764 0.38451264408172430853 -1.2098286069300967505 0.13312615520634524247 -0.10032849846671948457 -0.857368852140924953;-0.32308516972325301841 -0.055303721675571453076 0.15117358434330474548 0.048548913911119206954 -0.22618242586647502312 1.1232964351409002735 -0.25296492220886834801 -1.1789906937084395633;0.29740698936204973402 -0.68629838808984111598 0.020120809495919114718 0.23848547752312571069 -1.5385014210505272292 0.30959322826583551835 1.2368870659881441298 -0.99346729384767129556;-0.50441046907723419146 -0.43945752054967612832 0.4035567687935857073 -0.42992924993250758448 0.87800794690077932358 1.3859914503332597668 -2.0658575890149100118 0.94792538108849189182;1.0792947720009751222 -0.82843983048243807765 -1.7799662785893741734 -1.3112471587480818425 0.16870707781103447265 0.39400050721813206778 0.27840198947815741892 0.18391457059719731881;-0.19047130443064655414 -1.9172125379592950267 -0.34800151302816217935 -2.0419944675673225021 0.39349573195640213941 1.0896917691364962355 0.11249154423917316625 1.1720253429921143606;-1.6763196457505191717 0.47895014377083350299 -0.5815681364728948477 0.92167427376702359965 0.57935343579576514816 -0.76693733185768864224 -0.28336631270974232955 -0.44626958169421887535;-0.46536533078919917195 -0.10969370707099211637 -0.44837719415857668626 0.059841620915038300221 1.1112374179854636047 0.7717376084337244091 2.0379482674979008117 -0.93266732177051636654;0.71064375295237636188 0.54138395590263299617 -0.41198380869425460515 -0.049524851911221072498 1.2924517271270594687 -0.589398417037607536 -0.24978189112756160606 0.10928807795856475271;0.54787815560435082496 -0.06305889028014992348 0.17293963573863646577 0.27689057510829911957 -0.36144296618688609435 -1.5675613661559038015 -1.4502476108478385974 -0.29999669383562632685;0.57002506152575938003 -0.60620770460007766811 0.94818151518253834809 -1.1703326612468429868 -1.3710197183433312507 0.52341720591535090268 0.41381248190207436943 1.2754374482479342579;0.048582743847096529488 -0.31102237455776970965 -0.093700651554609909466 0.052875555052592240757 -1.0672551656228030925 0.99069615620872231165 -1.3163068264846173872 -0.0042413516914606421912;0.87694717940495070518 0.30370689279925533466 0.76570263174822306151 -1.0654528754379615219 0.15446519646623249611 1.0389801139884111691 -0.96480774272696068206 0.38860247492271104974;-0.57275640336027644484 0.3975597663641278201 0.3713833351587029763 -0.94090019691456994178 -0.46550521171722475389 -1.4191564223984314275 -0.44327465236463703402 0.79816758006262866765;0.17085308333144971771 0.11316149177553126715 -0.2661400664971897978 -0.22973829725630590115 1.3692577113797168575 -0.27821031816204078169 2.0552466872298587042 1.2068730324912244622;1.0245884988464037946 -0.42592824948974794541 -0.17383215118047121162 -0.42353368261245671889 -1.8020455157184696038 0.16245079877126417101 0.71905972343119317625 0.76424429169266161477;0.33800314535257458548 -0.72160344067841764026 -0.84176457871415344414 0.46872845812828101142 0.087012926266984383372 -0.65737468872914373019 1.0194581626192247281 -0.41892189014496056254;1.0396340217226467395 -0.15096767074328043545 0.40392503660549999855 -0.8661316310673022878 0.69362875905289567147 -0.22232898371055237474 0.25496373988131604271 1.264583129695580066;0.64979630499651841458 1.0469444615400580467 -0.47982477120702649032 0.94982919226383599742 -0.23313211366733688212 -0.8439763398712321063 -0.11476547380778216734 0.51782039842682214825;0.7108789221378994938 0.77310598082537984599 -1.0795065999098549803 0.4872443673081068849 -0.57129047962611267941 -0.49937647117331385171 0.23435928799213348594 0.63331618256142552248;0.87613577972054179632 0.38782258786572976206 -1.1444708524644859882 -0.64973298294016756937 0.095920800201017009101 -0.49205443010882604638 -0.6920658786156667075 -0.035928734251046381964;0.031611682417872349893 0.81627699478620274753 1.82103623785352986 1.0540632995967196273 -0.43083447567401206291 -0.77371346752394043467 0.032348400907812657756 -0.24969253922926110123];

% Layer 2
b2 = [1.5334938318768114307;1.64711610836288469;1.5481069024660343292;-1.4054244344361701557;1.8763829147196831038;-1.4900938486937045369;1.3313020855577459844;-1.7408737904122295603;-1.5057830781969450129;1.2875021553709786737;1.5001975888197809361;1.0754966683931723725;1.1663149397732257562;-1.1945673618651733161;1.2662198132177899801;-0.90082674161652376288;1.3593514213775359512;-1.1243685926896647143;-1.1450914219126246962;-0.90314251847813253882;1.0569544926832576959;-1.225070108722040807;-1.3325203925993132081;0.71884981943669401527;-0.84454838228386253096;1.0828523175332849249;0.74411576229282816453;-0.35252677081961114602;0.66772088929698525384;0.83548401224738899629;-0.45801002672159368823;-0.75514802542372705396;-0.44825742169643656432;-0.648799871622915858;0.73444237304244153197;-0.32366098753342226191;0.17105384242878540757;-0.89858778436068087458;-0.44081424938841179406;0.019421428319111418842;0.54874803322737097933;0.24713610837829358413;0.17113474049092464169;-0.10130956506042834708;0.12697357117906207802;0.621456821070485943;0.41051973430091126538;0.30267795311722334173;-0.1503949142127919969;-0.25898098697733612505;-0.25649760128250825852;0.15392080133876323567;0.19251945003812365176;-0.46531879533008974059;-0.56599012040673268853;-0.043473537927940932024;0.25934413174908232946;0.35824718448629389034;0.076051744569251414352;0.060057816834985129628;0.10070375765670373791;0.10620581771451161057;0.19374555073236243707;0.30550651861522026831;0.43771435540145287035;0.82360073089216079278;0.4879758018152243193;-0.82370067776597344356;-0.66689304071070065749;-1.1198396456739727611;0.9019570358827555534;0.79058421195280936811;-0.71811527266508212719;-0.69853879866641821472;-0.69769893045655428931;0.85647544220093874134;-0.95989378922307511122;-0.99713203848449560862;0.76202729126408597082;1.0730408346085058557;1.1187856559503692733;0.88958326591260294958;1.0442033965969255149;0.96322684147822168477;1.2047592969792730866;-1.2166808681203493681;-1.1373186264363588371;-1.2555815888262442659;-1.308599652163445537;1.272174959895188362;-1.2441595955909765525;1.1662773822925285305;-1.2508039508479800173;1.3416335862623121056;-2.0562420848383395899;-1.3672472658266290324;1.3906528713550789789;-1.5150240564481911587;-1.3988238244186739223;-1.5329301746903598591];
LW2_1 = [-0.033732045017601880454 0.11335993886993549207 -0.099035934905644967818 -0.22929188851254278525 0.34814092567037902004 0.081214676113533001978 -0.087412042261288722123 0.097362135890110806935 0.31898702938183554068 0.12908450030661705599 0.090521044279480405992 0.16199734967797152496 0.047715975815927041959 -0.19447516964483432811 0.073577465310850145852 0.041762808870274448214 0.24341379213671288095 0.012274613039950914295 -0.26202269269313827049 0.26679117422533271675 0.18714563557052585341 0.032046835618613156438 0.12231423224670651129 -0.21143732514464672056 0.11953062381031806516 0.067815205670256367698 0.044225293300530911511 0.360588127000505132 -0.18549887051879013211 0.093944247939298911043 0.043504305518016934962 0.1643330134748825222 -0.1725259178106217095 0.21112887754002754304 -0.071035949898585887263 0.14549233878586240176 -0.15906258492562144746 -0.002327352161222510582 0.25604538740817200937 -0.044259111381362153947 0.1088886740192417657 0.14752525887112594161 -0.060585606004586720075 0.081194052100697328145 -0.018251536270531477923 0.18272862531327210833 0.066711062291043926598 0.21557597314319107418 0.24332111807625511624 0.32391693594265519307 0.25003646871359774817 0.18639800169952744358 0.16248664110968241703 -0.31133143509384691994 -0.20752096728204585951 0.042926135761484698894 -0.072577868992309099716 -0.081541924253057534999 -0.24750339059408521525 -0.11699767071040395594 -0.19960216027900792857 -0.05194406287741089312 -0.0071402045317159263185 0.011460465876704961641 -0.31702285321826323417 -0.029066604700157518126 0.072348573392547826932 -0.024931238073064548866 0.26741110336486556553 0.098045940049499541447 -0.22517178388606115536 0.28913156356086605614 -0.15115270651311410455 -0.32172204132649312447 -0.16971169662444104964 0.18144008749163897942 -0.098112441019521864916 -0.027037077926513993636 -0.18512174458846478164 -0.19718764502375737968 -0.1552186122795922163 -0.074277464793758074535 -0.19556476955898322023 0.13488928706179392769 -0.15156910461840311655 0.03335342000146750141 -0.14262301604744570538 -0.26667222338341900478 0.16889513909492845367 -0.31108666410451463191 0.13927170352928178176 0.082614073989689493227 0.16503701631551415119 0.22311052033600586864 0.14616009700983811914 -0.0092632422488934263588 0.0058370511218664633199 -0.077611091330556422618 0.36086337241512334018 -0.09644633511426231598;-0.11052156627819638424 -0.32026645653456181639 0.40540197707486308465 -0.087741886304794763918 -0.28207298497865884723 -0.09967661190595109022 -0.10230070589112669199 0.03715776742306736713 0.43138105826793499142 -0.14732428516785911476 0.060338099887061298621 -0.040444746501679597339 0.34418060230628905183 -0.25632178543404354754 0.77072904738768410748 0.14773275355016540766 0.037262220350313936257 -0.64006729872007162019 -0.30704950550944909438 -0.25864618647168596821 -0.20313915044769534357 -0.34366342045124737004 0.12194063034709409776 -0.28649416856648851626 -0.41179742745023278916 0.3670767814709601784 -0.15246741985973374933 -0.49858145720068408613 0.19547174393079552734 -0.64858752191793644926 0.026659679404640451716 0.057997017003050405082 -0.47385986642289140702 -0.2429069505393061934 -0.46997943053198021346 -0.074137349018944642687 -0.1524093479999957812 -0.059410499140642600291 0.90517644175800915374 -0.025973281036999539689 -0.12816178389510352043 -0.58707292156682644446 -0.26976959757046897748 0.31437263784821650736 0.21056912782750639157 0.13454070844029092369 0.3461104012978735156 0.4510082740168386839 -0.25608298370851489967 -0.16726758031665825421 0.011288705629905118957 -0.033585596115937220441 -0.15358525649982524008 -0.17924844905954556706 -0.22184977066254787936 0.18794147979736725018 0.32926916150741653011 0.19523367484891560042 0.12215972808685995887 -0.26074650921425535088 0.4727686418006364355 -0.29949910525439810138 0.30887579962166167302 -0.053444562475530914269 0.47999137470347247314 -0.67055127710133033414 -0.12355131147374799616 -0.00095278296034636308746 0.22371808224403216814 -0.35700943065419554756 -0.041199030109376894027 -0.062541713027897238852 -0.41452786013356190953 0.22592002040407638264 0.20897984188196372379 -0.46578511068700639841 0.043789874077018085818 0.097207288970410102302 -0.4471412891951958013 0.10829415623480748154 0.21167890682402293323 0.16710825898060713279 -0.066888514331549617231 0.45583116209914126271 -0.079961673928588453131 0.41112485821842947864 0.73262808311357008328 -0.16835000365624636087 0.45308420615502431605 -0.72720983988438181456 -0.022552783444887702924 -0.18668901178651314821 -0.48902402480635692728 0.18978104482780983053 -0.20340333711102920322 0.17590411653921436685 -0.28311720249378302672 0.04990467624805738911 -0.38965712123784118637 0.10668393267135325986;-0.095314506333374085512 -0.10096899465605814472 -0.17030621210178986669 -0.094564721628096440331 0.1576259327236715635 0.085334502430599853962 0.12647171900809128786 -0.021838772501905967527 -0.14672251027542018709 -0.13318910539322109665 0.22046268375479519119 -0.17687182198751480455 0.32400104400140566918 0.51731879417899884199 -0.014001067481779431306 0.14786582002603215757 0.025274344113900969189 -0.26493979843266357577 0.054207209011371056129 0.015730396167035164134 -0.24956943293864045086 0.011870339019179615078 0.18321730243127715143 -0.30669495439417510108 -0.08576874263684584887 0.014776986005444598532 0.24861530152222349743 0.03075510955556562398 -0.15783940380162173045 0.020976423612323404772 -0.1886275927012216469 -0.05676939178838558836 -0.31950746383560696406 -0.16136103917359193027 0.023111852088916775422 -0.27188382407105227134 -0.097421708374309759493 -0.30441959143686803113 -0.10808158572881652881 -0.15216889841946265594 -0.078633005651938522873 0.0079133515803562967661 -0.090196876213174029258 0.44260072530733052254 -0.15941928164329957629 0.11592354561579293337 -0.50713331446787923706 -0.0017616501088804222778 0.1090830397444208788 -0.16750885248884539447 0.21244748929182133423 -0.34716051093914196413 -0.22028289430760611411 0.25189431834245251673 -0.028831190097050776733 0.2589285256389281531 -0.04876318734632031221 0.10980919183145276818 -0.14974335868667915106 0.063348138227312819626 0.049057384701419036455 0.2383726729629294383 -0.086879201119494847694 0.12299611960872663952 0.25783692901473698189 0.011274002893809918421 0.1126470454282873096 -0.27983246012739459996 -0.067173425298966915609 0.12170465722136021569 0.3729589325624377838 0.037940136645863493936 -0.18617565008992598141 -0.12973159502318382108 0.10337733894598938322 -0.13654835650819538428 -0.056459422547308173168 -0.025703409883827826876 -0.016049680617256402437 -0.22340615841192834612 -0.12420061286113642796 -0.23695184279270956051 0.07572154350385171262 0.30341125195225526756 0.0287769894579639543 -0.1214072933417733452 0.12814432073611670138 0.16976357348131296265 -0.085564024532283303182 -0.10570152091404395878 0.27590728249789747695 -0.11652766782017805192 0.05641414690388905917 0.22743788474988851922 0.1956098796987030819 0.19008600150479448843 0.028029946135230392884 0.025633619429185391936 0.16357488569171202419 0.096765519220873189021;0.12668666609116180366 0.14624787653510862295 -0.36694580984023184023 0.1093383804815540733 -0.23512283513209689123 -0.071439640706506005174 -0.11896755018877193388 0.10129817181706234075 0.039073728692844332533 -0.11921179358728448139 -0.071670018775142854683 -0.26158964889005653642 0.041576421305615826607 0.26291763928519501503 0.18376359077328952019 -0.014499163703104138087 0.12490587532440478036 0.012910703706877120142 0.1481479565528461273 0.037105057795948519217 -0.078865967917153390054 -0.049497792520464718724 -0.44631550417919713114 0.00075645809344598261437 -0.1697257894537429479 -0.074240377455935216422 -0.0047965005395122391196 0.46220605220319577189 0.42405973628758614202 -0.32522579332397427709 0.1627840580103573076 0.10441775234052726173 0.15299373819714312539 -0.1595126193404173276 0.23475972195289973588 -0.23014650976664091653 0.18158883251505433809 -0.089022320690221631856 -0.45120255903616174331 -0.11871376707370265291 0.20424064123112609104 0.14295953967725971712 0.12816496140149646887 0.19654865919505004612 0.17158679717163968781 0.33654646197786097783 -0.35063056028972550138 0.040939929153797065264 0.0087822485344927238293 0.1747314141001608534 0.23918375247926473848 0.12488403488076840753 -0.0062576741024876073385 -0.20803905273396530728 -0.050464246453749354859 0.12880087111199786665 -0.20275783942737229948 -0.11796802386506355376 -0.038954916022239792495 0.3195114067497274446 0.0098608204151311544539 0.27739300491304408336 -0.33153485264210469374 0.20295829075361745963 0.28844248557609009076 -0.059735465832462295022 -0.0082805669142383426379 -0.12849600507866257293 0.010372103563990597852 0.19565691685172512115 -0.1371567238840819547 0.022630340201479370171 -0.10902335358151765687 -0.034745891530855194107 0.33948649723753954177 -0.19396557226458932544 0.17737486889347708896 -0.23147470912166565049 -0.11116806086244110374 -0.28852489390034780081 -0.26308271666458465932 0.0043386543511529330683 -0.043869640944542286076 -0.10573166929955206406 0.081506573300045973007 -0.16896124078228577647 0.080005724343968229184 -0.26947740503849454408 0.088902383063193479718 0.14184845348817276545 0.18209819512151664833 -0.16230368687922272497 0.081234896343771359484 0.065343989886775977194 -0.038462825848708810661 0.20109618664372930219 -0.060040910590858413698 -0.24507662568860510977 0.10304188266115694994 -0.181047974419048463;0.49319324002313891242 -0.18029343128524349948 0.35558569110509818945 0.044133429916716003516 0.1969366664935424116 -0.75018757274103242683 -0.83480854227693879199 -0.67402669615912247369 0.51018896848968853242 0.52733595698373036953 0.62649432520397718704 0.53904210884003667115 0.35241486645862912797 0.22605580229850483209 -0.015773358280019425526 0.20527540664295557127 0.085939726779216268904 0.048862569939930863838 -0.14593886168972988737 -0.76812853479672771329 0.25778670783818119494 -0.25784851166999639416 -0.068123436551296934205 -0.28863289244597079009 -0.41053522913303208686 0.35921379604972619726 -1.3038759127052541587 0.75490282597732705216 -0.30647944529987092288 -0.73572989174767144949 -0.59968384726714207833 0.79105370303476574279 0.71680181889140004436 0.083451839887772036319 -0.77363334459407984145 -0.37046977964720068099 -0.14861851259079617016 0.0019383527147146743363 0.022668643824312342816 -0.30946267989469355975 0.36299941800607748998 -0.2251896831679367772 1.7030859828177631332 -0.055565704200482693431 -0.99467337804558186853 0.45585669444750709367 -0.07958443967544567843 0.014719751629319289057 -1.2927193204594629172 -0.33924218783304910252 0.58919105879830857564 -0.56512578189261108985 0.088245017406558531881 0.69023837289383127569 0.20233579377219051976 0.42508597332055764184 0.88358793863294404769 0.44845058752925442969 0.82637345061654032818 -0.71178308854001393069 0.10243714284053886954 -0.53117801781359597069 -0.24758346607371334303 0.46555066881128126521 -0.44809875590735881445 -0.72564771591116861149 -0.60108670343545445025 0.037366131761004672818 -1.7944907183138016915 -1.0163417439593265268 0.25025367061658582157 0.3253329963350212739 -0.001631628707828829605 -1.0368837763140010821 -0.37745269326435504365 0.41013337603998351044 0.8014839213997687617 0.48430720420127276737 0.16270255074712136611 -0.16692645593259974879 0.66899632627901817195 0.066369788386389336199 -0.15023670328432534027 -0.63555213764229911977 -0.21581965227427582499 -0.29694574466731621376 0.068369651063168918048 -0.07676604718476016942 -0.27888749895282399782 -0.51323168163160581834 -0.11443270216234034675 -0.077727264498344161847 0.39809731853742919006 0.29915178736253583702 0.4290341759691390644 0.81816435572206624993 0.57900524030928124386 0.39454041538279638335 0.060880831918535369129 0.59219063902774260466;0.074528582602328807827 0.35931864887245085205 -0.35694011560588972953 0.1286252345201435443 -0.23404620586194413434 -0.073035562677588039548 -0.13159808160250729969 0.10818867616238563023 0.04615593182599637273 0.14731490527008755942 0.15993022943811058267 -0.056542577935500729081 -0.00034360527821997990591 0.032316248230217475834 -0.089322432730764664277 0.023013794272963891685 0.052578845981490839046 -0.10812669369137206665 -0.41259365969891831361 -0.11647013909482276106 0.3449260651645387199 -0.11165812350944129272 -0.1191633184986511107 -0.093854631166801150144 0.090674763894092832994 -0.054612010118722180418 0.2901226005233160099 -0.40914879802885134596 0.023741420028160688249 -0.34147974310813639098 -0.019662800366507970917 0.26454358126226173997 -0.41015621909568006354 -0.12362376339326168473 -0.15452385905829649215 0.034562595718917073218 -0.099728216507289704773 -0.064015657465629344225 -0.11128109021834085846 -0.24380852353388637876 -0.15503432782357476349 0.020653468935942609352 0.023317147610901194088 -0.34310623582639793172 -0.22418028846741519522 -1.061553581099185406 0.21181350605418178268 -0.1681029613600307504 0.10859432695928775137 0.27909906420499791535 -0.043376022562901191126 0.26543854060852545285 -0.41663205765897715072 0.32050094380182575504 0.095683900156817713878 -0.078980728178990544652 0.31784142958168470905 0.31119638789654846533 -0.12399295164932970514 0.14548395390091756196 -0.24559599633196324553 0.54471388572933543415 -0.12411718751151623596 -0.30187248194134064239 0.15818724625027488773 -0.23539968776323075272 0.23407983707485721658 0.17122567639334107525 -0.16938096448538694783 0.42687108634706966148 0.048186898345927951792 0.1084924350249132502 0.26476757613811746639 0.009292431740411269056 0.016125490579769204136 -0.26205382651703862384 -0.022580672110338435854 -0.36797073613333680653 -0.1202479302111983811 0.040309909560846179932 -0.013664986926866401831 0.17202967070105920633 0.065547180580143166173 -0.083609775685772505516 -0.086651659391444244007 0.0007931767574160915801 0.1087294878153829969 0.049669976581232969104 0.13862563411052250539 0.069685476408940183468 -0.12205714574786576121 0.37720676291176186146 -0.23137992534830187363 0.021216289557550314232 -0.14047490093432210556 -0.052589520867034653118 -0.15319579286357637438 0.02259957995959334387 -0.36375927255823253814 -0.12337431677825583254;-0.20612019034849693444 -0.15241758328695098612 0.062860007072520943106 0.080566199785291919833 -0.16295387542181724583 -0.21592551879194291087 0.25023125061817474979 0.016325445749560990594 -0.019199780285158188353 -0.14478317067055371248 0.0011924309931855999172 -0.16238706168540140151 -0.1986019538561878961 -0.058075553595133971863 0.047959282838938611937 -0.20498022829766782138 -0.037051294590972567999 -0.00096458739830476583708 -0.25146756688266602708 0.18276648837879450049 0.013409669361638246188 0.0041371975633198356664 0.25914085494489708106 0.13226861103542428277 0.057234660872795821429 0.075872726479310412251 -0.14318444019933876388 -0.10995216317732281475 -0.1514381236645257478 0.034518861396401458175 0.24673091892521442636 0.11408230621678197569 -0.16132493677912329577 0.11704077992075846704 0.032204614442773414618 0.041587149681076206187 0.062996855782593008666 -0.17714159246418828553 -0.18146236609037408316 -0.14792918660057338687 -0.15623140251996378569 0.068619656051422645016 0.18840630350797704651 -0.15151356553974559827 0.025895770809575783394 0.045138632210618957752 -0.24022136151640449686 0.03356429533204010468 0.074764907149561146693 -0.085561024189843126742 0.16485190545156400144 0.017832762562894229758 0.16449974369638858951 -0.12680842169821895937 -0.2328313972322728076 0.1449133653034099245 -0.0047519822131488016412 -0.12178584497080492677 -0.21185658265896978314 0.24268190709763459711 -0.25236010674525616304 -0.11481775509517622158 -0.13519720965243137156 0.12433388638865121301 -0.15340535793028425848 0.13457259574795854551 -0.13048671890119692418 0.21738164811337046256 -0.048812945229387248725 0.13242903142760029112 -0.11003259288791066017 -0.06056570893402528355 0.23860442762394509786 -0.18899759723552253532 -0.12528197716919026172 0.1401892826718529883 0.2565994553809828882 -0.0072696901843168019314 0.15649922089507781187 -0.222629115449657633 0.17228071548164528015 -0.11102493518746049672 0.2682022717153756397 0.21122832073482147863 -0.16220770633412043282 -0.24720825347488659118 0.025421702890343005066 -0.0021052938648781160079 0.19392543026140890428 -0.3152534661262805793 0.082733800134528703851 -0.0055056467549817675322 -0.17652208851939188428 0.15865471274901099541 0.26730849110600130025 -0.076822803656643706693 -0.18863005700942434006 0.01642038220041490415 0.12812236262589415947 -0.17767081267457904281;-0.034059282362132542454 0.54071137981348893486 -0.66207694645973691472 0.11526833032342768959 -0.19609997588271627089 -0.086520269856331252778 -0.19455801937388991774 0.4270668233571406347 0.037395148231175748266 -0.56109170030782895555 -0.29859106657949713304 -0.42065433368363958078 -0.13916890030381121046 -0.41656618769094239108 -0.24212360953977610234 0.11415955591569190708 -0.0027952128141753135836 0.015547411554482486531 -0.1659916064387221557 0.2812135218639830736 -0.0016664338411853825677 0.074138261041615319269 0.036473433874890492934 0.05392470646737924922 0.088216772461409020956 0.12799317980431818009 0.69713980085360582883 -1.0569401218513410079 -0.62527969782766767981 0.56832753587628226377 0.095131821679268341319 -0.61819535668398373218 -0.53737636007029077057 0.11007948976275880315 0.25581414954325498723 -0.17606314939001599384 -0.45711797780436036476 0.05321067499959685615 0.30743096457295310264 -0.36413468744752697237 0.069696270965065976188 -0.14002841885178801684 -0.14838462479624414669 -0.081834020568968449116 -0.77573523854122283794 -0.21200791856770442867 0.092786390736600998785 -0.38666185113488610314 -0.82261960078253193451 0.1122651211335203153 -0.4075465807195057244 -0.85786061298752458448 0.24285541432599708211 1.3706051401413203994 -0.12087973340627397589 0.091104792616074237177 -0.59157500836555731993 0.31125400759639310078 0.47483417034650160504 0.30036719338979273042 -0.28799110033562291822 0.10968582986727162809 -0.58516517219590069576 0.29883466398121666385 -0.65285543059493411633 0.72945387793274540922 -0.017335737024152749614 -0.52089954179324837735 -0.19402766696266288138 0.45857858171158238925 -0.64070475211829858164 -0.20226880415757833576 -0.0032696070536943427041 -0.47056690255445421389 0.50707330294610930554 -0.23866007244981157775 -0.21383621738349131713 0.0015528907001414948234 0.29452720964852280305 -0.19948423927075464857 0.0078480691932139978045 -0.2591200047498650183 0.35820703160588496239 -0.43669648212404549303 0.084457188564116478235 -0.00095108117286496918902 -0.18175218740507556592 0.4728462699891899379 -0.64109804744020482126 0.073280065233011434933 0.17455465988268092925 0.010188555694068976085 0.22090406722799696415 -0.25669463722094187919 -0.59713061129696376472 -0.13643927339180816904 0.089794531605690577902 -0.40068320830750614459 -0.22824542443256290447 -0.28828517458056174272;-0.23430718937845140815 0.19328928148875060278 0.20909330846157078709 0.35049569940319341699 0.37652291463850973141 0.010220709286767258941 0.60231417448748569843 0.37889587332449153889 -0.15648938094117262332 -0.31182732276293090301 0.17972315371045788357 -0.069969481147168777202 -0.23927363850730337669 -0.12401984513939277865 -0.32368555716673319544 -0.074253114552946558602 0.051151629688840745402 -0.18074596719790900212 0.0083733384554978453063 -0.14612344562936344095 0.2675714486679841575 -0.085894247621273414617 -0.28402365433804649397 0.10517702690037331048 0.25911219506084726127 0.098095021060397233348 0.25167873350368946683 -0.34484024965525988948 0.46990432454863301226 -0.039313480839178238657 0.075588905515155194181 -0.030662884857780535464 0.14131419707687206677 0.20381624346118379365 0.23270881011351657319 0.17915257862436631542 -0.011386318273476218541 -0.15223804716028480066 -0.1325842071774253339 0.19249815619108895381 -0.13735616839310815784 -0.17171547108675933035 -0.43663346705874822584 0.37264096461976020658 0.082413477839038379313 0.24268269579452314555 -0.06608882170177059201 -0.15958398010737606665 0.648453710103463421 0.38060356096404712734 -0.039624019910169658298 0.22146154281285618248 -0.12973366465750324483 -0.22788104798852523714 -0.2233659531603606474 -0.11639564120002132697 -0.09575237636369973715 0.020425949427889108362 -0.17038907105868925096 -0.15511847527975117234 -0.22353544370564401578 0.27757052073785792867 -0.0026442928439779152423 0.1341961235240692607 -0.066828638292565828438 0.1616886685481506436 -0.0015974894143317268109 0.15339513940731902553 0.76811879789070569569 0.59699519172398884947 -0.1031928687534418021 -0.18422082304722586787 -0.26156988461914787436 -0.13288334757469752456 0.14521583047167382907 -0.12424459125216701094 -0.7131749566037670629 -0.24441161028828956026 0.51644862202524333128 0.20020234431598432634 -0.26121818113138545181 0.31243149753606624941 0.67753836058154082167 0.36263235507162522309 0.26138844961654206234 -0.25272850372282362752 -0.050354530497065314032 0.21585195616507699135 0.023558312032505843159 0.12992397820152132293 -0.71001896008672149563 0.34983708604035562706 -0.25808723155905344271 -0.44631076623331356057 0.020187205352888541038 -0.40173318062463564404 0.11605999654122478582 -0.10545068417450333131 -0.26826649754443865348 -0.098496545260013029788;0.081346890486705347723 -0.477124541316783779 0.20713935776946562628 0.25255095883378703148 0.29618124695883729647 -0.63420166809040623423 -0.36728539578134156152 -0.29076429944670229011 -0.14463860123872188113 0.34199271168465400494 0.33130091390862054235 2.2990946584406502093e-05 0.1114351599223863537 -0.17031622104190707878 -0.20856761683298458143 -0.084279771003567025001 0.36616208516602394285 -0.38737238434867860004 -0.024591905808093963981 0.22217222437643194266 -0.12475384231169435456 -0.30808611603142999069 -0.042347123022488275534 0.39925082724959137792 0.0075341057990468566011 -0.041670351048258953697 -0.36928143576909655543 0.43667901929717778398 -0.04831410128200437637 -0.16745501241375959633 0.36056173154280685145 0.21025708606827001046 0.40696174899063380925 0.49720144891932716025 -0.11466456462921764681 0.12187237338249561069 0.19880733235081049504 -0.062898160809105735369 -0.21687059817263878991 -0.38588878936945736342 0.43663159971677523163 0.22656157692094591738 0.1012607786923911124 0.11572615444884458424 -0.22312507152231408902 0.11719514898148149229 0.15933039018786751551 0.39289053085382769082 0.23328963026311735907 -0.050251770094213277229 0.10129861203378731638 -0.35511801966480072146 0.24378091814640601154 0.45295659873584337429 0.15118667359760415425 0.54428423493448485626 0.24070102483958297213 0.12194634342139629157 -0.20571934749597448056 -0.029515207181492655875 0.024944282320135693909 0.038207567998700030232 0.039594692078673394964 0.056743732952996346619 -0.099093816272212781326 -0.40972295158981175689 0.25473663841178767475 0.27882489794490911139 0.040758788557220836102 -0.16702090084792553526 -0.211362293043731303 -0.17992777008523769267 -0.10165565307497938241 -0.39247350993781260353 -0.087698646810696750942 -0.13959181028748923747 -0.27490647088413611154 -0.29068208776262238757 0.3173662981049605869 -0.52736380050985132151 -0.40626599910588973019 0.35931439459229641553 0.07655859311421350788 -0.24446861936920050162 -0.045543368504699165145 -0.13985122641120736886 -0.15947147495175989507 0.017568872401614286233 0.048422479644804852783 -0.081285142962409295819 -0.11855929721801417021 -0.21800804776146140429 -0.18400508732030179671 -0.10564735307431269429 0.079552194702901257717 0.10932313183606938434 0.074001638907125036337 0.20875862838419431688 -0.15749507947146190734 -0.19759874019926434996;-0.26000951852068804326 -0.13906826644952902106 -0.2674349625955166343 -0.22646955249642866659 -0.017670438799553878084 0.18780288091737540324 0.30786065896480641069 0.43031370160555981741 0.029036501795596136866 0.11682193101093099608 0.18687880804506265542 -0.04179399001359298399 -0.11792243881859139354 -0.28367920689553766112 0.15204407169130956801 -0.1125010179748914263 0.13426525154689913921 0.52193942008922145082 -0.012073267703023186914 0.2418037056254681294 -0.28643401294864390128 -0.18717470061922067415 0.075054910751471470842 0.081098944911889514486 0.23651816320050564335 -0.33268765194235622173 0.32144090774284883594 0.081164389070584888608 0.27618132944775380944 0.66791710728163888877 -0.088511798998208338074 0.33703700955715470977 -0.022797234212174354029 -0.72397986711199735499 0.031594617771053948307 0.16033134984185112848 0.29659334920157787163 -0.006709341074593580187 0.15572739480139302648 -0.15039898132016374377 0.16224261073837126235 0.27119574480483110701 -0.078931597174965714703 -0.0050706504246992127605 0.63848576069147244816 -0.20828450217233598907 -0.073553427491175341069 -0.30842798687383482514 -0.2698042394924173859 -0.086263930503880620337 -0.32000134445710193276 0.65346818544056206601 0.11083684827981903076 0.56341555365772044706 0.16985699024548794878 0.031068703996706345527 -0.032991067029337108052 -0.14702273065937879193 0.013810675645098210648 -0.41743362099800113141 -0.037465078104268974279 -0.054906431350867763996 0.3452258470208400265 0.10794843462184314231 -0.36404932340714046823 -0.32273376114785662372 0.28321587884908522303 0.10134830259874895442 -0.43634487376085867583 -0.16098430017237388978 0.30382420355410172386 0.31161724393654577359 0.13249499258411617797 0.37797325331864595199 0.62411033964421824827 0.16804704772333409202 -0.43236506776664979101 -0.28755777884427996538 0.15159461716262173647 0.48117888909176942391 -0.22796680119038265078 0.34129154216425261481 -0.37606230164678949857 -0.57508589624156547515 0.086677165417987145357 -0.056682769931308919775 0.35448246676429340241 0.26370971122385855612 0.12396136736821200541 0.42617379299257718284 -0.43777261130951239387 -0.092084828068518989608 -0.14116405831893111267 0.45495868460611843531 0.045905142180788470474 0.11149679814130009081 -0.090582620834769450591 0.33282278328176911897 0.12927607842167865293 0.28211246090759295457;-0.43958485325949120393 0.014802459164861656027 -0.033616906805196064556 0.011232063043563226407 0.043045222258802751103 -0.48728892306690357872 0.035492284625545759968 -0.20032139457857028875 -0.019286278721096165867 0.22133435701283840635 -0.10844180543966504271 0.29152623449098868935 0.103604423769993223 -0.24590043376544770681 -0.21392617153301127231 0.075622516997385397231 -0.00039799400312900040698 -0.090242838735671571104 -0.097650187702173693594 0.44061267302042994576 0.4254296383447755403 0.22543643882065675377 -0.0027388741610788144322 -0.18919377541195145365 -0.2461749224330642416 0.098750863842155145456 -0.25721173094777394219 0.21413540306381684264 -0.46609887293096874394 0.060312400506239094433 -0.053145733639361196488 0.37783134432491655152 0.072938674443337167541 -0.41686079736241449245 0.084279695561856007857 -0.023530988856607735343 0.36108229453072876458 0.23748568170002112843 -0.14534297862408424029 0.20233795098332318929 0.229426081215057448 -0.34650428204917665953 0.33908412748522737123 -0.14047631675543997831 0.045065540986023826242 -0.37830096394179008046 0.16634291082049018629 0.28168295146936717099 0.40028958076306270231 0.048228682173908819786 -0.048764817001620337777 0.2346120266181881131 -0.039440185366771275677 -0.081545591884749718536 -0.00026069616543870753221 0.094436759651342766508 0.15540911383869160378 0.16660730341483567796 0.35314247885480015698 0.1592994774312798123 -0.10052641740610195054 -0.0096840424394932095309 -0.2903951794511205331 -0.10292708045844370379 0.1166608263574205745 -0.079783787701266484227 -0.56932647779624523388 0.14258928223461059259 -0.13972704001856278699 -0.030406328733088839461 0.19120041569060339248 -0.030032890013776115251 0.23679943243963810784 0.12199623029625335235 -0.18084836536400375473 0.10281380451198901538 -0.10679595093348327739 0.22447305580912890743 0.16704294716630219142 0.11687796344619166833 0.049799074192856361554 0.089957347168039644703 -0.47539863693764722319 -0.41899021665272456749 -0.012202456970685908802 -0.39341979191195791676 -0.24737085608051187502 0.10629950749440952862 -0.16732003585341431728 0.11328099111483534711 0.082795764064646504288 -0.26608008440845248854 -0.64243098865877090731 -0.15902759998130663877 -0.14179464001168937126 -0.28181041503518416969 -0.098017828369102069641 0.034638302926151318117 0.11330626835882486036 -0.069568170003880977492;-0.14364431361568250067 -0.20535138807029781893 0.28031632457423921734 0.25585010010735814712 0.40752373099438876647 -0.39270154414589125702 0.14367121565378399017 0.071689241407839471298 0.027664635148400430753 -0.061291340744020449127 -0.28360891897537304773 -0.12052660452787491985 -0.15290333144299123047 0.24411139693570538256 -0.1098613131860962655 0.39491793865404706265 -0.091643910007943835128 0.48566803000400643464 -0.10047306418043057408 0.2685542337524929879 -0.30426729957793102743 -0.45874011944384862627 0.1540842002279208256 -0.32491648759192426343 -0.023663807990852790686 -0.26104822145963268998 0.74760416737163559731 -0.075838861454175537924 0.17643910153845090982 0.032873313948397257789 0.38074892101037544068 -0.5467464046603203176 0.21007976305231404468 -0.53752125500412939463 0.15804536829539742038 0.11319841634782884521 -0.25309541701837390271 -0.36385532395916447834 0.077240523865470686604 0.10439860208453323465 0.24242374204423161599 0.23067135686066689293 -0.52275665934527215661 0.16674624270889154554 0.027062621656805969234 0.2851579132529938887 -0.47738595046581977499 -0.37170264267021313476 0.35722212136534936544 0.35647291152617821552 -0.64184376283188537826 0.22289501482810236688 0.5405208805218832957 0.33337580373746611428 -0.16112963290102855218 0.10446268784012448239 -0.02221053999213299171 0.28419777814024332896 0.045614769762638084083 -0.24806206833962377023 -0.39135003235616233619 -0.23672727598297832463 0.46011037588624542627 -0.083662099100058645584 -0.045902796306874174559 -0.28464180559536228499 -0.49545668380304369594 -0.1445325801457248982 -0.59397749043636072219 -0.025183001460529236271 0.51079803290457470588 -0.088431196873826306559 -0.23074638297069774429 -0.18725328478064745541 -0.56269462536130188113 -0.064952115717472086454 0.15788601861458129161 0.23072226359808753471 0.29965826606474083027 -0.95073127781448107942 -0.26211240174037775397 0.05020594614386329757 -0.030209937551130567474 0.0469965093948077825 -0.059754519340721859444 0.44021095598067533361 -0.12481201500045686903 0.055191745264453244413 0.29471122521721254683 0.36731377013527582998 0.30767376730832673992 0.060428138626315554272 -0.33573440842143009721 0.028123977619805815703 0.33810850293472127781 0.20320947461599814243 0.71972756774320334472 0.38949572554606048946 -0.14841563415085218258 -0.18652337945864208568;0.064912697679609457357 0.26234699866103555754 0.044497116933671643224 0.13131964032681966992 -0.291014448861648789 0.11488164568173794833 -0.01024670992176422539 0.24643526704514798209 0.21753441460507852434 -0.22788173181863832784 0.020000759774476163655 -0.17870752778142245942 0.00041217319570056436826 -0.043301464948931146781 -0.035219359381267259512 0.21319967683364771105 0.039712282085071382021 0.017163380274199068615 -0.024929122921181601225 0.10453186837449952862 -0.064456750062705223114 -0.17908191669291784187 0.073032459605452820783 0.048091111318517329454 -0.18190323672279873346 -0.33863031836213486336 -0.28051352273588836539 -0.12769682547284719187 0.080002700061459833258 -0.14469803229636687969 -0.15342891537048136685 -0.022811003888894093583 -0.072471108627255809154 -0.067502743148550523045 -0.06942276457743355722 -0.29020222030146303194 0.18598059386660445447 -0.11463018601205192393 -0.36406795406066722043 0.12263658393660895052 -0.098250590001431950538 0.21672710597478023198 0.053527014004478679077 0.1609128390720081514 -0.054104764191597619349 0.175691927656008412 -0.13255861600258539434 0.028370872809002661841 0.0024627456401019190771 0.17026561714192675612 0.092254141872087441767 -0.018693514940463701324 -0.079638381048923359562 0.15706659426839564286 -0.1244706503254640606 -0.090363141802265137259 0.15192498803829151965 0.020317819604358799968 0.13173186376162507316 0.16365773214366927113 -0.025803231721343307392 0.14913246415508946141 0.074545110415703413898 0.042031910690802171127 0.2393290822110824001 -0.041127303416911765999 -0.038671102132802968876 0.17100360137123757354 -0.15978058896701358149 -0.20899329930889151696 -0.063938437627119884543 0.14095669799449075943 -0.038271184005646559367 0.12055611666382681779 -0.23750660828424854931 -0.13321544301926105391 0.1601302698261220514 -0.049289493694222204223 -0.18580463885639728061 0.22101058529477954351 -0.33811804731623623654 0.091421909157075126329 -0.10074186757745635934 -0.12358471568388847139 0.076468984657020816487 -0.20637284702877217724 0.15142783315033148117 -0.24658629695817357863 -0.12590017905520431429 -0.16131328021744598122 -0.21464934409319375019 -0.016912930931905628684 -0.29749087245445604566 0.069394203493801251414 0.1328091383407599968 -0.10205461417503190746 -0.23787447905661535108 -0.24846036535131604817 0.063356981912275511792 0.066856244754407906372;-0.20575642027016463609 -0.26140154736471676866 -0.19407502242826310535 0.45107399535630215981 -0.003658638642853687898 -0.22243168986053304947 0.098318015109026463128 -0.02043549736714477677 0.10199269786658664294 0.30773142640270872983 0.13453524279687176235 0.47622384830398517552 -0.40044811005225589007 -0.28456678031268867191 0.25062329312663378378 -0.16150577246434713596 0.38228281503967731503 0.33394624404083123048 0.32855961031126068583 -0.11858356569580516537 0.12762516651250002675 -0.28084510202961043834 -0.24938682545789153666 0.27995815116452282822 -0.098121544626679671475 -0.04859917516477331445 -0.54408599027833670636 0.36696635807025551612 -0.23863096871308350777 0.06125214029403799193 0.096305971433109038848 -0.05682253925943907269 -0.075835396703684415654 -0.13525012715229067783 -0.27277365407917469886 -0.42583431512458785884 0.010008109138857969669 -0.14195056225915639314 0.152811508964083409 -0.21691984705442404757 0.031979494745762303276 0.41803420154964898714 -0.02825386330971062579 -0.008080098440730609094 -0.18247039971444092843 0.2248553419376913276 0.21206920053520339486 0.16458830877108213131 -0.30696742969110546451 0.047617208066308001901 0.026640498765621488386 0.047685837518678990399 -0.018226373264738245789 0.56657808522765862325 0.2527799552171021702 0.014893404357958476072 -0.6108430166061988853 0.32264865801513187282 -0.073219372873417232217 0.16556901613351721059 0.69858478132972989805 0.0088998702540874115308 -0.051945095635763112452 0.089822889384523776912 -0.53084610054764203024 -0.39554082308693078174 -0.19700796335015768879 -0.030789022619765158556 -0.16085578504307840308 -0.2444769204682619157 0.1866879081005887453 0.62398124072580130051 -0.23649523372536673804 0.55800908989643371871 -0.072759868316176770642 0.075878091096532748749 0.00053514363093855679427 -0.27214645374545753942 -0.38104874239172997763 0.038239127532855868297 -0.024597154703754592342 -0.068931441349611807801 -0.21964740653620035138 0.20281857152006810274 0.19766681650300338413 0.16389868724869049998 0.091931628263576051219 0.19668949548421801876 0.37895741097633328653 -0.10838918913643941222 -0.032133794189207094683 0.04143670413476761849 -0.17545533016445288843 0.018888320557065234329 0.27457716323545655612 0.014834127904770925618 -0.4563021630551796215 0.10657383175762402683 0.10644640438593704068 0.30237601857814955242;-0.028884589990530291914 0.19332778373348216694 0.024010946843466635103 -0.12761630421175337857 0.13805894383014752358 -0.089010489686520199992 -0.028231639485126934497 -0.24348752559547248708 0.11770905711455947884 -0.28207879501768257091 0.16567226622082492637 0.19945904251154253362 -0.082559767574108863797 0.23191870314020324173 -0.1576364536324580401 0.18905847105128964492 -0.38417280461536423841 0.45212377248655932771 -0.0025657354742097495705 -0.073703929243703114604 -0.031153378656373485744 -0.69714793191539592421 -0.13935081852759151344 0.1324229447532943027 -0.37082764442997262488 -0.027340862698699466837 -0.0020048404881800991305 -0.44911032920920801459 -0.32670203171371209327 0.57415245497210432024 0.19156942836235221761 0.10424563124473304465 0.16550855022799598748 0.36848431734517278491 -0.56810474509310393554 -0.17489962623893431926 0.086299957887966793901 0.28021048560215283674 0.12143676030724685766 0.16164166713140953879 -0.60194261161466877663 -0.11730250939384992415 -0.096969698970672493776 0.31765780308754132388 -0.10837773905719000345 -0.027905980109347153229 0.20153477338077041559 -0.38059848982748378798 -0.39629690405897710637 -0.13951550657301936553 0.15035980994701148017 0.66167572426075804692 -0.3496479314126352822 -0.2719396568121565938 -0.51034247829979195732 -0.037067778791250297066 0.64273876029717302849 0.16697857540876714921 0.4589999888722666177 0.16430202698861065547 -0.13575408315182785346 -0.20917968404116454861 0.012540853494577255262 0.1724660588611645895 -0.6280238806555834552 0.10941573603660451064 0.093238029878734682288 0.066978156271037467273 0.59618334836999897774 -0.39676898564306578576 0.62551680386296981684 -0.28050913513891534423 0.033810376573002613732 0.39212879762742980372 0.068616158299506790907 -0.092215214942819645483 -0.23790279790167026541 0.16076368017349923489 0.40573586052656723799 -0.45824594520576805712 0.3295574541288481818 -0.088616239165523774668 -0.10162734919044301429 -0.04190422109949705487 -0.19045334191923576905 0.20090087759949426527 -0.30390636520895009109 0.00066623009703925485572 0.19976853923376378108 -0.063104982038681006751 -0.095711457946475050895 0.3684904726348373627 -0.62396357567215610107 -0.15603251388197608707 0.16053098963944947841 0.19184471176998668662 0.27205774702390445041 -0.10928874875910696285 -0.25527889674452836077 0.33000720394246385592;0.15822335061062350881 -0.1662632386283915964 0.063081771244563059065 -0.26523606565557561465 -0.43707988413628906521 0.064553837005870626231 0.33809808487451697978 0.072406092872104810265 -0.0050940720412338954745 -0.0022318304672187161582 -0.10380671982394718 -0.50490221095304887999 0.46457386637739023216 0.18625177844658419302 0.49517258033675437545 -0.092215620063271039331 0.19350454534992944655 -0.035834717387528726429 0.22022340348938207466 0.29324526385165233799 -0.25735882014420918829 0.015310622165077702669 -0.10293635700154780965 -0.36046611966504871205 -0.093089583375918869002 0.0063519733559652480706 -0.01743902682773958851 0.5819958537623959316 0.22410057418306877919 -0.12305392180506453947 0.580563108847771292 0.22838869778650816578 -0.0047806292989313412672 0.2993905412898127949 -0.2401974472246994341 -0.88327511446288320407 -0.49620333013443740366 -0.055351339699987595067 -0.56355404073281456512 -0.28776001215559787738 0.097647453130468117588 0.15797562630245814974 0.054436624480315609631 -0.21525118101087395428 -0.5121831520244715108 -0.0058668627754365947416 -0.23136490781843691011 0.008084348611643327881 0.24956524326857737472 -0.19600814380045508689 -0.024150002408189777392 -0.22991968611174373738 -0.20788195318100455289 0.19011170783337977275 -0.046558336756434413883 -0.2133822994947842111 0.16123584228210782743 0.34827601335137819971 0.34167081479741912009 0.037639598959111536525 0.10675434381071509382 0.37404227830169922697 0.019050152147793535107 0.070595307696654660545 -0.12797064290647586215 0.271562127462817271 0.38214910357373932381 -0.51712888142521296064 0.33678607979868752098 0.21722256293354252898 -0.083120026533849589168 -0.048644005722634650613 0.21806568054807476398 -0.76552717226640232262 -0.5416346369661689808 0.091566191420247439181 0.07650762631962873539 -0.0024109452979902234841 0.34927704391965003206 -0.44511252020308422761 -0.086271243511244224966 -0.027732971111058466601 0.11942233182451601758 0.17677570216080523702 0.023603079134757867091 -0.0075282441700233460047 0.41559076728519367405 0.23042463744496527456 -0.021980823180162836067 0.010136491093510124201 0.22181609300125768036 0.0099947841971597724958 0.15956488059861734241 0.49894297812659665903 0.20121064280066888741 0.78095251111169039504 -0.023351612783839632848 0.048964530072638283442 0.13918870214026918264 0.22359731813982311466;-0.093115317030996125336 0.18679196886055363103 -0.16240370409834975485 0.0061417594734505531751 0.28257867746879150594 0.054260828822088047474 0.18945308747311900843 0.16591191980115216342 -0.08288906980859175877 -0.13590866584999050648 -0.042962812225568157432 0.4371174380108431845 -0.095739866077040852721 0.43241219013794696124 0.021678930355234462407 0.080782822205037116414 -0.099311484743936750963 0.18688944529778225845 0.40083953617647427592 -0.141595409632313457 0.020250631262964616935 0.14906825360742245734 0.62909591105370077369 -0.03201200789440565575 -0.35656195723544154008 -0.28835937682528611781 0.85108389515829951932 -0.23262048002515708922 0.17433430437410579739 -0.69868068555912310469 -0.026592085752905298551 0.3656782120968392058 -0.22494689450301597056 -0.18254069331756098138 -0.12674547102815741928 0.35692535072029313303 0.040023702377856240631 -0.045119437801235971752 0.3339275528013991301 0.47462720112368095293 -0.62975652068868248623 -0.030795963385994648553 -0.1037183337728440069 -0.18618101557015073744 -0.024875048183130080842 -0.22365080109944063258 -0.38281906475871690931 0.0093181738683925877803 -0.2988351579043619366 0.42868395264426462088 -0.070563816756871830527 1.200443252241990999 0.018091041619125711182 -0.65575265101651247779 -0.49200649598022616615 -0.73998528467459756541 0.26345049884821175601 0.23451375237412266928 0.394186532993308969 -0.14294858852704916963 -0.63548018199325784217 -0.48998610292807082134 -0.42846010339437379244 -0.26685393083512093382 0.11562095549842570097 -0.057483580525968386299 0.027981694473342606094 -0.53343924036530843136 0.17762363749509094135 -0.070546945429666510496 -0.1454419443440889137 -0.23409663047094461663 0.20805702906934336882 0.39543321288784982759 0.54570199760742510442 -0.084737385471701912043 0.45291823830336930268 0.28873320709177485721 -0.143025687666651663 0.47370205644600427153 0.024080526716233841 0.012510863146157812087 0.16520345378903086853 0.37661705200307132868 0.17810303409409652953 0.010773649990172804586 -0.19341961674623420198 -0.30992110729568972394 -0.23014321307343024725 0.18103614699372222452 -0.49208563033558588851 0.28660016970798740665 0.71773762252490591607 -0.3799598662644494973 -0.39225665216577071392 -0.16755732367193890142 -0.2248622406374798377 0.030605625737734742237 -0.39188278305959955983 -0.33033995169591651164;-1.0590911984310149574 -0.26207864018078147472 0.4613306442890202641 -0.15010527155814723521 0.18289504183549559757 0.22540313596228017667 0.54380787797875751455 0.33093247732968278374 -0.98876153684376055786 -0.022849769422539835395 -0.25217995961325712084 0.3356935835155281378 -0.65225248213222075666 0.12626047090109462911 0.10075778258043685542 0.013686955829329792989 -0.028062096748175214406 -0.42157031681538464918 -0.1640083613544921215 -0.040184140565732391626 0.84460091256375213753 0.72945636189780826975 0.034203281604734452059 0.42365595753542195645 0.3174907779294164345 0.013012580869163679551 -0.37485496974792575919 0.20949011015096882793 0.38651402335771783969 0.58708382195418740146 -0.5092735425454207876 0.88956484156820303522 -0.18256071205064153262 0.21027490314317301423 0.63149619395129930055 -0.61771004759781733551 0.43901222385613958288 -0.25320343853967469672 -0.80254303253662528927 0.77174606948599988598 0.71246863735907095538 -0.45898991835833985453 -0.42501943516187240535 -0.84541823636017388033 0.54044804158484704981 -0.29600412121068558902 0.14936383923784440908 -0.58809033959632095456 0.32245513451628637913 -0.24947145183354677012 0.010210368418419910747 1.4935246263616372975 -0.31024685096152093688 -0.79689358239541296935 0.34610381839357112765 -0.46320691666118318786 0.17826063911142592255 0.025925017408051011236 -0.42859770329281104972 -0.43898781730289238023 0.32964871626871916632 0.17253237910481503126 -0.29966110372634158221 0.093224946246143053363 0.17978705884928788961 0.64970776816871045334 -0.37702763589079257844 -0.54564312981848106521 -0.41698381704780379531 0.6779488478780875127 0.75272282140612678525 -0.42167551939765596236 -0.12723440802599389476 0.39513867811265906971 -0.43152585434884915827 0.1962725437536406714 -0.41243235510057330018 -0.55658416171427593788 -0.8101502449991762056 0.009940413485287444284 -0.88770281180248933328 0.85853929974544185288 0.70846513630130936168 0.28339354824339824113 -0.18285369218585323381 -0.60024677493747968793 0.27170853156147639629 -0.42912594575519047435 -0.8292257753338286852 0.61550556139975698411 -0.24400331422466392528 -0.3855118811003546142 0.014011099721441424779 0.071979416110251118188 -0.14723782601472154563 -0.47909486021435537806 -0.075521942410396850076 0.12845284083887448245 0.088132923351058573003 0.10094399843149547136;0.071445432066171848939 0.24754890660499531685 -0.14543637377810211819 -0.15585991979807023444 0.211338528645711482 -0.14594038324415387065 0.15163455693540112135 -0.052606819386551283146 0.16141414370785461818 -0.21125908061805107052 -0.096073215369783832029 -0.094925611352591962588 0.18404611214329508195 -0.057139658516891837781 -0.029011220732153876478 -0.092543157655758351288 -0.18934744211539819569 -0.24367638106616379412 0.28509557492092402198 0.2144981913561960496 -0.20217999366061326083 0.25116701793732676418 -0.095971830049712089639 -0.028589291143158907654 0.083324447358842368416 -0.15367587208793853648 0.050926006511426494261 -0.14130658471440005197 0.10304355916577401242 0.12569273872761443922 0.016766653095460305745 0.19308489135987672025 -0.19032530176133330424 -0.32547633670959469354 0.04828054313722052876 0.13364560815849907405 0.11884256297841426508 0.029717347412935232742 0.17522260382369470033 -0.096546844273018350702 0.038164718757066770638 0.041442985352171238245 0.029613193585507364275 0.045322103400489095748 -0.11502259412805881933 0.130599298351115084 0.15894342558140356347 -0.10097767782294833627 0.085034577905150593446 0.059131608960258083552 0.061779568729216138845 0.25259492232307334536 0.097423944309542293007 -0.24590934070209985451 -0.080448178364882799718 -0.23361243683311122554 -0.19890657152372165362 0.071491253249922448454 -0.24323567827944281294 0.14586571052067356935 0.20002244422150508574 -0.34050156320139690624 0.19170087532152779719 0.26966914930186236532 -0.25749852105239340316 0.11076307509262792172 0.13460708992660894157 -0.17216476250579668128 -0.21593183037025931448 0.23284196903552095703 0.0012254751638888492817 0.25545533735610592707 0.16682269575706909492 0.026323620281374540686 0.012716003192589817386 -0.02096471372073301781 -0.2160319344453683621 0.13417524609785733136 -0.10118178185013175507 0.17997004765742524723 -0.1483715049000885744 -0.21530996799015955645 -0.15509991573597536885 -0.16178820160390247618 0.12825055199902390957 0.16282354734909904037 -0.02415033827127752164 0.19245709430690666197 -0.027782045740302560577 0.1535141489617819488 -0.00057375565207034727368 0.063065886315206237667 -0.26855636418744760485 -0.23839929552181737815 0.21114874442494022122 -0.2053469665032013336 0.10767349027803896355 -0.16107990031222030325 -0.14280802571113535016 0.097194912795724591748;-0.028453992767764880317 0.055769376201277691407 -0.065993951118008611911 -0.17328733841550411632 0.086792661133860152245 0.011264017293614455098 -0.062223740538862044869 0.28757350547840715427 0.70804569806262285248 -0.010791624257835627509 -0.032479862895614684815 -0.016946105966855921215 0.19221930448074428521 -0.19251102557775429114 -0.0450089608261523208 0.19301201716914173634 -0.013163576284295507024 -0.18768850499616779315 0.11697581756216185456 -0.070648624643685861701 -0.26717629137108755977 0.16929972801501899649 -0.066954678586299151699 -0.13307315593724158842 -0.2017626706015367144 -0.021983351054506317795 -0.41635471184806616129 -0.32460041774543152426 0.037272824251653402516 0.090668163424406769679 -0.018233132253998095978 0.16983714013941259013 -0.3215275192697416573 0.030184770006517584739 -0.055048688343862992034 -0.55689425497131028742 0.083226229094235548711 0.1533189735030423273 0.098786700292660373224 0.014313724116380970725 0.073426787173637472761 -0.23394619744030792363 -0.17400397050940702437 0.040461983470655597805 0.7272071065213379093 -0.35203074432966263707 0.1053282274487965936 -0.23017585576028803951 -0.13117933150586363888 0.019843856961092590924 0.36555550456395380365 -0.4907854958616612584 0.14387515033612130466 0.5310574193209851579 -0.2091694719676152614 0.28263560710992402525 -0.025640233035195334615 -0.16141143754873787941 0.14683234353708135567 -0.21841122919339636677 0.013212730852821841579 -0.21741637807162675355 0.083626039214692790558 -0.1497056632209461946 -0.37168821662389250893 0.039913896627216984003 -0.20788606545073498588 0.07119085248211638739 0.53046303256038906948 0.096579536200069565632 0.14153640955710106164 -0.18879337628079762013 -0.22862610433101940299 -0.08118680779040625406 -0.60517351064476521127 -0.15891347084379062182 0.022665457042982128238 0.18795914066605565185 0.088151410477960268075 0.02827842608085053 0.14738955036309728253 -0.59411437910379272243 0.26298510946288206069 -0.38936483706936381166 -0.15113930314615667272 0.24854151926917084081 -0.37244598482936552841 0.46597981684800365842 -0.23978001929930700675 0.12119780396967308467 0.1770142452048904802 0.24607837855741618305 0.39270471824489006085 -0.20512999377789256639 0.24721883423330448526 0.2114936954858214202 0.26283371878540040534 0.16329876195360049085 -0.12481738179721844906 0.18291133547370896917;-0.671059765288497867 0.15654144209587500525 -0.11307556150260003602 -0.4921343195705928375 -0.22047086890350972577 0.19993287660222214264 -0.65538890825027795728 -0.1168298583818962455 -0.033785363358721592908 -0.30971690590908829144 0.058040698891972095086 -0.45881590186813336896 -0.13120717844631887838 0.61863162786656578085 0.0658948196121569435 -0.21789780725178078957 -0.082177064954580783529 0.28484647014915276397 -0.26907252926198621523 -0.16389898812577124998 -0.22293087097115363293 -0.378598232382247879 -0.17938839470321113478 0.67451412516540620867 0.45563710022395675914 0.69254808604200457367 0.64642907724226694732 0.82544481133910596604 -0.55225388253223883783 0.97941874633798242655 0.37997822142600923279 0.52169527453174058262 0.23659256005980711102 -0.81237308452218226495 0.18018212720056789311 0.58895378198901127131 -0.46914815418871580466 -0.12662705847696303918 -0.61447078953992306793 -0.21995053972092368233 0.40449915706778610813 -0.71644211483137065777 0.38453843284353772525 0.26848942884448556701 -0.45194715564352860859 -0.61959037497860625088 0.14368772508277882771 -0.1876214692938976969 -0.25351818812871479425 0.46965160512564924078 -0.56833672899966614089 -0.81119368383866163885 -0.21459936834818366114 -1.7407959018212260105 0.32812901387602860792 -0.038191291935611999808 -0.47834635350151255562 -0.23711394570708083096 0.45426178934259497932 0.10352946105085213124 -0.89537845565002671666 0.91421550048774702368 -0.4113452431443735402 -0.13848757354347560056 -0.58757315345859062461 0.63444100796883085014 -0.57991156202816251941 0.80886551336929712885 -1.196294691514715236 0.7838867015232537927 -1.0942244263028093609 0.60398918999183470735 0.1705128195696627158 0.38660329485104133473 -0.50116044724189812154 1.0355953366832548745 -0.75215388866385490818 -0.34902411023072560381 -0.26734749950596664592 -0.075307934194860398636 0.060662615921111114059 -1.2539715819240071504 -0.17769757916440315215 -0.11402096456488129694 0.58974721762763904209 -0.70589871923518843211 -0.31057837717088870866 0.73026530804044198497 -0.72109325927827538916 0.54422697845264611516 -0.27955500738172045505 0.27950453139102598987 0.34677045709253234707 -0.55662313538880858754 -0.39523222628221615915 0.21260629741555128747 -0.38724945113641329186 -0.5460828004110909184 -0.49644209379106557511 -0.55096627847468515604;-0.61522578545189765542 0.44213293792304869667 -0.19765974398410882107 -0.49308397521552421727 -0.068662067329922304992 0.058369474913950163131 0.20545108515043905562 0.16530529677902128238 -0.010252387649719236704 -0.48352015264514319748 -0.14200968045157649766 -0.084108079529881155101 -0.0020595272473426630769 0.10407042630486572354 0.43897093555836030898 -0.54703689139833688859 -0.21054916071526422194 0.035492676214046628425 0.22072998871254106978 0.57147157630999412259 0.49526449927224652781 0.9612343460553339769 -0.16263366200421319752 -0.014830858503342035301 0.076328961425426791743 0.29296986438911931661 -0.30931672933346066046 0.37281189334348130426 -0.091877930068466631686 0.53530683919704091789 -0.56448612214733417947 0.23179504688439039883 0.65789033819679909598 0.63826917163271446043 -0.25779796064245075193 -0.066239313945042260778 0.87368363366751000676 0.77486038904033938124 -0.10065405255266256235 0.029235678723230434928 -0.059345850121736945515 -0.0054109153096861661164 0.46472276933566564194 0.55668296734507705104 -0.65224815656406642805 -0.67443580720345441826 0.38535235440363796444 -0.018152446165598357108 -0.45072391722784505008 0.19254993709878912012 0.78030677456121666502 -0.40094160533793671286 -0.28336906690045565727 0.759928220404464283 -0.23071922443249159862 0.038947426400845371053 -0.50091724680825266969 -0.49989590883467482918 -0.45939703467605585985 0.54353972280192208721 -0.86548694767475675693 0.15290259153386367985 -0.78278679231056691457 -0.59756463240730528508 -1.1158326089087795552 0.2851102400222584321 -0.33796761987644952097 0.64653336645332137866 0.43574253016499847613 1.0545721443416429253 -1.2540275440695813902 -0.79747766387832330626 1.0157505756421272292 0.63483477528413656543 0.24566458308258126708 0.71574986157072961745 0.067750282419891477703 -0.38037433336514742122 -0.1173383189052464165 0.33810321493097450496 0.040563629457231402398 -1.1384875580795781325 0.018721625401543810774 0.72539331273581808546 0.39780103654162246585 -1.1009290290212156993 -0.99264539150141406498 0.0045535913511607151519 -0.59002073704879631766 0.75089754996600865944 -0.5970503841482643903 0.30733960129454629406 0.81661786559949911535 -0.38966564434527239946 -0.18788806460924725728 -0.76407873712136309408 -0.4524620085351723775 -0.61137815418119700883 -0.55398725929822345559 -0.1707527874212327601;-0.25709312790696509099 0.058181620603997695473 -0.33190832691702537582 0.01092693335097944668 -0.22947573350305774942 0.055733402997685893565 -0.036267370745201331361 -0.29793753420256041675 -0.11548409453932072244 -0.10427743949380796629 -0.010172484442834084373 0.32828620855721940552 -0.15909887696159549786 0.042437068256543558631 0.39100087017046314397 -0.73524436080167543395 0.043923119526391322942 0.32708461904397523323 0.036393907112155871042 0.52963108775609857304 -0.4503949367396664627 -0.36148331235051667232 -0.1035398122271384419 0.7987659185357210978 -0.1759495433857980462 -0.66787636618347245854 0.20902483194927726218 -0.12944564941184466544 -0.2847704556205853943 0.48258819896281696105 0.4632107375026409124 0.1141839797746721924 -0.070496993669013088835 0.32118240247010193533 0.49025874242065298203 0.36767268070685993342 0.33276912017578880176 0.087374528252946948026 0.2579923286100360702 0.0035206533816040217096 -0.45612079645083514201 0.8051713945759563229 -0.40544126977105598986 0.49857794285053630423 -0.31216374483804004702 -0.21393510025790865581 -0.75460826167155325983 -0.53857633134927762608 0.081716192616741123445 0.2482483846848482778 -0.64401998431868423545 0.099393692298216054781 0.53461407618748024717 -0.14326895520056087685 -0.18349574247244507252 -0.61227004370153126356 -0.41215596067973186978 -0.20245356489651292198 0.050305152249338722092 -0.26595635571712505918 -0.15877058839151592107 0.076734263626071913533 -0.058710584406225355125 -0.049349355716687040574 -0.40932935318377888789 -0.62344092901019676489 0.44229741482164103283 -0.059549743000732166531 0.076079765981823685439 0.11330452991552195097 0.1165361274703458766 -0.94999509299304807364 0.53465669248299962923 0.65472136575244810341 -0.9715574553642765121 -0.15980269571790237104 -0.20723265923442332759 -0.2149556976194692548 -0.057510146431879523299 0.15927484653586224117 -0.61239375375360927123 0.046475292692534662942 -0.51107588545854465423 -0.65246023851777368296 -0.44720474683274041849 -0.30588598774845787709 -0.18116114019200810215 0.3441517535284213114 0.39333661506026479371 0.72717599862736059801 -0.23390801083726170395 -0.057068093500441549604 0.11060784616681747228 -0.10624432515715791225 0.02237609762932352489 -0.24323512641414640756 -0.30999801488741579591 -0.1085631182707011283 -0.2270672738449832917 -0.076377745519810386066;0.042161366669551031405 -0.10997954481488740608 0.023702818168898583118 0.13050974118836305982 -0.11750173865042858046 0.17930570286226724108 0.21504546026972498618 0.16696930444323093701 -0.23332185771483299197 -0.072775638952072077559 -0.077075654621170844316 0.18618071750082562654 -0.2326392909276199239 0.18790472075996761392 -0.019023538971564186301 0.14621547493811196117 -0.18236498016909086228 0.084509837913380222996 0.16547108907916380227 0.20394788895301119158 -0.028434539107303005018 -0.066738321849807394348 -0.21371218286006024578 -0.51011622039506898663 -0.10348800445563501038 0.14489135800813074395 -0.28750091022116625039 -0.043550297787577497977 -0.30061970752297167975 0.19778945107023548911 0.33156352279463502386 -0.078115291944677894831 0.014550602292312846825 0.16546263076994893737 0.095418569257794863536 -0.17449237421569088746 0.25316063990566545217 0.088926284948185316259 -0.050679415590031688665 -0.23187838823007042577 0.34532250791511098775 -0.25921306899052076744 -0.27061888918077819932 -0.079710021784347176443 -0.14003833282694552742 -0.11148412645691860301 -0.23954555764912066618 -0.29638975285412505478 -0.21964193981903046282 0.054465291130119102003 -0.26763780816972421173 -0.12994996953423326724 0.10595992867775438917 -0.013166631704819745791 0.021526821471759376159 -0.25802024187534966515 0.19753449237563994179 -0.096864594646630053365 0.10706294989885309366 -0.041307869605175226435 0.23994016578928820116 -0.051084637741321846371 -0.033480836270546647515 -0.31051464183750560055 0.013597690850762129966 0.043311624989309481515 0.16425875137525272618 -0.057447337944480786343 0.21284561907052970686 -0.21574819110292878244 -0.068664295368929220698 -0.11909008229552993374 -0.045221052708464028191 -0.11167316774276181413 0.30860851012797713144 -0.17672861361704894634 0.026641380456530576459 -0.22093849255863659553 -0.058948350876913607754 -0.22395218637382971472 -0.069952997379335121741 0.19366935776423255255 0.11131577964728181507 0.01445942802807269334 -0.14271616086754776442 -0.028205619921906295577 -0.19586195827023059057 -0.11165002757830895519 -0.15326065364586813344 0.055044479201870000207 -0.034559416207610139937 0.0076879139380997881664 -0.20011806826146902316 -0.022500738395194671421 -0.23904294840222589658 0.091622622498751291054 -0.18060375581112586563 -0.040177524164871268597 -0.21026234681976255225 0.0020357369819043727097;0.066733747697942893962 -0.30832186473708256269 0.46971476898492442453 -0.16921572305004992098 -0.09138432509078113497 -0.029413164820488117007 0.4791735332193123309 -0.18534376873609234582 0.24436139741412907234 0.37096550544901046864 0.14007186980354910388 -0.25209837174572702345 0.3158880037169696231 -0.091857263175365896912 0.42164215966931228863 0.29796574514049017912 -0.48068168027133240106 -0.017429875505414544473 0.033983831623512400499 -0.0091113584708346524732 -0.5042527412953567989 -0.52944761110982208052 0.10160802026176829482 -0.6233262520999395262 0.20763770482632346037 0.1394320381330075298 0.31485484861316098693 0.35112657582303347104 -0.086900621219144755236 -0.17748727406208669732 -0.47657631351010609766 0.42884316295318808399 -0.16500714831265841931 0.24800116200616706408 -0.36746014352167205574 0.21647800341703352101 0.062958991346223611152 0.32734725570589290333 0.039093782314055337823 0.012869884758756231294 -0.69996408395184661622 0.45441244378297124262 -0.31566755070899321645 -0.55882897317637036938 0.010425755825556609277 0.24507209248654146516 0.13247779875731141574 0.42904848497637732008 -0.13639161818684497618 0.31289177568641612925 -0.40005438106609847448 -0.079970582263277772972 0.56126701711121274041 -0.71179301774650127754 0.27872902427836626638 -0.40855769025867516575 -0.22177467518458029994 0.30375229882300558426 -0.010836037467460840622 -0.13445594060025667371 -0.015161734928004698755 0.59730400654676440997 0.36687807241055869767 0.15168476521029733428 -0.10005780592458521361 0.10750990367207777232 -0.037307962796077162593 -0.061653333388677129812 0.29894392330597624463 0.13350864457766001281 -0.079099532823325421904 0.68549431391792936541 -0.13010267945532338896 -0.55902569828017112386 0.077287788726567080433 0.11629295401987138625 0.066382697313934632688 0.2284833149037894251 0.27735624256707558377 0.30328344165577142411 0.0090201152306741121806 -0.24870221848546406052 -0.018130041179517754346 -0.034048945042798574312 0.11933600132157456963 0.77435923369165482466 0.12979242410372371364 0.043676267438579191582 0.21864149360654885901 -0.20632136064307965428 0.029176500927912431965 -0.12125696137537320118 -0.2042940330569655849 0.50519157930506708443 -0.036988230712964816072 0.23041805966900127944 0.13165231650247602446 0.067789812270187238541 0.5322329498720653751 0.5398751612183487758;0.0053826138184175391019 0.12044773861044635876 0.27587267762362327472 -0.06304877351050727774 -0.0748968836810969818 -0.093319409312375020682 0.1228752850561368043 -0.038799914443284698462 -0.25349933958662634881 0.023787378071268891477 0.083898616356812033557 0.097531593376183625677 0.21030291376571266793 -0.12190708924181230255 -0.22107385758606731829 0.17413827346551494224 0.29620767255530877637 0.167262191739239785 -0.06025167614564293922 -0.13864063288767999871 0.12184626494022308962 0.232826457351027305 0.0015057131209025350488 0.20550030909051655859 -0.18018744518442397773 0.19467258203586143561 -0.08010203090039795526 -0.11593098715513221186 0.17445799557255761703 0.013448530488916523792 0.18796937122082987837 0.10003175318528663429 -0.063974973536844559341 -0.092446420634175602293 0.097705120660064315175 0.1794655553651656188 -0.073732617617409151878 -0.10431463013262712303 0.17700702574052384897 -0.19977759894107124938 0.065101445522102771579 0.020752506847615603131 -0.20991919965439051476 0.219377629857540557 -0.033024457066877087319 0.10531774548531540325 -0.29078644665252750823 -0.048136138185012951329 -0.26623583686496121725 -0.11309279628962655428 -0.23206173861510784318 -0.13818367752740473575 0.15170150650000591153 0.16482729826589337385 0.15381504827518796552 0.2150330958101203116 0.034538418451192758052 -0.14653640658639405236 0.060789165726331785555 -0.086815096854964718398 -0.051028604466147688135 0.022545712107472633962 -0.11966130414912096169 -0.016978663641324633765 0.10005508442873581321 -0.12720712125414104787 -0.21900672467150475442 -0.15397283967466696142 0.12916801041294762031 0.091853579000287108314 -0.2187053022113933376 -0.22721839186581507808 0.093914351772024867726 0.21548322650027043612 0.22126509076148848099 0.027147312863991850118 0.24607456049808773546 -0.18994540656731662143 -0.052126812064833598359 -0.31340651623152765426 0.10814191389541892574 -0.14684546164687678482 0.21893331772185933848 0.21902751459244465537 -0.10488689178081739284 0.051094387439798875927 -0.16600455196510835454 -0.13313020871356739949 0.18195049892403558633 0.099017969880371467517 -0.078163762204977005332 0.047051127413537847943 -0.055262310086327440239 0.0094507644943332830278 -0.13050070651970094304 0.25552729375100619036 0.26807781225400462155 0.20062704935752093127 -0.14067975185465395049 0.010623701972069399951;0.13034490236450324563 -0.24690795527234074558 0.52829606180698118756 0.19393670796892278907 0.067179714173515286957 0.032788165798146716445 0.38665075780456686916 -0.1302339593289521813 -0.64568025026600106564 0.10777346706314604174 0.24094189385381131752 0.31206255281892508746 0.10655787095402854958 0.14981042910100839105 -0.66489103358007783928 -0.22572929878088857092 -0.24164273831320920438 -0.23527866433886512887 -0.25977810930458067329 0.061829941713395723812 -0.19619062334407116888 -0.017961633851645789767 -0.05907139702077297827 -0.24965314117141482186 -0.27427175734413017372 0.027223116633683149684 -0.88908818030327008142 1.1535789210958022899 0.60833462588750175648 -0.0039525973932962510035 -0.2508786629917994504 -0.20666539306605485882 0.0039629749374228860279 -0.19421231124830384829 -0.095498271386990615794 -0.070209358818650993705 0.39251940614777169891 -0.021361789666995895098 0.36388599609467231488 -0.17610455735390298515 -0.23861238459098108033 -0.31445862386461526095 -0.14534875942722039199 -0.049661031900571639408 0.032285932031931176278 0.34391280351612307786 -0.42110969538596293438 -0.062104081531657619186 0.040024743876567021872 -0.13779622360837495698 -0.23597129078789927381 0.39493403110125274713 0.10296825698885160583 -0.75942220419635519946 0.038618217439415625236 -0.0771023702646367326 -0.21525508387686581591 0.15649846976065004411 -0.16570821004533395349 -0.24194333395945369358 0.13987128223248601611 0.060841109769162494969 0.16256121614447022194 -0.017358201165810792366 0.024022493873616893034 -0.23264038633225711528 0.37139208782104493611 -0.0099813628627524377673 0.30665694093717416058 -0.10455815179320819552 -0.085460724783171085339 0.12687992539535597469 -0.090754178241701066732 0.028835404954252442933 -0.3935720365891299255 -0.31771577520865978972 0.25733220565927017454 0.31293712611412705105 -0.12703433283839615786 0.097751358837751392561 -0.16690438539061833167 0.05469147680884850482 0.5202027337094644599 0.037791929947094751729 -0.20317023620066848588 0.10518415961240772105 0.074183135926044418973 0.10499775791332270625 0.16330272878812859827 -0.047835179917213921374 0.48902678194056364847 0.24041752924017112392 -0.47371111097232376785 0.36234081732902001516 -0.15516942507477818336 0.036716471081328493076 0.057539264711185068857 0.051589133652738386471 0.14920811979826073546 0.29145103180665515863;-0.063816482838517624154 0.23791946515268549978 0.17138465519252027436 0.20588182781554950629 -0.12039016047022937927 -0.22561062487067856663 -0.095634517722213638335 -0.27259354369309829469 0.078237449076512088908 0.15372998774114460252 0.16760344100474716678 0.24550066608143797375 -0.12153115547299853105 -0.090687403389354576122 -0.1036702128219415403 -0.06968930856671259888 -0.1658299997845851248 -0.072450841937270304971 0.1507122978177680428 -0.10601846904894188239 0.23769088421591108573 -0.044208337255745813743 0.21600656914929211583 0.020736798602562396543 -0.0028651681814635910836 -0.25104783698485005905 -0.1732206148580200944 0.17162045905244974198 -0.067723842473090031802 0.19657021385559525495 0.074043700553804325803 0.068891226344394873582 -0.047367793276737249486 0.22420377041493821935 0.22396762264829669919 0.15233528218360989359 -0.098932064454558182875 0.11142320637746544465 0.009627402989675931666 0.067256059070676804668 0.10793053938034567751 -0.19509243579140977953 0.13026618958216004684 0.035345270498602136822 0.022216323198280738677 -0.17558709962224081091 -0.228284735758479157 0.10276471607377914153 -0.04853673672694823471 -0.081166200524622658663 -0.11344778837608365807 0.17601006227464630061 -0.016576885638628677255 -0.1281558389997308478 -0.078481567390529166639 -0.22125133307795172288 -0.089449217432879465917 0.094430421032258474168 -0.1438865619107273508 -0.051117394474963051554 -0.17623623753295089567 0.065138151144061087749 -0.26750935729963737364 -0.05198073918159577117 0.058743758053661422613 0.027547330012346736561 0.12338634257513604597 0.013068147241331127401 0.17148767810071038897 -0.13242975243573279487 -0.087642955450913065385 0.066238723989630071687 -0.072518244992729824494 0.0015654895988338854602 0.26005963773632512215 -0.10727032825851018361 0.25916132005853925735 -0.25001468695432066403 0.093777247044272635246 -0.16671895425356439424 0.22069912739454247697 0.035635323187961635838 0.093648853797855258208 0.055012530711845177012 -0.24076827095455943795 0.19369106786854398128 -0.026297944294136711696 0.26497006842471770849 0.22675799619099323845 -0.13390164270869198138 0.24219583539430011854 -0.17592157330462848686 -0.014529118914023191056 0.12598861268649352851 0.15756222425951715849 0.22636738264491332306 -0.18291713264942441319 -0.12786629308095365243 -0.16963914093129214833 0.00054392226120318187387;0.20620818886153133298 -0.29952081306000100103 0.36679770162075725493 0.22528239968044685981 -0.17911005332602872309 0.30779786725922292367 0.35699478778874071949 -0.2983345046359558439 0.29366683205239452192 0.089671624361228580158 -0.095262005674525127019 0.10646171662378611789 0.16617013648786044255 -0.1465468844610028909 0.56937838333652346368 -0.46636738924570769749 0.34450673716516994061 0.33632496412220291848 0.42880055086170015821 0.44118326449468880934 0.85551240409716411417 -0.55596482470797270459 0.43295882031655985589 -0.52396183820222863581 -0.48015922723643728043 -0.57021739613192523599 -1.4214783122303757956 0.012647347629476991121 0.27253355509577237292 -1.105756634689541773 0.15036526265020611071 0.62956994748669459216 0.020349165273571331175 -0.54674408132876073374 0.31909669582562144585 -0.65552852837958719423 -0.4535116512810609124 0.08503889144627903296 0.25700293734867835083 0.90882826157380180998 -0.54281938449284317105 0.61156341442950512555 -0.25982424666138353997 -0.22635815551402505008 0.20223029741484632726 0.18093458972750761649 -0.41642364175345747412 -0.16625912227715983205 0.1736016905884956163 -0.65118533093830599512 -0.1672895278007028308 0.064367247868088589557 0.437012424204983152 -0.95291504037443197639 0.15614225862381586607 -0.020056426435552183324 0.28915479221795109543 -0.7252468923640250642 -0.15933350061336171155 -0.15152092479472131781 0.35457479378130174474 0.038380807053678127339 0.56200579493477964554 0.025737279320453793768 0.47396043222715394938 0.18150967829712602586 0.039339721466001932593 0.34135460914837301161 -0.20606859757650791698 0.38333379293735447835 -0.82698510367247091146 0.12056632788955537472 0.19401983943970479984 -0.21136101325495670888 0.52154683718738570342 0.13519529729668539053 0.10663428872388826252 -0.30672402889512295765 0.40410189125413781275 0.58655160105802406356 0.11583862896392542463 0.41491295785414372688 -0.064745877445165953001 -0.24517612553705600553 -0.43999369927600007202 0.2330107690285334876 1.0322609379677403219 -0.30473575155029103412 0.0036413843924720970362 -0.58688226475510518743 -0.25680337381112705586 0.011748188532122226177 -0.80430111047332208951 0.32182429592263483986 -0.076033152313663726618 0.31020294499428929802 0.087949909990351446409 0.20454958232251480021 0.052848570735747564531 0.26566108740941329902;0.028533771874464933932 -0.051534412385916585075 -0.04440510331615937778 0.52375304367654507143 -0.13736801879822466144 0.43932383921450929298 0.37460980359206175194 -0.023758383467909503783 0.14820134524196440506 0.45707679680329960092 0.24609947770518392218 0.050084152059563409598 -0.32166439947695740775 -0.1241848800617751658 -0.27002627989332117497 -0.0047897953676714890778 0.0018833429254714924989 0.089686045295900018726 0.23234963940129460536 -0.081068841556138415694 -0.57287831411115930358 0.13265476063907447046 -0.041248648113453842412 0.36238424589355860972 0.58866429340620607391 -0.79921341076736263087 0.15058860059647571905 -0.024879857694558703968 0.17496315636286249862 0.18651884094318738061 0.43328436407866033342 0.1630420808559569501 -0.09810912577476137153 -0.22790025175152353598 0.17011521744865601424 0.65066968064948427219 0.19300244816560713224 -0.20360750272777719538 -0.0088341578500766241439 0.15215843193151981638 -0.11670069075953468096 -0.1155057836002900129 -0.26602978719529318807 0.35235993839958179574 0.30340459131291830364 0.11412670190366801248 -0.40255356903961941883 -0.34280667700810385501 -0.075664051884347785504 0.11288355285248478921 -0.56320370229267968654 0.0054680383644134591958 0.037647633591614562687 -0.04733500957639085599 0.39245923287185313644 -0.161310293336407784 -0.19742225229534723918 -0.53426822519872563255 -0.1311527105024724027 -0.088957811441767287164 -0.14031231348973161044 -0.010856682401813443073 0.13780239126203228106 0.24600270908826993299 -0.1327793379255122197 -0.47269256810472182195 0.41117413453284074043 0.15374866957035970838 -0.26532394930356273388 -0.32297825529382240273 -0.11308369105845923752 0.48561481547287216332 0.12627205821103731909 -0.1427738270296939338 -0.26345290457789083405 0.16637477234543143756 -0.29382408828862327521 -0.17782237061639191711 -0.32840479919115594942 0.30834397832811633045 -0.18199683217231271692 0.14507938743493439815 -0.0045320086119881638348 -0.55503229944981968824 -0.16898874717348938423 0.36045764814142722265 0.30978969199430267389 0.40912965166389037019 -0.00021227191395249261343 -0.18360332155000338994 -0.16779813173368537949 -0.50492351893288556219 0.10168336865440293082 0.26793628359290616592 0.23794253794423009252 -0.19834525688234133645 0.045843369318802319745 0.23919242638835402914 0.19047240861110939503 0.44768286039961857625;-0.3353417207792800947 0.016124211861770324644 0.35592350322736909796 -0.46203612347873423971 -0.035611987395013242064 -0.39912313627470086264 0.1629199845884474751 0.1620445791939181257 -0.4858557648190083289 0.22663121858526480423 0.20028078242483768334 -0.061196401660194625627 0.11273430786631712108 0.27861633470269248081 0.18187053899037891602 -0.011249020001719334944 0.081732968605459588307 0.64281561353961813587 -0.029289955186989093811 0.48723643227454249693 0.35141274398378641308 0.60961544489104624311 -0.13167332586396204852 -0.061502834196347340445 0.31613976947310179488 0.55910343010800289676 1.1409232493320267121 0.60753809804637448622 0.28544556271375892686 0.47924191684428651961 -0.056818213327686148406 0.29147418568140864847 0.53939372268278718003 -0.36795325182171878531 0.21044190709051865951 0.70839968223133431557 0.0190923300003728591 0.011650452192770350407 -0.35412602298754036756 0.16037737635912438505 0.27754755410595050025 -0.21485243524299690865 0.14590750353298301278 0.22583329327789428143 -0.11867128516686127615 0.22882608173510549099 -0.18562171807192917594 0.028351057133636420327 0.12707453119646844319 0.43739315893998181872 -0.1141318418596398987 0.16347189603754530562 -0.34547923901847787942 -0.4765488365322101405 -0.063772866135737973914 -0.21520313117138548109 0.52594935782449780959 0.23778166749813431369 0.50016002026017425397 -0.2460763183399045928 -0.69225806531928302245 0.28759477800580079965 -0.30052644930249960975 -0.17097854901210848833 -0.3839425958198179889 -0.082935628499327992968 -0.50873095232532616894 0.19578597351707088814 -0.60618682259615697117 0.34182514221412668709 -0.2451704966975895017 0.86015840396237353005 -0.28468126218237205238 0.79978472799252320335 -0.036849853891304927556 0.68476576594854277058 -0.54009825080750129001 0.33215593102749163545 -0.094238310311973522149 0.18884035144207855783 0.18557334442170586586 -0.34362076286313547602 -0.61647789288789245354 0.5417206255402003956 0.87575777468192661512 0.47361291568058644375 -0.039877296633189077135 0.27561918961354708868 -0.37734079758934913063 0.58560310121419067997 -0.069598248082811703386 -0.028090833773422928948 0.10150959268378013933 0.027294953202320428043 0.058219930349144036197 -0.27406491541822108893 0.34631881999067198885 -0.080853991263756280761 0.10864180299776636518 -0.027595163812084714389;-0.020599637540368535144 0.14384161124040109603 0.21015277404664303718 0.34029619516526826706 -0.43883386625472559084 -0.23278005935507870006 -0.21410480232808035139 0.088331857964256896287 -0.40194308037063630756 0.022807446897194938451 0.11503656196944213319 -0.26460153355404969489 